{"learner":{"attributes":{"scikit_learn":"{\"_estimator_type\": \"classifier\"}"},"feature_names":["mean_radius","mean_texture","mean_perimeter","mean_area","mean_smoothness"],"feature_types":["float","float","float","float","float"],"gradient_booster":{"model":{"cats":{"enc":[],"feature_segments":[],"sorted_idx":[]},"gbtree_model_param":{"num_parallel_tree":"1","num_trees":"100"},"iteration_indptr":[0,1,2,3,4,5,6,7,8,9,10,11,12,13,14,15,16,17,18,19,20,21,22,23,24,25,26,27,28,29,30,31,32,33,34,35,36,37,38,39,40,41,42,43,44,45,46,47,48,49,50,51,52,53,54,55,56,57,58,59,60,61,62,63,64,65,66,67,68,69,70,71,72,73,74,75,76,77,78,79,80,81,82,83,84,85,86,87,88,89,90,91,92,93,94,95,96,97,98,99,100],"tree_info":[0,0,0,0,0,0,0,0,0,0,0,0,0,0,0,0,0,0,0,0,0,0,0,0,0,0,0,0,0,0,0,0,0,0,0,0,0,0,0,0,0,0,0,0,0,0,0,0,0,0,0,0,0,0,0,0,0,0,0,0,0,0,0,0,0,0,0,0,0,0,0,0,0,0,0,0,0,0,0,0,0,0,0,0,0,0,0,0,0,0,0,0,0,0,0,0,0,0,0,0],"trees":[{"base_weights":[-9.427297E-8,1.0334587E0,-2.3817084E0,1.3946015E0,2.0642233E-1,6.997756E-2,-7.5796056E-1,4.3984878E-1,-1.0559599E-1,1.227812E0,-8.123997E-1,4.5941743E-1,4.2813107E-1,3.60466E-1,-1.5711429E0,3.1219676E-1,-1.5646878E-1,-5.2880174E-1,-5.6257486E-1,1.5495002E-1,-4.3294758E-1],"categories":[],"categories_nodes":[],"categories_segments":[],"categories_sizes":[],"default_left":[0,0,0,0,0,0,0,0,0,0,0,0,0,0,0,0,0,0,0,0,0],"id":0,"left_children":[1,3,5,7,9,-1,-1,-1,-1,11,13,15,-1,-1,17,-1,-1,19,-1,-1,-1],"loss_changes":[2.6702103E2,2.230877E1,1.3021851E1,7.0762405E0,2.614802E1,0E0,0E0,0E0,0E0,1.2535591E0,2.1296614E1,2.8476682E0,0E0,0E0,2.0701313E0,0E0,0E0,4.1616573E0,0E0,0E0,0E0],"parents":[2147483647,0,0,1,1,2,2,3,3,4,4,9,9,10,10,11,11,14,14,17,17],"right_children":[2,4,6,8,10,-1,-1,-1,-1,12,14,16,-1,-1,18,-1,-1,20,-1,-1,-1],"split_conditions":[6.988E2,8.526E1,1.398E1,1.183E-1,9.427E-2,6.997756E-2,-7.5796056E-1,4.3984878E-1,-1.0559599E-1,1.362E1,1.534E1,5.621E2,4.2813107E-1,3.60466E-1,1.89E1,3.1219676E-1,-1.5646878E-1,1.08E-1,-5.6257486E-1,1.5495002E-1,-4.3294758E-1],"split_indices":[3,2,1,4,4,0,0,0,0,0,1,3,0,0,1,0,0,4,0,0,0],"split_type":[0,0,0,0,0,0,0,0,0,0,0,0,0,0,0,0,0,0,0,0,0],"sum_hessian":[1.0648351E2,7.465547E1,3.182804E1,5.1486534E1,2.316894E1,1.6382079E0,3.018983E1,4.9614296E1,1.8722376E0,1.1467455E1,1.1701485E1,3.042386E0,8.425069E0,3.042386E0,8.659099E0,1.8722376E0,1.1701485E0,2.5743268E0,6.084772E0,1.4041781E0,1.1701485E0],"tree_param":{"num_deleted":"0","num_feature":"5","num_nodes":"21","size_leaf_vector":"1"}},{"base_weights":[2.8619695E-2,8.480997E-1,-1.577502E0,1.042476E0,-2.660702E-1,5.7729725E-2,-1.6701621E0,3.9198494E-1,4.707886E-1,3.2742026E-1,-9.1556644E-1,-1.6127366E-1,-5.092039E-1,3.5299236E-1,-3.0515677E-1,1.9631262E-1,-4.788432E-1,3.1659076E-1,-1.079867E0,-1.7808312E-1,-4.188983E-1],"categories":[],"categories_nodes":[],"categories_segments":[],"categories_sizes":[],"default_left":[0,0,0,0,0,0,0,0,0,0,0,0,0,0,0,0,0,0,0,0,0],"id":1,"left_children":[1,3,5,7,9,-1,11,-1,13,-1,15,-1,-1,-1,17,-1,-1,-1,19,-1,-1],"loss_changes":[1.3396378E2,1.4868134E1,5.9619064E0,8.07798E0,1.0525227E1,0E0,9.693146E-2,0E0,1.1179525E1,0E0,9.433766E0,0E0,0E0,0E0,1.1895105E1,0E0,0E0,0E0,2.4774551E-1,0E0,0E0],"parents":[2147483647,0,0,1,1,2,2,3,3,4,4,6,6,8,8,10,10,14,14,18,18],"right_children":[2,4,6,8,10,-1,12,-1,14,-1,16,-1,-1,-1,18,-1,-1,-1,20,-1,-1],"split_conditions":[6.988E2,1.085E-1,1.398E1,1.962E1,1.534E1,5.7729725E-2,8.261E-2,3.9198494E-1,9.037E-2,3.2742026E-1,7.653E1,-1.6127366E-1,-5.092039E-1,3.5299236E-1,8.045E1,1.9631262E-1,-4.788432E-1,3.1659076E-1,1.411E1,-1.7808312E-1,-4.188983E-1],"split_indices":[3,4,1,1,1,0,4,0,4,0,2,0,0,0,2,0,0,0,0,0,0],"split_type":[0,0,0,0,0,0,0,0,0,0,0,0,0,0,0,0,0,0,0,0,0],"sum_hessian":[9.976541E1,6.637257E1,3.3392845E1,5.6568127E1,9.804441E0,1.607656E0,3.1785189E1,3.7812046E1,1.8756083E1,2.9527357E0,6.851706E0,1.231984E0,3.0553204E1,9.551235E0,9.204847E0,2.0836608E0,4.7680454E0,3.2084093E0,5.9964385E0,3.4977539E0,2.4986844E0],"tree_param":{"num_deleted":"0","num_feature":"5","num_nodes":"21","size_leaf_vector":"1"}},{"base_weights":[3.299273E-2,7.714982E-1,-1.2123367E0,1.0333313E0,1.7699355E-1,8.608284E-2,-1.3167287E0,3.321354E-1,-8.112143E-2,8.2081234E-1,-4.6581602E-1,-3.157957E-1,-4.1851208E-1,3.3059505E-1,-2.2761356E-2,5.457109E-1,-9.9990547E-1,1.0029895E-1,-2.773187E-1,1.9900842E-1,-1.8802483E-1,-5.9071284E-2,2.6277164E-1,-5.1905775E-1,-3.675757E-1,2.8204897E-2,-2.809301E-1],"categories":[],"categories_nodes":[],"categories_segments":[],"categories_sizes":[],"default_left":[0,0,0,0,0,0,0,0,0,0,0,0,0,0,0,0,0,0,0,0,0,0,0,0,0,0,0],"id":2,"left_children":[1,3,5,7,9,-1,11,-1,-1,13,15,17,-1,-1,19,21,23,-1,-1,-1,-1,-1,-1,25,-1,-1,-1],"loss_changes":[8.157119E1,8.479626E0,5.547138E0,3.9960632E0,7.9236407E0,0E0,1.9938354E0,0E0,0E0,2.2703032E0,5.8163967E0,1.7121421E0,0E0,0E0,1.8024309E0,1.1577594E0,9.413481E-2,0E0,0E0,0E0,0E0,0E0,0E0,1.0821692E0,0E0,0E0,0E0],"parents":[2147483647,0,0,1,1,2,2,3,3,4,4,6,6,9,9,10,10,11,11,14,14,15,15,16,16,23,23],"right_children":[2,4,6,8,10,-1,12,-1,-1,14,16,18,-1,-1,20,22,24,-1,-1,-1,-1,-1,-1,26,-1,-1,-1],"split_conditions":[9.671E1,8.526E1,8.206E-2,1.183E-1,1.962E1,8.608284E-2,1.573E1,3.321354E-1,-8.112143E-2,1.024E-1,9.258E-2,1.057E2,-4.1851208E-1,3.3059505E-1,1.534E1,1.345E1,1.003E-1,1.0029895E-1,-2.773187E-1,1.9900842E-1,-1.8802483E-1,-5.9071284E-2,2.6277164E-1,1.411E1,-3.675757E-1,2.8204897E-2,-2.809301E-1],"split_indices":[2,2,4,4,1,0,1,0,0,4,4,2,0,0,1,0,4,0,0,0,0,0,0,0,0,0,0],"split_type":[0,0,0,0,0,0,0,0,0,0,0,0,0,0,0,0,0,0,0,0,0,0,0,0,0,0,0],"sum_hessian":[8.667795E1,5.4649925E1,3.2028023E1,3.7427765E1,1.722216E1,1.9710532E0,3.0056969E1,3.5565685E1,1.8620785E0,8.465977E0,8.756183E0,2.5461423E0,2.7510826E1,6.1198473E0,2.34613E0,3.0181892E0,5.7379932E0,1.4489675E0,1.0971749E0,1.0523602E0,1.2937698E0,1.0531969E0,1.9649924E0,2.8851018E0,2.8528912E0,1.4823928E0,1.4027091E0],"tree_param":{"num_deleted":"0","num_feature":"5","num_nodes":"27","size_leaf_vector":"1"}},{"base_weights":[2.7594794E-2,6.247307E-1,-1.1574328E0,8.718386E-1,2.7328255E-2,-3.109964E-1,-3.6903095E-1,1.0832745E0,4.64493E-1,2.793794E-1,-5.794457E-1,1.1365449E-1,-2.3781164E-1,3.36456E-1,1.2996723E-1,2.6997593E-1,-1.8536465E-1,2.4056005E-1,-1.0030931E0,4.433983E-1,-6.3914514E-1,-5.515543E-1,-3.782691E-1,1.3635778E-2,1.9509868E-1,-2.6350778E-1,-2.8241398E-2,3.7116826E-2,-2.7236238E-1],"categories":[],"categories_nodes":[],"categories_segments":[],"categories_sizes":[],"default_left":[0,0,0,0,0,0,0,0,0,0,0,0,0,0,0,0,0,0,0,0,0,0,0,0,0,0,0,0,0],"id":3,"left_children":[1,3,5,7,9,11,-1,13,15,-1,17,-1,-1,-1,-1,-1,19,-1,21,23,25,27,-1,-1,-1,-1,-1,-1,-1],"loss_changes":[5.3529465E1,7.3972454E0,1.177021E0,2.5568237E0,9.173729E0,1.4112284E0,0E0,7.694435E-2,4.0974054E0,0E0,6.677041E0,0E0,0E0,0E0,0E0,0E0,2.1101007E0,0E0,2.50288E-1,2.4005562E-1,4.555167E-1,1.2504972E0,0E0,0E0,0E0,0E0,0E0,0E0,0E0],"parents":[2147483647,0,0,1,1,2,2,3,3,4,4,5,5,7,7,8,8,10,10,16,16,18,18,19,19,20,20,21,21],"right_children":[2,4,6,8,10,12,-1,14,16,-1,18,-1,-1,-1,-1,-1,20,-1,22,24,26,28,-1,-1,-1,-1,-1,-1,-1],"split_conditions":[9.892E1,1.026E-1,1.573E1,1.962E1,7.742E1,9.855E-2,-3.6903095E-1,9.947E-2,1.34E1,2.793794E-1,1.534E1,1.1365449E-1,-2.3781164E-1,3.36456E-1,1.2996723E-1,2.6997593E-1,8.983E-2,2.4056005E-1,2.013E1,8.352E-2,9.492E-2,1.085E-1,-3.782691E-1,1.3635778E-2,1.9509868E-1,-2.6350778E-1,-2.8241398E-2,3.7116826E-2,-2.7236238E-1],"split_indices":[2,4,1,1,2,4,0,4,0,0,1,0,0,0,0,0,4,0,1,4,4,4,0,0,0,0,0,0,0],"split_type":[0,0,0,0,0,0,0,0,0,0,0,0,0,0,0,0,0,0,0,0,0,0,0,0,0,0,0,0,0],"sum_hessian":[7.362506E1,4.9270462E1,2.4354593E1,3.4528717E1,1.4741745E1,2.3430595E0,2.2011534E1,2.1638E1,1.28907175E1,5.7062006E0,9.035544E0,1.0511968E0,1.2918626E0,1.9750694E1,1.8873063E0,7.488424E0,5.402294E0,1.9112142E0,7.12433E0,2.2741237E0,3.1281703E0,3.7302678E0,3.3940623E0,1.1952345E0,1.0788891E0,1.748898E0,1.3792723E0,1.5139313E0,2.2163365E0],"tree_param":{"num_deleted":"0","num_feature":"5","num_nodes":"29","size_leaf_vector":"1"}},{"base_weights":[2.6898282E-2,5.654976E-1,-9.970043E-1,3.081571E-1,2.545509E-1,5.7102393E-2,-1.0916439E0,9.1270673E-1,-1.7981477E-1,-3.705763E-1,-3.462639E-1,3.0784667E-1,1.2055242E-2,7.55771E-1,-5.9133005E-1,5.5109367E-2,-2.3160793E-1,2.7257204E-1,1.5559589E-2,-1.8112443E-1,-9.2290926E-1,9.7116366E-2,-1.1867343E-1,-6.289531E-2,-3.081847E-1],"categories":[],"categories_nodes":[],"categories_segments":[],"categories_sizes":[],"default_left":[0,0,0,0,0,0,0,0,0,0,0,0,0,0,0,0,0,0,0,0,0,0,0,0,0],"id":4,"left_children":[1,3,5,-1,7,-1,9,11,13,15,-1,-1,-1,17,19,-1,-1,-1,-1,21,23,-1,-1,-1,-1],"loss_changes":[3.532673E1,5.7603254E0,2.6901245E0,0E0,7.7097015E0,0E0,5.0205994E-1,1.0138073E0,6.89032E0,8.3569795E-1,0E0,0E0,0E0,5.499821E-1,1.490099E0,0E0,0E0,0E0,0E0,8.5242105E-1,2.6805592E-1,0E0,0E0,0E0,0E0],"parents":[2147483647,0,0,1,1,2,2,4,4,6,6,7,7,8,8,9,9,13,13,14,14,19,19,20,20],"right_children":[2,4,6,-1,8,-1,10,12,14,16,-1,-1,-1,18,20,-1,-1,-1,-1,22,24,-1,-1,-1,-1],"split_conditions":[6.988E2,9.04E-2,8.206E-2,3.081571E-1,4.273E2,5.7102393E-2,1.573E1,1.183E-1,1.658E1,1.057E2,-3.462639E-1,3.0784667E-1,1.2055242E-2,1.133E-1,1.024E-1,5.5109367E-2,-2.3160793E-1,2.7257204E-1,1.5559589E-2,1.959E1,8.098E1,9.7116366E-2,-1.1867343E-1,-6.289531E-2,-3.081847E-1],"split_indices":[3,4,4,0,3,0,1,4,1,2,0,0,0,4,4,0,0,0,0,1,2,0,0,0,0],"split_type":[0,0,0,0,0,0,0,0,0,0,0,0,0,0,0,0,0,0,0,0,0,0,0,0,0],"sum_hessian":[6.2036472E1,4.0945683E1,2.1090788E1,1.55514765E1,2.5394207E1,1.4823283E0,1.960846E1,9.65842E0,1.5735787E1,2.1183653E0,1.7490095E1,8.3912735E0,1.2671453E0,4.551449E0,1.1184339E1,1.1176552E0,1.0007101E0,3.5007522E0,1.0506967E0,5.690596E0,5.493743E0,1.5447E0,4.145896E0,1.0853584E0,4.4083843E0],"tree_param":{"num_deleted":"0","num_feature":"5","num_nodes":"25","size_leaf_vector":"1"}},{"base_weights":[2.6584085E-2,4.9064514E-1,-9.435621E-1,2.83134E-1,2.0616916E-1,-2.1842894E-1,-1.0353477E0,8.759963E-1,-1.5328707E-1,1.05965175E-1,-1.9132231E-1,-8.307784E-2,-3.2161704E-1,2.9366887E-1,4.0529378E-2,2.5094917E-1,-4.2057332E-1,-2.0471172E-1,-2.9796404E-1,5.15049E-2,-1.769464E-1],"categories":[],"categories_nodes":[],"categories_segments":[],"categories_sizes":[],"default_left":[0,0,0,0,0,0,0,0,0,0,0,0,0,0,0,0,0,0,0,0,0],"id":5,"left_children":[1,3,5,-1,7,9,11,13,15,-1,-1,-1,-1,-1,-1,-1,17,19,-1,-1,-1],"loss_changes":[2.4338371E1,4.514433E0,9.3869305E-1,0E0,5.8457317E0,1.0003912E0,1.2818718E-1,5.1067877E-1,4.6609373E0,0E0,0E0,0E0,0E0,0E0,0E0,0E0,1.4642286E0,1.703981E0,0E0,0E0,0E0],"parents":[2147483647,0,0,1,1,2,2,4,4,5,5,6,6,7,7,8,8,16,16,17,17],"right_children":[2,4,6,-1,8,10,12,14,16,-1,-1,-1,-1,-1,-1,-1,18,20,-1,-1,-1],"split_conditions":[9.892E1,9.04E-2,1.573E1,2.83134E-1,1.658E1,9.855E-2,8.261E-2,1.172E-1,7.33E1,1.05965175E-1,-1.9132231E-1,-8.307784E-2,-3.2161704E-1,2.9366887E-1,4.0529378E-2,2.5094917E-1,1.109E-1,5.592E2,-2.9796404E-1,5.15049E-2,-1.769464E-1],"split_indices":[2,4,1,0,1,4,4,4,2,0,0,0,0,0,0,0,4,3,0,0,0],"split_type":[0,0,0,0,0,0,0,0,0,0,0,0,0,0,0,0,0,0,0,0,0],"sum_hessian":[5.203208E1,3.5530586E1,1.6501493E1,1.2809321E1,2.2721266E1,2.2337756E0,1.4267717E1,7.433094E0,1.5288171E1,1.0118933E0,1.2218825E0,1.053147E0,1.321457E1,6.2445846E0,1.1885095E0,2.7978597E0,1.2490312E1,1.0056801E1,2.43351E0,5.3662167E0,4.690584E0],"tree_param":{"num_deleted":"0","num_feature":"5","num_nodes":"21","size_leaf_vector":"1"}},{"base_weights":[2.3191959E-2,4.2970392E-1,-8.616206E-1,7.5433356E-1,6.2097006E-2,-1.8211392E-1,-9.681969E-1,2.9480505E-1,3.72651E-1,6.666455E-1,-2.5835985E-1,8.964576E-2,-1.6286224E-1,-7.159223E-2,-3.038822E-1,2.5677508E-1,-7.9534546E-2,2.4632525E-1,5.4165795E-2,5.3100073E-1,-5.3796864E-1,1.8272096E-1,-4.6354678E-1,1.9566639E-1,3.800606E-2,-1.8809684E-1,-8.149106E-1,-2.1247946E-1,1.2010885E-2,-1.9235152E-1,1.0388811E-1,-4.0993705E-2,-2.9382408E-1],"categories":[],"categories_nodes":[],"categories_segments":[],"categories_sizes":[],"default_left":[0,0,0,0,0,0,0,0,0,0,0,0,0,0,0,0,0,0,0,0,0,0,0,0,0,0,0,0,0,0,0,0,0],"id":6,"left_children":[1,3,5,7,9,11,13,-1,15,17,19,-1,-1,-1,-1,-1,21,-1,-1,23,25,-1,27,-1,-1,29,31,-1,-1,-1,-1,-1,-1],"loss_changes":[1.6609266E1,3.7244558E0,8.770428E-1,1.0886688E0,3.254478E0,7.180711E-1,1.6114044E-1,0E0,1.7855266E0,2.864964E-1,2.7397103E0,0E0,0E0,0E0,0E0,0E0,1.5979291E0,0E0,0E0,8.457756E-2,6.903939E-1,0E0,4.9194777E-1,0E0,0E0,1.4682535E0,3.7496233E-1,0E0,0E0,0E0,0E0,0E0,0E0],"parents":[2147483647,0,0,1,1,2,2,3,3,4,4,5,5,6,6,8,8,9,9,10,10,16,16,19,19,20,20,22,22,25,25,26,26],"right_children":[2,4,6,8,10,12,14,-1,16,18,20,-1,-1,-1,-1,-1,22,-1,-1,24,26,-1,28,-1,-1,30,32,-1,-1,-1,-1,-1,-1],"split_conditions":[9.892E1,1.861E1,1.573E1,9.947E-2,9.037E-2,9.855E-2,8.261E-2,2.9480505E-1,4.273E2,5.621E2,7.666E1,8.964576E-2,-1.6286224E-1,-7.159223E-2,-3.038822E-1,2.5677508E-1,1.534E1,2.4632525E-1,5.4165795E-2,7.173E1,1.015E-1,1.8272096E-1,1.708E1,1.9566639E-1,3.800606E-2,9.492E-2,2.013E1,-2.1247946E-1,1.2010885E-2,-1.9235152E-1,1.0388811E-1,-4.0993705E-2,-2.9382408E-1],"split_indices":[2,1,1,4,4,4,4,0,3,3,2,0,0,0,0,0,1,0,0,2,4,0,1,0,0,4,1,0,0,0,0,0,0],"split_type":[0,0,0,0,0,0,0,0,0,0,0,0,0,0,0,0,0,0,0,0,0,0,0,0,0,0,0,0,0,0,0,0,0],"sum_hessian":[4.4147675E1,3.060232E1,1.3545355E1,1.5692463E1,1.4909856E1,2.2037175E0,1.1341637E1,8.833201E0,6.859262E0,4.7910824E0,1.0118773E1,1.0181317E0,1.1855857E0,1.0213766E0,1.032026E1,2.8840919E0,3.97517E0,3.112914E0,1.6781679E0,2.4115806E0,7.707193E0,1.2133471E0,2.761823E0,1.3835976E0,1.027983E0,4.1471395E0,3.5600533E0,1.5850911E0,1.1767317E0,2.1361873E0,2.0109522E0,1.0522329E0,2.5078206E0],"tree_param":{"num_deleted":"0","num_feature":"5","num_nodes":"33","size_leaf_vector":"1"}},{"base_weights":[2.5286501E-2,4.002073E-1,-7.608966E-1,2.5234932E-1,1.7191711E-1,3.9978884E-2,-8.787516E-1,2.6398677E-1,-7.075663E-2,-7.161309E-2,-2.7627516E-1,5.860163E-1,-2.922704E-1,2.1972266E-1,2.4833515E-2,-1.0380594E-1,-2.4815165E-1,4.594209E-2,-1.1814877E-1],"categories":[],"categories_nodes":[],"categories_segments":[],"categories_sizes":[],"default_left":[0,0,0,0,0,0,0,0,0,0,0,0,0,0,0,0,0,0,0],"id":7,"left_children":[1,3,5,-1,7,-1,9,-1,11,-1,-1,13,15,-1,-1,17,-1,-1,-1],"loss_changes":[1.1738033E1,2.5653057E0,1.4733481E0,0E0,3.3258493E0,0E0,9.060192E-2,0E0,2.363902E0,0E0,0E0,2.4391854E-1,1.1175358E0,0E0,0E0,8.0333155E-1,0E0,0E0,0E0],"parents":[2147483647,0,0,1,1,2,2,4,4,6,6,8,8,11,11,12,12,15,15],"right_children":[2,4,6,-1,8,-1,10,-1,12,-1,-1,14,16,-1,-1,18,-1,-1,-1],"split_conditions":[6.988E2,9.04E-2,1.398E1,2.5234932E-1,7.33E1,3.9978884E-2,1.573E1,2.6398677E-1,1.658E1,-7.161309E-2,-2.7627516E-1,1.102E-1,1.109E-1,2.1972266E-1,2.4833515E-2,8.721E1,-2.4815165E-1,4.594209E-2,-1.1814877E-1],"split_indices":[3,4,1,0,2,0,1,0,1,0,0,4,4,0,0,2,0,0,0],"split_type":[0,0,0,0,0,0,0,0,0,0,0,0,0,0,0,0,0,0,0],"sum_hessian":[3.778971E1,2.5919825E1,1.1869887E1,7.9258723E0,1.7993952E1,1.367092E0,1.0502796E1,3.9227185E0,1.4071234E1,1.0608693E0,9.441926E0,3.1339076E0,1.0937326E1,2.0749185E0,1.058989E0,8.970701E0,1.9666246E0,5.0068517E0,3.9638498E0],"tree_param":{"num_deleted":"0","num_feature":"5","num_nodes":"19","size_leaf_vector":"1"}},{"base_weights":[2.5919579E-2,4.2364633E-1,-5.5062455E-1,5.850053E-1,-1.3710861E-1,-5.416126E-2,-2.7481174E-1,7.3461753E-1,1.0963691E-1,1.2043993E-1,-1.466426E-1,5.8673126E-1,-5.007505E-1,2.5447303E-1,1.3683364E-1,-2.2134791E-1,5.3669655E-1,2.2839947E-1,5.5262078E-2,4.9425516E-2,-2.2143267E-1,-1.0262148E-1,1.6003785E-1,3.1729084E-2,2.4333294E-1],"categories":[],"categories_nodes":[],"categories_segments":[],"categories_sizes":[],"default_left":[0,0,0,0,0,0,0,0,0,0,0,0,0,0,0,0,0,0,0,0,0,0,0,0,0],"id":8,"left_children":[1,3,5,7,9,11,-1,13,15,-1,-1,17,19,-1,21,-1,23,-1,-1,-1,-1,-1,-1,-1,-1],"loss_changes":[7.963766E0,1.9364793E0,2.525981E0,1.0659881E0,1.2180147E0,2.320821E0,0E0,7.0487833E-1,2.218078E0,0E0,0E0,9.652245E-2,8.6612713E-1,0E0,7.7563715E-1,0E0,3.7853754E-1,0E0,0E0,0E0,0E0,0E0,0E0,0E0,0E0],"parents":[2147483647,0,0,1,1,2,2,3,3,4,4,5,5,7,7,8,8,11,11,12,12,14,14,16,16],"right_children":[2,4,6,8,10,12,-1,14,16,-1,-1,18,20,-1,22,-1,24,-1,-1,-1,-1,-1,-1,-1,-1],"split_conditions":[9.287E1,1.085E-1,1.977E1,2.156E1,7.742E1,9.463E-2,-2.7481174E-1,5.592E2,2.253E1,1.2043993E-1,-1.466426E-1,1.573E1,1.537E1,2.5447303E-1,5.827E2,-2.2134791E-1,2.697E1,2.2839947E-1,5.5262078E-2,4.9425516E-2,-2.2143267E-1,-1.0262148E-1,1.6003785E-1,3.1729084E-2,2.4333294E-1],"split_indices":[2,4,1,1,2,4,0,3,1,0,0,1,0,0,3,0,1,0,0,0,0,0,0,0,0],"split_type":[0,0,0,0,0,0,0,0,0,0,0,0,0,0,0,0,0,0,0,0,0,0,0,0,0],"sum_hessian":[3.2712425E1,1.9515162E1,1.3197263E1,1.5120846E1,4.394316E0,6.0821238E0,7.1151385E0,1.1086301E1,4.034545E0,1.6800591E0,2.7142572E0,2.3688388E0,3.713285E0,8.963544E0,2.122757E0,1.1080418E0,2.9265032E0,1.0304673E0,1.3383715E0,1.0566261E0,2.656659E0,1.0239437E0,1.0988132E0,1.6775422E0,1.248961E0],"tree_param":{"num_deleted":"0","num_feature":"5","num_nodes":"25","size_leaf_vector":"1"}},{"base_weights":[2.82425E-2,2.3788865E-1,-2.5366652E-1,5.747057E-1,-2.9894954E-2,2.4764213E-1,-4.3734778E-2,4.7430658E-1,-2.7034032E-1,1.11201294E-1,-1.2125849E-1,2.1321963E-1,2.2169702E-2,1.6465998E-1,-4.1756928E-1,-2.0091626E-1,-2.3328967E-1,-1.7181148E-1,9.414828E-2],"categories":[],"categories_nodes":[],"categories_segments":[],"categories_sizes":[],"default_left":[0,0,0,0,0,0,0,0,0,0,0,0,0,0,0,0,0,0,0],"id":9,"left_children":[1,3,-1,5,7,-1,9,11,13,-1,-1,-1,-1,-1,15,17,-1,-1,-1],"loss_changes":[5.691295E0,2.2676334E0,0E0,1.7576373E0,1.9286097E0,0E0,7.7006865E-1,4.357953E-1,1.5188038E0,0E0,0E0,0E0,0E0,0E0,5.950922E-1,1.5885572E0,0E0,0E0,0E0],"parents":[2147483647,0,0,1,1,3,3,4,4,6,6,7,7,8,8,14,14,15,15],"right_children":[2,4,-1,6,8,-1,10,12,14,-1,-1,-1,-1,-1,16,18,-1,-1,-1],"split_conditions":[1.088E2,1.805E1,-2.5366652E-1,1.073E-1,9.037E-2,2.4764213E-1,8.135E1,5.621E2,7.33E1,1.11201294E-1,-1.2125849E-1,2.1321963E-1,2.2169702E-2,1.6465998E-1,1.411E1,8.61E1,-2.3328967E-1,-1.7181148E-1,9.414828E-2],"split_indices":[2,1,0,4,4,0,2,3,2,0,0,0,0,0,0,2,0,0,0],"split_type":[0,0,0,0,0,0,0,0,0,0,0,0,0,0,0,0,0,0,0],"sum_hessian":[2.896997E1,2.395122E1,5.0187507E0,1.0100587E1,1.3850633E1,6.948366E0,3.1522212E0,4.1582923E0,9.692341E0,1.4532053E0,1.6990157E0,2.1272252E0,2.0310671E0,1.0609661E0,8.631374E0,6.361567E0,2.2698076E0,3.6283116E0,2.7332554E0],"tree_param":{"num_deleted":"0","num_feature":"5","num_nodes":"19","size_leaf_vector":"1"}},{"base_weights":[2.6283842E-2,2.7391806E-1,-5.667787E-1,7.2496754E-1,8.973305E-2,7.500452E-2,-7.2191167E-1,2.4163844E-1,7.387347E-2,3.980857E-1,-2.864562E-1,-6.500327E-2,-2.6217026E-1,2.019136E-1,4.4249408E-2,9.729149E-2,-5.5805904E-1,-3.8260806E-1,2.2095637E-1,-2.3688404E-1,-2.4637051E-1,-1.786154E-1,1.6663624E-2,-1.8360224E-1,7.227875E-2],"categories":[],"categories_nodes":[],"categories_segments":[],"categories_sizes":[],"default_left":[0,0,0,0,0,0,0,0,0,0,0,0,0,0,0,0,0,0,0,0,0,0,0,0,0],"id":10,"left_children":[1,3,5,7,9,-1,11,-1,-1,13,15,-1,-1,-1,17,-1,19,21,-1,23,-1,-1,-1,-1,-1],"loss_changes":[4.1319857E0,1.5778748E0,1.2324302E0,1.7172337E-2,1.8752811E0,0E0,3.6614466E-1,0E0,0E0,8.227211E-1,1.4119885E0,0E0,0E0,0E0,1.7303476E0,0E0,2.7070558E-1,3.77123E-1,0E0,8.436702E-1,0E0,0E0,0E0,0E0,0E0],"parents":[2147483647,0,0,1,1,2,2,3,3,4,4,6,6,9,9,10,10,14,14,16,16,17,17,19,19],"right_children":[2,4,6,8,10,-1,12,-1,-1,14,16,-1,-1,-1,18,-1,20,22,-1,24,-1,-1,-1,-1,-1],"split_conditions":[6.988E2,1.658E1,8.206E-2,1.158E-1,9.947E-2,7.500452E-2,1.057E2,2.4163844E-1,7.387347E-2,2.146E1,1.176E1,-6.500327E-2,-2.6217026E-1,2.019136E-1,2.5E1,9.729149E-2,8.812E1,5.732E2,2.2095637E-1,1.236E1,-2.4637051E-1,-1.786154E-1,1.6663624E-2,-1.8360224E-1,7.227875E-2],"split_indices":[3,1,4,4,4,0,2,0,0,1,0,0,0,0,1,0,2,3,0,0,0,0,0,0,0],"split_type":[0,0,0,0,0,0,0,0,0,0,0,0,0,0,0,0,0,0,0,0,0,0,0,0,0],"sum_hessian":[2.6077927E1,1.8776075E1,7.3018513E0,4.5927753E0,1.4183301E1,1.0678537E0,6.2339973E0,3.34741E0,1.2453654E0,7.76243E0,6.4208703E0,2.0026174E0,4.23138E0,3.860427E0,3.9020033E0,1.916697E0,4.5041733E0,2.6904047E0,1.2115986E0,2.8843117E0,1.619862E0,1.5694143E0,1.1209904E0,1.458453E0,1.4258586E0],"tree_param":{"num_deleted":"0","num_feature":"5","num_nodes":"25","size_leaf_vector":"1"}},{"base_weights":[2.3726678E-2,3.6212894E-1,-3.170903E-1,4.856503E-1,-9.622761E-2,2.3483522E-1,-5.121079E-1,2.4690899E-1,2.1687722E-1,1.9875963E-1,-4.9467057E-2,6.668982E-2,-6.3708144E-1,-1.9340266E-1,4.4541425E-1,-6.938129E-1,-3.1831954E-2,2.5421694E-1,-1.582905E-1,-3.6219293E-1,-2.5544903E-1,-9.899481E-2,1.5911672E-2,-1.9411232E-1,-1.7595995E-2],"categories":[],"categories_nodes":[],"categories_segments":[],"categories_sizes":[],"default_left":[0,0,0,0,0,0,0,0,0,0,0,0,0,0,0,0,0,0,0,0,0,0,0,0,0],"id":11,"left_children":[1,3,5,7,-1,9,11,-1,13,-1,-1,-1,15,-1,17,19,-1,-1,21,23,-1,-1,-1,-1,-1],"loss_changes":[2.9641418E0,1.2408108E0,1.502487E0,8.4533E-1,0E0,7.996605E-1,1.0413878E0,0E0,1.7918553E0,0E0,0E0,0E0,1.8653536E-1,0E0,1.7433922E0,9.0165615E-2,0E0,0E0,1.4424731E-1,3.2489407E-1,0E0,0E0,0E0,0E0,0E0],"parents":[2147483647,0,0,1,1,2,2,3,3,5,5,6,6,8,8,12,12,14,14,15,15,18,18,19,19],"right_children":[2,4,6,8,-1,10,12,-1,14,-1,-1,-1,16,-1,18,20,-1,-1,22,24,-1,-1,-1,-1,-1],"split_conditions":[5.621E2,1.183E-1,1.684E1,4.289E2,-9.622761E-2,9.463E-2,8.139E-2,2.4690899E-1,4.427E2,1.9875963E-1,-4.9467057E-2,6.668982E-2,2.525E1,-1.9340266E-1,2.019E1,9.579E-2,-3.1831954E-2,2.5421694E-1,5.069E2,1.365E1,-2.5544903E-1,-9.899481E-2,1.5911672E-2,-1.9411232E-1,-1.7595995E-2],"split_indices":[3,4,1,3,0,4,4,0,3,0,0,0,1,0,1,4,0,0,3,0,0,0,0,0,0],"split_type":[0,0,0,0,0,0,0,0,0,0,0,0,0,0,0,0,0,0,0,0,0,0,0,0,0],"sum_hessian":[2.3705057E1,1.1863289E1,1.1841768E1,1.0290722E1,1.5725672E0,3.0384314E0,8.803337E0,3.648605E0,6.6421165E0,1.1502368E0,1.8881946E0,1.1669545E0,7.6363826E0,1.010771E0,5.6313457E0,6.6221666E0,1.0142158E0,3.1381598E0,2.493186E0,3.1965525E0,3.4256139E0,1.0658152E0,1.4273708E0,1.065248E0,2.1313045E0],"tree_param":{"num_deleted":"0","num_feature":"5","num_nodes":"25","size_leaf_vector":"1"}},{"base_weights":[1.5645077E-2,1.5764491E-1,-2.1011017E-1,2.2205202E-1,3.7433546E-2,1.6726923E-1,-2.1404281E-1,2.1405488E-1,-1.7589508E-2,3.4707808E-1,-1.8486743E-1,1.7665212E-1,8.904802E-3,-1.5320462E-2,-1.4079693E-1],"categories":[],"categories_nodes":[],"categories_segments":[],"categories_sizes":[],"default_left":[0,0,0,0,0,0,0,0,0,0,0,0,0,0,0],"id":12,"left_children":[1,3,-1,-1,5,7,-1,-1,9,11,13,-1,-1,-1,-1],"loss_changes":[2.4274597E0,1.3611853E0,0E0,0E0,1.8249451E0,1.6004812E0,0E0,0E0,8.404128E-1,3.1625122E-1,3.3288503E-1,0E0,0E0,0E0,0E0],"parents":[2147483647,0,0,1,1,4,4,5,5,8,8,9,9,10,10],"right_children":[2,4,-1,-1,6,8,-1,-1,10,12,14,-1,-1,-1,-1],"split_conditions":[1.088E2,7.33E1,-2.1011017E-1,2.2205202E-1,1.162E-1,1.658E1,-2.1404281E-1,2.1405488E-1,9.029E-2,2.019E1,6.024E2,1.7665212E-1,8.904802E-3,-1.5320462E-2,-1.4079693E-1],"split_indices":[2,2,0,0,4,1,0,0,4,1,3,0,0,0,0],"split_type":[0,0,0,0,0,0,0,0,0,0,0,0,0,0,0],"sum_hessian":[2.17891E1,1.8833801E1,2.9552975E0,2.3395214E0,1.649428E1,1.4725431E1,1.7688497E0,3.0002053E0,1.1725225E1,3.3491611E0,8.376064E0,1.4156353E0,1.9335257E0,6.4987717E0,1.8772931E0],"tree_param":{"num_deleted":"0","num_feature":"5","num_nodes":"15","size_leaf_vector":"1"}},{"base_weights":[1.4964874E-2,2.051335E-1,-4.6131483E-1,4.3056464E-1,-5.5349797E-2,4.3986987E-2,-6.083802E-1,6.666938E-1,4.7342196E-2,1.7689279E-1,-2.4509884E-1,-7.028775E-2,-2.2525014E-1,2.2083484E-1,5.8694284E-2,-1.714352E-1,4.9551827E-1,6.851071E-2,-4.142099E-1,1.9261241E-1,3.1412836E-2,-1.6647409E-1,-1.8408461E-1,-1.4411288E-1,9.941762E-2],"categories":[],"categories_nodes":[],"categories_segments":[],"categories_sizes":[],"default_left":[0,0,0,0,0,0,0,0,0,0,0,0,0,0,0,0,0,0,0,0,0,0,0,0,0],"id":13,"left_children":[1,3,5,7,9,-1,11,13,15,-1,17,-1,-1,-1,-1,-1,19,-1,21,-1,-1,23,-1,-1,-1],"loss_changes":[2.0127635E0,9.532025E-1,6.570033E-1,7.4648786E-1,1.151602E0,0E0,1.069448E-1,2.7454853E-2,1.490795E0,0E0,6.602425E-1,0E0,0E0,0E0,0E0,0E0,1.0805285E-1,0E0,1.7254835E-1,0E0,0E0,7.61212E-1,0E0,0E0,0E0],"parents":[2147483647,0,0,1,1,2,2,3,3,4,4,6,6,7,7,8,8,10,10,16,16,18,18,21,21],"right_children":[2,4,6,8,10,-1,12,14,16,-1,18,-1,-1,-1,-1,-1,20,-1,22,-1,-1,24,-1,-1,-1],"split_conditions":[6.988E2,9.947E-2,1.398E1,2.156E1,1.55E1,4.3986987E-2,1.948E1,1.422E1,2.253E1,1.7689279E-1,1.176E1,-7.028775E-2,-2.2525014E-1,2.2083484E-1,5.8694284E-2,-1.714352E-1,8.721E1,6.851071E-2,8.719E1,1.9261241E-1,3.1412836E-2,1.246E1,-1.8408461E-1,-1.4411288E-1,9.941762E-2],"split_indices":[3,4,1,1,1,0,1,0,1,0,0,0,0,0,0,0,2,0,2,0,0,0,0,0,0],"split_type":[0,0,0,0,0,0,0,0,0,0,0,0,0,0,0,0,0,0,0,0,0,0,0,0,0],"sum_hessian":[2.0177643E1,1.4826878E1,5.3507648E0,7.5981946E0,7.228683E0,1.0428483E0,4.307916E0,4.2436757E0,3.354519E0,1.1641235E0,6.0645595E0,1.9174151E0,2.390501E0,3.2081378E0,1.0355382E0,1.2935152E0,2.0610037E0,1.5038248E0,4.5607347E0,1.0314406E0,1.0295631E0,2.8521519E0,1.7085828E0,1.7708005E0,1.0813514E0],"tree_param":{"num_deleted":"0","num_feature":"5","num_nodes":"25","size_leaf_vector":"1"}},{"base_weights":[1.7570896E-2,4.1671517E-1,-1.578774E-1,1.002116E-1,2.1360369E-1,1.716034E-1,-4.239083E-1,1.4746524E-1,-1.6279507E-1,3.844234E-1,-1.2522016E-1,-6.4029163E-1,-6.246156E-2,1.898255E-1,1.6351746E-1,-7.821804E-2,-2.3786041E-1,7.658108E-2,-1.3354158E-1,1.3976833E-1,-4.9062904E-2],"categories":[],"categories_nodes":[],"categories_segments":[],"categories_sizes":[],"default_left":[0,0,0,0,0,0,0,0,0,0,0,0,0,0,0,0,0,0,0,0,0],"id":14,"left_children":[1,3,5,7,-1,9,11,-1,-1,13,-1,15,17,-1,19,-1,-1,-1,-1,-1,-1],"loss_changes":[1.4477739E0,5.1751304E-1,1.3379016E0,1.3245896E0,0E0,1.0579559E0,6.071271E-1,0E0,0E0,2.1361023E-1,0E0,8.6750984E-2,6.2509596E-1,0E0,5.120647E-1,0E0,0E0,0E0,0E0,0E0,0E0],"parents":[2147483647,0,0,1,1,2,2,3,3,5,5,6,6,9,9,11,11,12,12,14,14],"right_children":[2,4,6,8,-1,10,12,-1,-1,14,-1,16,18,-1,20,-1,-1,-1,-1,-1,-1],"split_conditions":[8.115E1,1.884E1,1.962E1,1.814E1,2.1360369E-1,1.139E-1,2.254E1,1.4746524E-1,-1.6279507E-1,9.096E1,-1.2522016E-1,2.082E1,9.287E1,1.898255E-1,9.463E-2,-7.821804E-2,-2.3786041E-1,7.658108E-2,-1.3354158E-1,1.3976833E-1,-4.9062904E-2],"split_indices":[2,1,1,1,0,4,1,0,0,2,0,1,2,0,4,0,0,0,0,0,0],"split_type":[0,0,0,0,0,0,0,0,0,0,0,0,0,0,0,0,0,0,0,0,0],"sum_hessian":[1.87344E1,5.3005414E0,1.3433859E1,3.2048728E0,2.0956688E0,6.1598268E0,7.274032E0,2.1384637E0,1.0664091E0,4.7800303E0,1.3797966E0,4.067511E0,3.2065213E0,1.372644E0,3.4073863E0,1.9429227E0,2.1245883E0,1.933826E0,1.2726954E0,1.5499353E0,1.8574508E0],"tree_param":{"num_deleted":"0","num_feature":"5","num_nodes":"21","size_leaf_vector":"1"}},{"base_weights":[1.4364588E-2,1.7228137E-1,-3.910976E-1,5.431891E-1,3.2361373E-2,3.5097532E-2,-5.330475E-1,4.794045E-2,1.970592E-1,1.7358701E-1,-8.806833E-2,-3.202003E-2,-2.1307303E-1,2.1699477E-2,-1.4984508E-1,1.6237614E-1,-1.17981195E-1,-1.5605304E-1,5.3285146E-3],"categories":[],"categories_nodes":[],"categories_segments":[],"categories_sizes":[],"default_left":[0,0,0,0,0,0,0,0,0,0,0,0,0,0,0,0,0,0,0],"id":15,"left_children":[1,3,5,7,9,-1,11,-1,-1,-1,13,-1,-1,15,-1,-1,17,-1,-1],"loss_changes":[1.263751E0,7.163327E-1,4.6215546E-1,6.1084032E-2,7.964095E-1,0E0,2.6508737E-1,0E0,0E0,0E0,4.6932447E-1,0E0,0E0,7.150128E-1,0E0,0E0,4.4013035E-1,0E0,0E0],"parents":[2147483647,0,0,1,1,2,2,3,3,4,4,6,6,10,10,13,13,16,16],"right_children":[2,4,6,8,10,-1,12,-1,-1,-1,14,-1,-1,16,-1,-1,18,-1,-1],"split_conditions":[6.988E2,9.04E-2,8.261E-2,8.182E-2,1.55E1,3.5097532E-2,1.057E2,4.794045E-2,1.970592E-1,1.7358701E-1,1.162E-1,-3.202003E-2,-2.1307303E-1,1.176E1,-1.4984508E-1,1.6237614E-1,4.531E2,-1.5605304E-1,5.3285146E-3],"split_indices":[3,4,4,4,1,0,2,0,0,0,4,0,0,0,0,0,3,0,0],"split_type":[0,0,0,0,0,0,0,0,0,0,0,0,0,0,0,0,0,0,0],"sum_hessian":[1.7684767E1,1.3141571E1,4.5431952E0,2.810144E0,1.0331427E1,1.0304981E0,3.512697E0,1.1928463E0,1.6172976E0,1.1789812E0,9.152446E0,1.5018222E0,2.0108747E0,7.972576E0,1.1798697E0,1.080103E0,6.892473E0,1.0245976E0,5.8678756E0],"tree_param":{"num_deleted":"0","num_feature":"5","num_nodes":"19","size_leaf_vector":"1"}},{"base_weights":[1.5512562E-2,9.954941E-2,-1.7724013E-1,4.596925E-1,-3.0510554E-2,1.9847244E-1,1.5778981E-2,1.3636571E-1,-3.1820163E-1,2.3436792E-1,-7.7695005E-2,1.8886188E-2,-1.748519E-1,-2.9412989E-2,5.9484625E-1,9.46966E-2,-2.1279483E-1,2.2022301E-1,5.9432626E-2],"categories":[],"categories_nodes":[],"categories_segments":[],"categories_sizes":[],"default_left":[0,0,0,0,0,0,0,0,0,0,0,0,0,0,0,0,0,0,0],"id":16,"left_children":[1,3,-1,5,7,-1,-1,9,11,13,-1,-1,-1,15,17,-1,-1,-1,-1],"loss_changes":[9.605418E-1,7.821514E-1,0E0,3.2790107E-1,6.668197E-1,0E0,0E0,4.0624645E-1,5.478087E-1,7.4699116E-1,0E0,0E0,0E0,1.4868184E0,3.6242604E-2,0E0,0E0,0E0,0E0],"parents":[2147483647,0,0,1,1,3,3,4,4,7,7,8,8,9,9,13,13,14,14],"right_children":[2,4,-1,6,8,-1,-1,10,12,14,-1,-1,-1,16,18,-1,-1,-1,-1],"split_conditions":[1.15E2,1.658E1,-1.7724013E-1,1.073E-1,1.026E-1,1.9847244E-1,1.5778981E-2,6.988E2,8.098E1,1.362E1,-7.7695005E-2,1.8886188E-2,-1.748519E-1,5.581E2,6.326E2,9.46966E-2,-2.1279483E-1,2.2022301E-1,5.9432626E-2],"split_indices":[2,1,0,4,4,0,0,3,2,0,0,0,0,3,3,0,0,0,0],"split_type":[0,0,0,0,0,0,0,0,0,0,0,0,0,0,0,0,0,0,0],"sum_hessian":[1.6697378E1,1.539886E1,1.2985177E0,3.4131625E0,1.1985698E1,1.8637869E0,1.5493755E0,7.9185266E0,4.067171E0,6.671845E0,1.246682E0,1.9789791E0,2.0881917E0,4.382988E0,2.2888567E0,3.2627788E0,1.1202095E0,1.06487E0,1.2239867E0],"tree_param":{"num_deleted":"0","num_feature":"5","num_nodes":"19","size_leaf_vector":"1"}},{"base_weights":[9.407766E-3,1.3710058E-1,-3.338144E-1,4.7313166E-1,1.8737717E-2,-5.8768246E-2,-1.804901E-1,3.7320185E-2,1.7550683E-1,1.3069202E-1,-1.0281784E-1,1.0258625E-1,-1.2480329E-1,6.207174E-2,-1.8757895E-1,-3.916837E-1,4.221184E-2,-1.896635E-1,-1.7752105E-2,8.854386E-2,-1.07546E-1],"categories":[],"categories_nodes":[],"categories_segments":[],"categories_sizes":[],"default_left":[0,0,0,0,0,0,0,0,0,0,0,0,0,0,0,0,0,0,0,0,0],"id":17,"left_children":[1,3,5,7,9,11,-1,-1,-1,-1,13,-1,-1,-1,15,17,19,-1,-1,-1,-1],"loss_changes":[7.803403E-1,5.052003E-1,3.2087332E-1,5.6982756E-2,5.81931E-1,6.4244795E-1,0E0,0E0,0E0,0E0,2.7549332E-1,0E0,0E0,0E0,3.7312293E-1,2.9240304E-1,5.5976963E-1,0E0,0E0,0E0,0E0],"parents":[2147483647,0,0,1,1,2,2,3,3,4,4,5,5,10,10,14,14,15,15,16,16],"right_children":[2,4,6,8,10,12,-1,-1,-1,-1,14,-1,-1,-1,16,18,20,-1,-1,-1,-1],"split_conditions":[6.988E2,9.04E-2,1.948E1,8.182E-2,1.658E1,9.463E-2,-1.804901E-1,3.7320185E-2,1.7550683E-1,1.3069202E-1,1.176E1,1.0258625E-1,-1.2480329E-1,6.207174E-2,8.61E1,9.97E-2,1.003E-1,-1.896635E-1,-1.7752105E-2,8.854386E-2,-1.07546E-1],"split_indices":[3,4,1,4,1,4,0,0,0,0,0,0,0,0,2,4,4,0,0,0,0],"split_type":[0,0,0,0,0,0,0,0,0,0,0,0,0,0,0,0,0,0,0,0,0],"sum_hessian":[1.5760766E1,1.1924798E1,3.8359685E0,2.325481E0,9.599317E0,2.4940503E0,1.341918E0,1.0778733E0,1.2476076E0,1.5837188E0,8.015598E0,1.1956617E0,1.2983887E0,1.4126433E0,6.6029544E0,3.1238053E0,3.4791493E0,1.2896092E0,1.8341961E0,2.294319E0,1.1848304E0],"tree_param":{"num_deleted":"0","num_feature":"5","num_nodes":"21","size_leaf_vector":"1"}},{"base_weights":[5.711067E-3,1.6172633E-1,-6.913869E-2,3.4220926E-2,-1.9449738E-1,1.3904789E-1,-8.235171E-2,1.4164603E-1,-2.764583E-1,-8.213653E-2,3.157932E-1,-1.17478326E-1,-1.7125219E-1,1.9094549E-1,-8.441593E-3,-1.3937575E-1,2.2709914E-2],"categories":[],"categories_nodes":[],"categories_segments":[],"categories_sizes":[],"default_left":[0,0,0,0,0,0,0,0,0,0,0,0,0,0,0,0,0],"id":18,"left_children":[1,-1,3,5,-1,-1,7,9,11,-1,13,15,-1,-1,-1,-1,-1],"loss_changes":[6.80724E-1,0E0,9.2136085E-1,7.235111E-1,0E0,0E0,5.443801E-1,5.245736E-1,2.4014091E-1,0E0,5.397659E-1,4.0539536E-1,0E0,0E0,0E0,0E0,0E0],"parents":[2147483647,0,0,2,2,3,3,6,6,7,7,8,8,10,10,11,11],"right_children":[2,-1,4,6,-1,-1,8,10,12,-1,14,16,-1,-1,-1,-1,-1],"split_conditions":[7.33E1,1.6172633E-1,1.183E-1,1.658E1,-1.9449738E-1,1.3904789E-1,5.621E2,1.187E1,9.933E-2,-8.213653E-2,2.019E1,1.365E1,-1.7125219E-1,1.9094549E-1,-8.441593E-3,-1.3937575E-1,2.2709914E-2],"split_indices":[2,0,4,1,0,0,3,0,4,0,1,0,0,0,0,0,0],"split_type":[0,0,0,0,0,0,0,0,0,0,0,0,0,0,0,0,0],"sum_hessian":[1.5117287E1,1.0971034E0,1.4020184E1,1.2695501E1,1.3246822E0,2.0757327E0,1.0619768E1,5.055742E0,5.564027E0,1.3243318E0,3.7314098E0,4.5213547E0,1.0426719E0,1.4907647E0,2.2406452E0,1.1142603E0,3.4070945E0],"tree_param":{"num_deleted":"0","num_feature":"5","num_nodes":"17","size_leaf_vector":"1"}},{"base_weights":[-1.4040255E-4,1.16669334E-1,-3.15648E-1,4.2204306E-1,1.2615747E-2,-7.855862E-2,-1.638667E-1,3.265785E-2,1.5801266E-1,2.785467E-1,-1.2563112E-1,7.50691E-2,-1.1008865E-1,1.2990728E-1,-2.4203972E-3,-1.2175327E-1,2.6103735E-4,1.522077E-1,-2.1583015E-1,-1.6882199E-1,1.606491E-2],"categories":[],"categories_nodes":[],"categories_segments":[],"categories_sizes":[],"default_left":[0,0,0,0,0,0,0,0,0,0,0,0,0,0,0,0,0,0,0,0,0],"id":19,"left_children":[1,3,5,7,9,11,-1,-1,-1,13,15,-1,-1,-1,-1,-1,17,-1,19,-1,-1],"loss_changes":[6.0870117E-1,3.777144E-1,2.0104074E-1,4.2076826E-2,4.0343797E-1,4.112067E-1,0E0,0E0,0E0,1.6902861E-1,2.5702873E-1,0E0,0E0,0E0,0E0,0E0,7.696858E-1,0E0,4.9047697E-1,0E0,0E0],"parents":[2147483647,0,0,1,1,2,2,3,3,4,4,5,5,9,9,10,10,16,16,18,18],"right_children":[2,4,6,8,10,12,-1,-1,-1,14,16,-1,-1,-1,-1,-1,18,-1,20,-1,-1],"split_conditions":[6.988E2,9.04E-2,1.948E1,8.182E-2,1.814E1,9.463E-2,-1.638667E-1,3.265785E-2,1.5801266E-1,1.089E-1,1.884E1,7.50691E-2,-1.1008865E-1,1.2990728E-1,-2.4203972E-3,-1.2175327E-1,8.045E1,1.522077E-1,8.598E1,-1.6882199E-1,1.606491E-2],"split_indices":[3,4,1,4,1,4,0,0,0,4,1,0,0,0,0,0,2,0,2,0,0],"split_type":[0,0,0,0,0,0,0,0,0,0,0,0,0,0,0,0,0,0,0,0,0],"sum_hessian":[1.4517153E1,1.1054635E1,3.462518E0,2.0328026E0,9.021832E0,2.3681562E0,1.0943618E0,1.0202006E0,1.0126021E0,2.738746E0,6.283087E0,1.1684488E0,1.1997075E0,1.4476682E0,1.2910776E0,1.2583913E0,5.0246954E0,1.0986401E0,3.9260552E0,1.2400664E0,2.685989E0],"tree_param":{"num_deleted":"0","num_feature":"5","num_nodes":"21","size_leaf_vector":"1"}},{"base_weights":[3.2901223E-4,1.5200207E-1,-7.261697E-2,6.382741E-2,-4.6580535E-1,1.1846023E-1,-2.413009E-2,-1.398394E-2,-1.9985482E-1,1.421122E-1,-1.953815E-1,-1.2469659E-1,1.258257E-1,-1.4169154E-1,3.6706761E-3,9.5154926E-2,-1.6244599E-1,6.8921044E-2,-8.696279E-2],"categories":[],"categories_nodes":[],"categories_segments":[],"categories_sizes":[],"default_left":[0,0,0,0,0,0,0,0,0,0,0,0,0,0,0,0,0,0,0],"id":20,"left_children":[1,-1,3,5,7,-1,9,-1,-1,11,13,15,-1,-1,17,-1,-1,-1,-1],"loss_changes":[5.890357E-1,0E0,7.7776814E-1,3.3653852E-1,2.8079355E-1,0E0,3.0720708E-1,0E0,0E0,4.6363825E-1,2.9145682E-1,8.3554435E-1,0E0,0E0,3.353733E-1,0E0,0E0,0E0,0E0],"parents":[2147483647,0,0,2,2,3,3,4,4,6,6,9,9,10,10,11,11,14,14],"right_children":[2,-1,4,6,8,-1,10,-1,-1,12,14,16,-1,-1,18,-1,-1,-1,-1],"split_conditions":[7.84E-2,1.5200207E-1,6.988E2,1.658E1,1.573E1,1.1846023E-1,9.947E-2,-1.398394E-2,-1.9985482E-1,1.362E1,1.816E1,8.526E1,1.258257E-1,-1.4169154E-1,1.099E-1,9.5154926E-2,-1.6244599E-1,6.8921044E-2,-8.696279E-2],"split_indices":[4,0,3,1,1,0,4,0,0,0,1,2,0,0,4,0,0,0,0],"split_type":[0,0,0,0,0,0,0,0,0,0,0,0,0,0,0,0,0,0,0],"sum_hessian":[1.395142E1,1.0080824E0,1.2943337E1,1.0230732E1,2.7126055E0,1.4151866E0,8.815545E0,1.2759427E0,1.4366629E0,4.5595336E0,4.2560115E0,2.6042259E0,1.9553077E0,1.2057662E0,3.0502453E0,1.3800677E0,1.2241582E0,1.8459883E0,1.204257E0],"tree_param":{"num_deleted":"0","num_feature":"5","num_nodes":"19","size_leaf_vector":"1"}},{"base_weights":[-3.1954541E-3,1.1420789E-1,-9.081226E-2,8.629003E-2,-1.6131376E-1,3.7583914E-2,-2.5901315E-1,9.926199E-2,-1.02076E-1,-9.2453375E-2,-1.5375611E-1,-4.413275E-1,1.0307159E-1,-2.0640422E-2,-1.9349785E-1],"categories":[],"categories_nodes":[],"categories_segments":[],"categories_sizes":[],"default_left":[0,0,0,0,0,0,0,0,0,0,0,0,0,0,0],"id":21,"left_children":[1,-1,3,-1,5,7,9,-1,-1,11,-1,13,-1,-1,-1],"loss_changes":[5.2043915E-1,0E0,3.817364E-1,0E0,2.2806248E-1,6.194765E-1,2.761007E-1,0E0,0E0,1.0405344E0,0E0,2.3512441E-1,0E0,0E0,0E0],"parents":[2147483647,0,0,2,2,4,4,5,5,6,6,9,9,11,11],"right_children":[2,-1,4,-1,6,8,10,-1,-1,12,-1,14,-1,-1,-1],"split_conditions":[4.289E2,1.1420789E-1,8.139E-2,8.629003E-2,1.805E1,1.073E-1,9.287E1,9.926199E-2,-1.02076E-1,8.624E1,-1.5375611E-1,2.154E1,1.0307159E-1,-2.0640422E-2,-1.9349785E-1],"split_indices":[3,0,4,0,1,4,2,0,0,2,0,1,0,0,0],"split_type":[0,0,0,0,0,0,0,0,0,0,0,0,0,0,0],"sum_hessian":[1.3445266E1,1.8768723E0,1.1568394E1,1.3330238E0,1.023537E1,3.5742257E0,6.6611443E0,2.0822294E0,1.4919963E0,4.8435345E0,1.81761E0,2.6839125E0,2.159622E0,1.4215529E0,1.2623596E0],"tree_param":{"num_deleted":"0","num_feature":"5","num_nodes":"15","size_leaf_vector":"1"}},{"base_weights":[-7.269504E-3,1.6350718E-1,-1.82617E-1,2.7144298E-1,-7.9973675E-2,4.774887E-2,-2.6658088E-1,1.6998917E-1,1.03465185E-1,1.2314911E-2,-3.7769118E-1,-1.0292563E-1,2.904262E-1,-1.545276E-1,-1.7300371E-2,1.7652224E-1,-1.5826419E-2],"categories":[],"categories_nodes":[],"categories_segments":[],"categories_sizes":[],"default_left":[0,0,0,0,0,0,0,0,0,0,0,0,0,0,0,0,0],"id":22,"left_children":[1,3,5,7,-1,-1,9,-1,11,-1,13,-1,15,-1,-1,-1,-1],"loss_changes":[4.498684E-1,4.2670536E-1,2.5458032E-1,2.6850078E-1,0E0,0E0,2.3113811E-1,0E0,5.5281365E-1,0E0,1.7839897E-1,0E0,4.7768652E-1,0E0,0E0,0E0,0E0],"parents":[2147483647,0,0,1,1,2,2,3,3,6,6,8,8,10,10,12,12],"right_children":[2,4,6,8,-1,-1,10,-1,12,-1,14,-1,16,-1,-1,-1,-1],"split_conditions":[5.621E2,1.183E-1,8.139E-2,4.289E2,-7.9973675E-2,4.774887E-2,1.682E1,1.6998917E-1,4.493E2,1.2314911E-2,2.211E1,-1.0292563E-1,2.019E1,-1.545276E-1,-1.7300371E-2,1.7652224E-1,-1.5826419E-2],"split_indices":[3,4,4,3,0,0,1,0,3,0,1,0,1,0,0,0,0],"split_type":[0,0,0,0,0,0,0,0,0,0,0,0,0,0,0,0,0],"sum_hessian":[1.3025899E1,6.6331654E0,6.392733E0,5.59731E0,1.0358557E0,1.0841258E0,5.308607E0,1.1692824E0,4.4280276E0,1.5759183E0,3.7326891E0,1.06035E0,3.3676775E0,2.1850152E0,1.547674E0,1.4200714E0,1.9476061E0],"tree_param":{"num_deleted":"0","num_feature":"5","num_nodes":"17","size_leaf_vector":"1"}},{"base_weights":[-1.1823212E-3,6.8785995E-2,-1.0945698E-1,1.5671036E-1,-1.8040001E-2,9.6569665E-2,-1.1055148E-1,1.7198017E-2,-3.5026658E-1,1.353188E-1,-8.971195E-2,-2.5902089E-2,-1.3166317E-1,-5.134E-2,1.0871797E-1],"categories":[],"categories_nodes":[],"categories_segments":[],"categories_sizes":[],"default_left":[0,0,0,0,0,0,0,0,0,0,0,0,0,0,0],"id":23,"left_children":[1,3,-1,-1,5,-1,7,9,11,13,-1,-1,-1,-1,-1],"loss_changes":[3.7108335E-1,4.9164677E-1,0E0,0E0,3.8918614E-1,0E0,2.9948545E-1,3.0958772E-1,4.111454E-2,4.7493637E-1,0E0,0E0,0E0,0E0,0E0],"parents":[2147483647,0,0,1,1,4,4,6,6,7,7,8,8,9,9],"right_children":[2,4,-1,-1,6,-1,8,10,12,14,-1,-1,-1,-1,-1],"split_conditions":[1.183E-1,4.289E2,-1.0945698E-1,1.5671036E-1,1.658E1,9.6569665E-2,1.015E-1,6.988E2,8.526E1,8.624E1,-8.971195E-2,-2.5902089E-2,-1.3166317E-1,-5.134E-2,1.0871797E-1],"split_indices":[4,3,0,0,1,0,4,3,2,2,0,0,0,0,0],"split_type":[0,0,0,0,0,0,0,0,0,0,0,0,0,0,0],"sum_hessian":[1.2597057E1,1.1244546E1,1.3525116E0,1.0006832E0,1.0243862E1,1.6609708E0,8.582891E0,6.2045865E0,2.3783052E0,4.9338126E0,1.270774E0,1.0940531E0,1.2842522E0,2.2047331E0,2.7290792E0],"tree_param":{"num_deleted":"0","num_feature":"5","num_nodes":"15","size_leaf_vector":"1"}},{"base_weights":[-3.8454412E-3,1.5961452E-1,-1.6954044E-1,-1.087464E-1,2.9555932E-1,4.6504464E-2,-2.5094965E-1,7.2357744E-2,-1.2058733E-1,1.8170023E-1,3.6314484E-2,-1.4117508E-1,-9.9519104E-2,-7.391723E-2,6.867024E-2,5.32345E-2,-1.0082235E-1],"categories":[],"categories_nodes":[],"categories_segments":[],"categories_sizes":[],"default_left":[0,0,0,0,0,0,0,0,0,0,0,0,0,0,0,0,0],"id":24,"left_children":[1,3,5,7,9,-1,11,-1,-1,-1,13,-1,15,-1,-1,-1,-1],"loss_changes":[3.8510653E-1,2.9370958E-1,2.2516993E-1,4.1931713E-1,3.8222155E-1,0E0,1.5332058E-1,0E0,0E0,0E0,2.6341802E-1,0E0,3.7610394E-1,0E0,0E0,0E0,0E0],"parents":[2147483647,0,0,1,1,2,2,3,3,4,4,6,6,10,10,12,12],"right_children":[2,4,6,8,10,-1,12,-1,-1,-1,14,-1,16,-1,-1,-1,-1],"split_conditions":[5.621E2,1.187E1,8.139E-2,7.5E1,4.767E2,4.6504464E-2,1.387E1,7.2357744E-2,-1.2058733E-1,1.8170023E-1,5.12E2,-1.4117508E-1,6.988E2,-7.391723E-2,6.867024E-2,5.32345E-2,-1.0082235E-1],"split_indices":[3,0,4,2,3,0,0,0,0,0,3,0,3,0,0,0,0],"split_type":[0,0,0,0,0,0,0,0,0,0,0,0,0,0,0,0,0],"sum_hessian":[1.2219571E1,6.1697454E0,6.0498257E0,2.1418028E0,4.0279427E0,1.0318779E0,5.0179477E0,1.0573266E0,1.0844764E0,1.2256031E0,2.8023393E0,1.1877116E0,3.8302362E0,1.022294E0,1.7800453E0,1.8795078E0,1.9507283E0],"tree_param":{"num_deleted":"0","num_feature":"5","num_nodes":"17","size_leaf_vector":"1"}},{"base_weights":[-3.0749699E-3,1.1558688E-1,-7.429298E-2,8.511107E-2,-2.3605475E-1,-5.768821E-2,2.1597363E-1,2.8256841E-2,-3.5149845E-1,1.4756447E-1,-1.6597621E-2,-1.568036E-1,-1.4073494E-1,-7.538608E-2,4.9749807E-2,-1.109229E-1,3.978062E-2],"categories":[],"categories_nodes":[],"categories_segments":[],"categories_sizes":[],"default_left":[0,0,0,0,0,0,0,0,0,0,0,0,0,0,0,0,0],"id":25,"left_children":[1,-1,3,5,7,-1,9,-1,11,-1,13,15,-1,-1,-1,-1,-1],"loss_changes":[3.849718E-1,0E0,3.2244238E-1,2.8260654E-1,2.6508784E-1,0E0,3.279308E-1,0E0,3.452754E-2,0E0,1.9885805E-1,2.5113982E-1,0E0,0E0,0E0,0E0,0E0],"parents":[2147483647,0,0,2,2,3,3,4,4,6,6,8,8,10,10,11,11],"right_children":[2,-1,4,6,8,-1,10,-1,12,-1,14,16,-1,-1,-1,-1,-1],"split_conditions":[1.423E1,1.1558688E-1,8.721E1,1.181E1,8.983E-2,-5.768821E-2,4.767E2,2.8256841E-2,9.933E-2,1.4756447E-1,9.057E-2,9.516E-2,-1.4073494E-1,-7.538608E-2,4.9749807E-2,-1.109229E-1,3.978062E-2],"split_indices":[1,0,2,0,4,0,3,0,4,0,4,4,0,0,0,0,0],"split_type":[0,0,0,0,0,0,0,0,0,0,0,0,0,0,0,0,0],"sum_hessian":[1.188381E1,1.1581591E0,1.0725651E1,5.6408587E0,5.084792E0,1.6576031E0,3.9832554E0,1.36477E0,3.7200222E0,1.311913E0,2.6713424E0,2.279647E0,1.4403751E0,1.0032547E0,1.6680877E0,1.1534013E0,1.1262459E0],"tree_param":{"num_deleted":"0","num_feature":"5","num_nodes":"17","size_leaf_vector":"1"}},{"base_weights":[-2.3608461E-3,6.336333E-2,-9.9353366E-2,2.6430908E-1,-7.560828E-2,-2.6356455E-4,3.9238548E-1,1.8013236E-1,-2.7119908E-1,1.8609871E-1,-1.797483E-2,-6.9515095E-3,9.902531E-2,-1.580973E-1,3.334425E-2],"categories":[],"categories_nodes":[],"categories_segments":[],"categories_sizes":[],"default_left":[0,0,0,0,0,0,0,0,0,0,0,0,0,0,0],"id":26,"left_children":[1,3,-1,5,7,-1,9,11,13,-1,-1,-1,-1,-1,-1],"loss_changes":[2.9324007E-1,3.3662498E-1,0E0,1.6534749E-1,4.230325E-1,0E0,3.7514645E-1,1.2479617E-1,5.1216173E-1,0E0,0E0,0E0,0E0,0E0,0E0],"parents":[2147483647,0,0,1,1,3,3,4,4,6,6,7,7,8,8],"right_children":[2,4,-1,6,8,-1,10,12,14,-1,-1,-1,-1,-1,-1],"split_conditions":[1.183E-1,1.317E1,-9.9353366E-2,1.187E1,1.962E1,-2.6356455E-4,2.154E1,1.566E1,2.211E1,1.8609871E-1,-1.797483E-2,-6.9515095E-3,9.902531E-2,-1.580973E-1,3.334425E-2],"split_indices":[4,0,0,0,1,0,1,0,1,0,0,0,0,0,0],"split_type":[0,0,0,0,0,0,0,0,0,0,0,0,0,0,0],"sum_hessian":[1.1597876E1,1.0338674E1,1.2592021E0,3.8581276E0,6.480546E0,1.5799383E0,2.2781892E0,2.8426862E0,3.6378596E0,1.2677801E0,1.0104091E0,1.5655692E0,1.277117E0,1.9529912E0,1.6848685E0],"tree_param":{"num_deleted":"0","num_feature":"5","num_nodes":"15","size_leaf_vector":"1"}},{"base_weights":[1.5331461E-3,1.0247501E-1,-6.197063E-2,3.4337815E-2,-1.02619946E-1,2.1735716E-1,-1.6573235E-1,1.266985E-1,-2.3934204E-2,-2.923913E-1,1.5058427E-2,-9.6184134E-2,7.2312E-2,-1.8426508E-2,-1.1904479E-1],"categories":[],"categories_nodes":[],"categories_segments":[],"categories_sizes":[],"default_left":[0,0,0,0,0,0,0,0,0,0,0,0,0,0,0],"id":27,"left_children":[1,-1,3,5,-1,7,9,-1,11,13,-1,-1,-1,-1,-1],"loss_changes":[2.8609973E-1,0E0,3.1345016E-1,3.740482E-1,0E0,2.699484E-1,1.5081109E-1,0E0,3.413762E-1,5.4830194E-2,0E0,0E0,0E0,0E0,0E0],"parents":[2147483647,0,0,2,2,3,3,5,5,6,6,8,8,9,9],"right_children":[2,-1,4,6,-1,8,10,-1,12,14,-1,-1,-1,-1,-1],"split_conditions":[1.423E1,1.0247501E-1,6.988E2,9.947E-2,-1.02619946E-1,2.156E1,1.884E1,1.266985E-1,2.253E1,1.788E1,1.5058427E-2,-9.6184134E-2,7.2312E-2,-1.8426508E-2,-1.1904479E-1],"split_indices":[1,0,3,4,0,1,1,0,1,1,0,0,0,0,0],"split_type":[0,0,0,0,0,0,0,0,0,0,0,0,0,0,0],"sum_hessian":[1.1268493E1,1.084148E0,1.0184344E1,8.231443E0,1.9529012E0,4.253782E0,3.9776616E0,1.8943199E0,2.359462E0,2.2838662E0,1.6937952E0,1.0140712E0,1.3453907E0,1.205561E0,1.0783052E0],"tree_param":{"num_deleted":"0","num_feature":"5","num_nodes":"15","size_leaf_vector":"1"}},{"base_weights":[-1.006414E-4,9.418627E-2,-7.175088E-2,1.9059981E-1,-1.6219305E-1,8.250455E-2,3.3369262E-3,8.038624E-3,-2.4591513E-1,7.676757E-2,-8.411071E-2,-1.1240166E-1,-8.059006E-2,6.635712E-2,-1.14946306E-1],"categories":[],"categories_nodes":[],"categories_segments":[],"categories_sizes":[],"default_left":[0,0,0,0,0,0,0,0,0,0,0,0,0,0,0],"id":28,"left_children":[1,-1,3,5,7,-1,-1,9,11,-1,-1,-1,13,-1,-1],"loss_changes":[2.9263708E-1,0E0,2.8213876E-1,4.502981E-2,1.21892035E-1,0E0,0E0,3.3924502E-1,9.0536475E-2,0E0,0E0,0E0,4.2781645E-1,0E0,0E0],"parents":[2147483647,0,0,2,2,3,3,4,4,7,7,8,8,12,12],"right_children":[2,-1,4,6,8,-1,-1,10,12,-1,-1,-1,14,-1,-1],"split_conditions":[4.289E2,9.418627E-2,8.983E-2,1.499E1,1.805E1,8.250455E-2,3.3369262E-3,1.073E-1,8.61E1,7.676757E-2,-8.411071E-2,-1.1240166E-1,8.978E1,6.635712E-2,-1.14946306E-1],"split_indices":[3,0,4,0,1,0,0,4,2,0,0,0,2,0,0],"split_type":[0,0,0,0,0,0,0,0,0,0,0,0,0,0,0],"sum_hessian":[1.1003791E1,1.4159012E0,9.58789E0,2.174057E0,7.4138327E0,1.116571E0,1.057486E0,2.7421727E0,4.67166E0,1.5354079E0,1.2067647E0,1.9144156E0,2.7572443E0,1.5150583E0,1.2421861E0],"tree_param":{"num_deleted":"0","num_feature":"5","num_nodes":"15","size_leaf_vector":"1"}},{"base_weights":[1.0470215E-3,1.3569954E-1,-1.3403825E-1,-2.065046E-2,2.4553502E-1,3.83571E-2,-2.5537646E-1,1.2790346E-1,7.487867E-5,8.595641E-2,-5.7533443E-2,-4.3813353E-3,-1.03431225E-1],"categories":[],"categories_nodes":[],"categories_segments":[],"categories_sizes":[],"default_left":[0,0,0,0,0,0,0,0,0,0,0,0,0],"id":29,"left_children":[1,3,5,-1,7,9,11,-1,-1,-1,-1,-1,-1],"loss_changes":[2.315345E-1,1.6002291E-1,1.4279664E-1,0E0,1.9343409E-1,2.5460455E-1,7.809478E-2,0E0,0E0,0E0,0E0,0E0,0E0],"parents":[2147483647,0,0,1,1,2,2,4,4,5,5,6,6],"right_children":[2,4,6,-1,8,10,12,-1,-1,-1,-1,-1,-1],"split_conditions":[5.621E2,1.187E1,9.43E-2,-2.065046E-2,2.019E1,1.962E1,9.421E1,1.2790346E-1,7.487867E-5,8.595641E-2,-5.7533443E-2,-4.3813353E-3,-1.03431225E-1],"split_indices":[3,0,4,0,1,1,2,0,0,0,0,0,0],"split_type":[0,0,0,0,0,0,0,0,0,0,0,0,0],"sum_hessian":[1.0729004E1,5.3708315E0,5.3581724E0,2.0068984E0,3.3639328E0,2.4959087E0,2.862264E0,1.5115501E0,1.8523829E0,1.0830252E0,1.4128834E0,1.0899621E0,1.7723019E0],"tree_param":{"num_deleted":"0","num_feature":"5","num_nodes":"13","size_leaf_vector":"1"}},{"base_weights":[3.3864714E-3,6.645641E-2,-8.974639E-2,2.4474344E-1,-5.7864394E-2,-1.0968362E-2,3.5437983E-1,-9.316833E-2,8.052305E-2,1.5349303E-1,9.02207E-4,1.13176994E-1,-7.89734E-2,1.7675158E-1,-1.2111119E-1,7.022332E-2,9.170421E-3],"categories":[],"categories_nodes":[],"categories_segments":[],"categories_sizes":[],"default_left":[0,0,0,0,0,0,0,0,0,0,0,0,0,0,0,0,0],"id":30,"left_children":[1,3,-1,5,7,-1,9,-1,11,-1,-1,-1,13,15,-1,-1,-1],"loss_changes":[2.4054484E-1,2.4440414E-1,0E0,1.504724E-1,2.6731187E-1,0E0,1.8091851E-1,0E0,2.792674E-1,0E0,0E0,0E0,4.2472225E-1,1.8622681E-2,0E0,0E0,0E0],"parents":[2147483647,0,0,1,1,3,3,4,4,6,6,8,8,12,12,13,13],"right_children":[2,4,-1,6,8,-1,10,-1,12,-1,-1,-1,14,16,-1,-1,-1],"split_conditions":[1.183E-1,5.306E2,-8.974639E-2,1.816E1,1.362E1,-1.0968362E-2,2.202E1,-9.316833E-2,9.287E1,1.5349303E-1,9.02207E-4,1.13176994E-1,1.977E1,9.43E-2,-1.2111119E-1,7.022332E-2,9.170421E-3],"split_indices":[4,3,0,1,0,0,1,0,2,0,0,0,1,4,0,0,0],"split_type":[0,0,0,0,0,0,0,0,0,0,0,0,0,0,0,0,0],"sum_hessian":[1.0564447E1,9.387749E0,1.1766995E0,3.4588325E0,5.928916E0,1.156924E0,2.3019085E0,1.6577351E0,4.2711806E0,1.275089E0,1.0268193E0,1.0158867E0,3.255294E0,2.0760806E0,1.1792135E0,1.0593826E0,1.016698E0],"tree_param":{"num_deleted":"0","num_feature":"5","num_nodes":"17","size_leaf_vector":"1"}},{"base_weights":[5.675396E-3,8.245955E-2,-5.6778885E-2,1.6296107E-1,-1.3492537E-1,7.627483E-2,-2.3288073E-3,3.1388372E-2,-1.8555845E-1,-3.6859002E-2,-1.02421485E-1,-7.033719E-2,4.624796E-2],"categories":[],"categories_nodes":[],"categories_segments":[],"categories_sizes":[],"default_left":[0,0,0,0,0,0,0,0,0,0,0,0,0],"id":31,"left_children":[1,-1,3,5,7,-1,-1,-1,9,11,-1,-1,-1],"loss_changes":[2.0536691E-1,0E0,1.935416E-1,4.9878895E-2,1.1543763E-1,0E0,0E0,0E0,1.4722215E-1,2.1165287E-1,0E0,0E0,0E0],"parents":[2147483647,0,0,2,2,3,3,4,4,8,8,9,9],"right_children":[2,-1,4,6,8,-1,-1,-1,10,12,-1,-1,-1],"split_conditions":[4.289E2,8.245955E-2,8.983E-2,1.499E1,1.539E1,7.627483E-2,-2.3288073E-3,3.1388372E-2,1.015E-1,9.516E-2,-1.02421485E-1,-7.033719E-2,4.624796E-2],"split_indices":[3,0,4,0,1,0,0,0,4,4,0,0,0],"split_type":[0,0,0,0,0,0,0,0,0,0,0,0,0],"sum_hessian":[1.0287163E1,1.2967713E0,8.990391E0,2.0737865E0,6.9166045E0,1.0324672E0,1.0413191E0,1.0207727E0,5.895832E0,3.6498604E0,2.2459717E0,1.6822566E0,1.9676038E0],"tree_param":{"num_deleted":"0","num_feature":"5","num_nodes":"13","size_leaf_vector":"1"}},{"base_weights":[9.674403E-3,6.853729E-2,-8.089854E-2,1.991631E-1,-5.9328448E-2,-9.427506E-3,2.9092813E-1,5.900656E-2,-1.698655E-1,1.4486167E-1,1.0029751E-2,-2.737767E-1,1.497619E-2,-2.1598186E-2,-1.0084522E-1],"categories":[],"categories_nodes":[],"categories_segments":[],"categories_sizes":[],"default_left":[0,0,0,0,0,0,0,0,0,0,0,0,0,0,0],"id":32,"left_children":[1,3,-1,5,7,-1,9,-1,11,-1,-1,13,-1,-1,-1],"loss_changes":[2.00634E-1,1.7796196E-1,0E0,1.18117645E-1,1.9746919E-1,0E0,1.7075503E-1,0E0,1.18395016E-1,0E0,0E0,1.6927779E-2,0E0,0E0,0E0],"parents":[2147483647,0,0,1,1,3,3,4,4,6,6,8,8,11,11],"right_children":[2,4,-1,6,8,-1,10,-1,12,-1,-1,14,-1,-1,-1],"split_conditions":[1.183E-1,5.621E2,-8.089854E-2,1.187E1,1.684E1,-9.427506E-3,2.019E1,5.900656E-2,2.211E1,1.4486167E-1,1.0029751E-2,1.962E1,1.497619E-2,-2.1598186E-2,-1.0084522E-1],"split_indices":[4,3,0,0,1,0,1,0,1,0,0,1,0,0,0],"split_type":[0,0,0,0,0,0,0,0,0,0,0,0,0,0,0],"sum_hessian":[1.0078106E1,8.94733E0,1.1307762E0,4.150076E0,4.797254E0,1.3685981E0,2.781478E0,1.2116164E0,3.5856376E0,1.0921193E0,1.6893587E0,2.2678063E0,1.3178313E0,1.0441531E0,1.2236533E0],"tree_param":{"num_deleted":"0","num_feature":"5","num_nodes":"15","size_leaf_vector":"1"}},{"base_weights":[8.77155E-3,7.688388E-2,-4.973113E-2,-2.1587874E-1,5.769899E-2,-7.86594E-3,-9.2200466E-2,2.2303677E-1,-1.8576461E-1,9.829828E-2,-1.6690135E-2,-1.0309655E-1,1.8656217E-2],"categories":[],"categories_nodes":[],"categories_segments":[],"categories_sizes":[],"default_left":[0,0,0,0,0,0,0,0,0,0,0,0,0],"id":33,"left_children":[1,-1,3,5,7,-1,-1,9,11,-1,-1,-1,-1],"loss_changes":[1.7056112E-1,0E0,1.8475161E-1,6.134844E-2,3.091755E-1,0E0,0E0,1.4697112E-1,1.4804673E-1,0E0,0E0,0E0,0E0],"parents":[2147483647,0,0,2,2,3,3,4,4,7,7,8,8],"right_children":[2,-1,4,6,8,-1,-1,10,12,-1,-1,-1,-1],"split_conditions":[4.289E2,7.688388E-2,8.624E1,4.767E2,6.988E2,-7.86594E-3,-9.2200466E-2,1.003E-1,1.626E1,9.829828E-2,-1.6690135E-2,-1.0309655E-1,1.8656217E-2],"split_indices":[3,0,2,3,3,0,0,4,0,0,0,0,0],"split_type":[0,0,0,0,0,0,0,0,0,0,0,0,0],"sum_hessian":[9.898984E0,1.246166E0,8.652819E0,3.0014312E0,5.651387E0,1.3950701E0,1.606361E0,3.4156783E0,2.235709E0,2.3555202E0,1.0601578E0,1.1301066E0,1.1056024E0],"tree_param":{"num_deleted":"0","num_feature":"5","num_nodes":"13","size_leaf_vector":"1"}},{"base_weights":[4.012288E-3,8.227484E-2,-5.693934E-2,1.2596776E-1,-1.648353E-1,7.607283E-2,-5.695467E-3,-3.214619E-2,-1.2452907E-1,-1.5862724E-2,1.3300615E-2,-8.503398E-2,2.0405443E-1,1.16410136E-1,-2.65881E-2],"categories":[],"categories_nodes":[],"categories_segments":[],"categories_sizes":[],"default_left":[0,0,0,0,0,0,0,0,0,0,0,0,0,0,0],"id":34,"left_children":[1,-1,3,5,7,-1,9,11,-1,-1,-1,-1,13,-1,-1],"loss_changes":[1.928788E-1,0E0,2.1040392E-1,7.087003E-2,2.0174414E-1,0E0,9.453533E-3,3.7343204E-1,0E0,0E0,0E0,0E0,2.1328136E-1,0E0,0E0],"parents":[2147483647,0,0,2,2,3,3,4,4,6,6,7,7,12,12],"right_children":[2,-1,4,6,8,-1,10,12,-1,-1,-1,-1,14,-1,-1],"split_conditions":[1.505E1,8.227484E-2,9.44E-2,1.962E1,6.024E2,7.607283E-2,8.66E1,1.884E1,-1.2452907E-1,-1.5862724E-2,1.3300615E-2,-8.503398E-2,1.016E-1,1.16410136E-1,-2.65881E-2],"split_indices":[1,0,4,1,3,0,2,1,0,0,0,0,4,0,0],"split_type":[0,0,0,0,0,0,0,0,0,0,0,0,0,0,0],"sum_hessian":[9.761882E0,1.1525291E0,8.609352E0,3.132163E0,5.4771895E0,1.1203616E0,2.0118015E0,4.3168426E0,1.160347E0,1.0061321E0,1.0056692E0,1.9946519E0,2.3221905E0,1.2258396E0,1.0963509E0],"tree_param":{"num_deleted":"0","num_feature":"5","num_nodes":"15","size_leaf_vector":"1"}},{"base_weights":[6.2555466E-3,1.260446E-1,-1.1521393E-1,-2.897998E-2,2.3480375E-1,-9.246922E-2,-4.810294E-3,1.1372863E-1,2.9306996E-3,6.575021E-2,-1.8091443E-1,-9.481485E-2,1.20699275E-2],"categories":[],"categories_nodes":[],"categories_segments":[],"categories_sizes":[],"default_left":[0,0,0,0,0,0,0,0,0,0,0,0,0],"id":35,"left_children":[1,3,5,-1,7,-1,9,-1,-1,-1,11,-1,-1],"loss_changes":[1.689573E-1,1.6364282E-1,1.2194928E-1,0E0,1.3275038E-1,0E0,2.2505541E-1,0E0,0E0,0E0,1.07728414E-1,0E0,0E0],"parents":[2147483647,0,0,1,1,2,2,4,4,6,6,10,10],"right_children":[2,4,6,-1,8,-1,10,-1,-1,-1,12,-1,-1],"split_conditions":[5.621E2,1.181E1,1.387E1,-2.897998E-2,2.019E1,-9.246922E-2,6.988E2,1.1372863E-1,2.9306996E-3,6.575021E-2,1.626E1,-9.481485E-2,1.20699275E-2],"split_indices":[3,0,0,0,1,0,3,0,0,0,0,0,0],"split_type":[0,0,0,0,0,0,0,0,0,0,0,0,0],"sum_hessian":[9.613582E0,4.8213077E0,4.792274E0,1.6189336E0,3.2023742E0,1.0917437E0,3.7005303E0,1.5341033E0,1.668271E0,1.5212275E0,2.1793027E0,1.0863439E0,1.0929588E0],"tree_param":{"num_deleted":"0","num_feature":"5","num_nodes":"13","size_leaf_vector":"1"}},{"base_weights":[2.5915485E-3,7.4641764E-2,-5.6426022E-2,1.12237655E-1,-1.5582639E-1,-2.022253E-2,6.643576E-2,-4.6592545E-2,-8.395635E-2,-8.201019E-2,1.4082728E-1,6.87116E-2,-4.6729166E-3],"categories":[],"categories_nodes":[],"categories_segments":[],"categories_sizes":[],"default_left":[0,0,0,0,0,0,0,0,0,0,0,0,0],"id":36,"left_children":[1,-1,3,5,7,-1,-1,9,-1,-1,11,-1,-1],"loss_changes":[1.6656516E-1,0E0,1.7310777E-1,9.386341E-2,7.175794E-2,0E0,0E0,2.3093495E-1,0E0,0E0,4.6874467E-2,0E0,0E0],"parents":[2147483647,0,0,2,2,3,3,4,4,7,7,10,10],"right_children":[2,-1,4,6,8,-1,-1,10,-1,-1,12,-1,-1],"split_conditions":[4.289E2,7.4641764E-2,9.43E-2,1.362E1,6.024E2,-2.022253E-2,6.643576E-2,1.247E1,-8.395635E-2,-8.201019E-2,1.024E-1,6.87116E-2,-4.6729166E-3],"split_indices":[3,0,4,0,3,0,0,0,0,0,4,0,0],"split_type":[0,0,0,0,0,0,0,0,0,0,0,0,0],"sum_hessian":[9.496615E0,1.2144173E0,8.282198E0,3.0232186E0,5.25898E0,1.2877715E0,1.7354473E0,3.5277164E0,1.7312632E0,1.3887594E0,2.138957E0,1.0706853E0,1.0682718E0],"tree_param":{"num_deleted":"0","num_feature":"5","num_nodes":"13","size_leaf_vector":"1"}},{"base_weights":[3.7127575E-3,1.7766155E-1,-8.851368E-2,9.453467E-2,-2.3179576E-2,-9.5833056E-2,3.0926894E-2,8.485311E-2,-1.151848E-1,4.1519E-2,-1.0602347E-1],"categories":[],"categories_nodes":[],"categories_segments":[],"categories_sizes":[],"default_left":[0,0,0,0,0,0,0,0,0,0,0],"id":37,"left_children":[1,3,5,-1,-1,-1,7,-1,9,-1,-1],"loss_changes":[1.8225043E-1,1.6202676E-1,2.153957E-1,0E0,0E0,0E0,2.4690112E-1,0E0,3.1446466E-1,0E0,0E0],"parents":[2147483647,0,0,1,1,2,2,6,6,8,8],"right_children":[2,4,6,-1,-1,-1,8,-1,10,-1,-1],"split_conditions":[1.805E1,1.073E-1,1.946E1,9.453467E-2,-2.3179576E-2,-9.5833056E-2,8.983E-2,8.485311E-2,8.721E1,4.1519E-2,-1.0602347E-1],"split_indices":[1,4,1,0,0,0,4,0,2,0,0],"split_type":[0,0,0,0,0,0,0,0,0,0,0],"sum_hessian":[9.380121E0,2.9291232E0,6.450998E0,1.749635E0,1.1794882E0,1.6282996E0,4.8226986E0,1.4268341E0,3.3958642E0,1.8479071E0,1.5479573E0],"tree_param":{"num_deleted":"0","num_feature":"5","num_nodes":"11","size_leaf_vector":"1"}},{"base_weights":[2.2735896E-3,7.7591605E-2,-5.5719525E-2,1.629806E-2,-7.682953E-2,8.456418E-2,-6.777946E-2,-1.2941337E-1,2.806752E-2,-1.09578684E-1,5.6547828E-2,9.0151116E-2,-5.6602594E-2],"categories":[],"categories_nodes":[],"categories_segments":[],"categories_sizes":[],"default_left":[0,0,0,0,0,0,0,0,0,0,0,0,0],"id":38,"left_children":[1,-1,3,5,-1,-1,7,9,-1,-1,11,-1,-1],"loss_changes":[1.6637668E-1,0E0,1.3633816E-1,1.9053574E-1,0E0,0E0,7.8109205E-2,2.4969761E-1,0E0,0E0,2.8318405E-1,0E0,0E0],"parents":[2147483647,0,0,2,2,3,3,6,6,7,7,10,10],"right_children":[2,-1,4,6,-1,-1,8,10,-1,-1,12,-1,-1],"split_conditions":[1.505E1,7.7591605E-2,6.988E2,9.04E-2,-7.682953E-2,8.456418E-2,1.362E1,9.97E-2,2.806752E-2,-1.09578684E-1,1.085E-1,9.0151116E-2,-5.6602594E-2],"split_indices":[1,0,3,4,0,0,0,4,0,0,4,0,0],"split_type":[0,0,0,0,0,0,0,0,0,0,0,0,0],"sum_hessian":[9.221379E0,1.0628988E0,8.158481E0,6.6772823E0,1.4811983E0,1.0398852E0,5.6373973E0,4.222284E0,1.4151136E0,1.4363807E0,2.785903E0,1.2835532E0,1.5023499E0],"tree_param":{"num_deleted":"0","num_feature":"5","num_nodes":"13","size_leaf_vector":"1"}},{"base_weights":[5.641269E-3,5.996017E-2,-7.224045E-2,8.062002E-2,-3.5092846E-2,1.7949995E-1,-1.9712888E-1,8.576076E-2,-7.592549E-3,-9.609728E-2,8.460056E-3],"categories":[],"categories_nodes":[],"categories_segments":[],"categories_sizes":[],"default_left":[0,0,0,0,0,0,0,0,0,0,0],"id":39,"left_children":[1,3,-1,-1,5,7,9,-1,-1,-1,-1],"loss_changes":[1.4874962E-1,1.8846595E-1,0E0,0E0,2.817032E-1,8.503196E-2,1.3430601E-1,0E0,0E0,0E0,0E0],"parents":[2147483647,0,0,1,1,4,4,5,5,6,6],"right_children":[2,4,-1,-1,6,8,10,-1,-1,-1,-1],"split_conditions":[1.183E-1,4.774E2,-7.224045E-2,8.062002E-2,1.962E1,7.586E2,2.254E1,8.576076E-2,-7.592549E-3,-9.609728E-2,8.460056E-3],"split_indices":[4,3,0,0,1,3,1,0,0,0,0],"split_type":[0,0,0,0,0,0,0,0,0,0,0],"sum_hessian":[9.033325E0,8.021901E0,1.0114245E0,1.9380339E0,6.083867E0,2.571077E0,3.5127902E0,1.4317145E0,1.1393625E0,1.9985354E0,1.5142547E0],"tree_param":{"num_deleted":"0","num_feature":"5","num_nodes":"11","size_leaf_vector":"1"}},{"base_weights":[4.111564E-3,6.895471E-2,-5.066119E-2,6.0882766E-2,-1.8048312E-1,1.8843041E-1,-3.0705577E-2,1.877597E-2,-2.7774E-1,1.024388E-1,-1.3432669E-2,-1.2028388E-1,-6.6801347E-3],"categories":[],"categories_nodes":[],"categories_segments":[],"categories_sizes":[],"default_left":[0,0,0,0,0,0,0,0,0,0,0,0,0],"id":40,"left_children":[1,-1,3,5,7,9,-1,-1,11,-1,-1,-1,-1],"loss_changes":[1.3336198E-1,0E0,1.3757251E-1,1.3274561E-1,1.1884661E-1,1.370258E-1,0E0,0E0,9.3348384E-2,0E0,0E0,0E0,0E0],"parents":[2147483647,0,0,2,2,3,3,4,4,5,5,8,8],"right_children":[2,-1,4,6,8,10,-1,-1,12,-1,-1,-1,-1],"split_conditions":[4.289E2,6.895471E-2,9.947E-2,2.156E1,1.633E1,6.988E2,-3.0705577E-2,1.877597E-2,1.884E1,1.024388E-1,-1.3432669E-2,-1.2028388E-1,-6.6801347E-3],"split_indices":[3,0,4,1,1,3,0,0,1,0,0,0,0],"split_type":[0,0,0,0,0,0,0,0,0,0,0,0,0],"sum_hessian":[8.844304E0,1.1028141E0,7.7414894E0,4.4494863E0,3.2920032E0,2.4111328E0,2.0383537E0,1.0426464E0,2.2493567E0,1.1755282E0,1.2356046E0,1.1333506E0,1.116006E0],"tree_param":{"num_deleted":"0","num_feature":"5","num_nodes":"13","size_leaf_vector":"1"}},{"base_weights":[5.1496974E-3,1.1318705E-1,-1.0403546E-1,-2.8279511E-2,2.151142E-1,-1.9378562E-1,2.4358975E-2,1.0207986E-1,-3.6585086E-3,-9.624429E-2,2.3302695E-2],"categories":[],"categories_nodes":[],"categories_segments":[],"categories_sizes":[],"default_left":[0,0,0,0,0,0,0,0,0,0,0],"id":41,"left_children":[1,3,5,-1,7,9,-1,-1,-1,-1,-1],"loss_changes":[1.2661E-1,1.3387173E-1,1.0488972E-1,0E0,1.1529507E-1,1.5967228E-1,0E0,0E0,0E0,0E0,0E0],"parents":[2147483647,0,0,1,1,2,2,4,4,5,5],"right_children":[2,4,6,-1,8,10,-1,-1,-1,-1,-1],"split_conditions":[5.621E2,1.181E1,1.57E1,-2.8279511E-2,1.032E-1,2.207E1,2.4358975E-2,1.0207986E-1,-3.6585086E-3,-9.624429E-2,2.3302695E-2],"split_indices":[3,0,0,0,4,1,0,0,0,0,0],"split_type":[0,0,0,0,0,0,0,0,0,0,0],"sum_hessian":[8.734978E0,4.3721433E0,4.362834E0,1.4651992E0,2.906944E0,2.9077628E0,1.4550711E0,1.5542653E0,1.3526789E0,1.8569903E0,1.0507725E0],"tree_param":{"num_deleted":"0","num_feature":"5","num_nodes":"11","size_leaf_vector":"1"}},{"base_weights":[6.1037824E-3,6.6074766E-2,-4.444186E-2,9.813259E-2,-1.2906952E-1,5.2461494E-2,-1.5453077E-2,-2.3379551E-2,-8.464888E-2,-6.334311E-2,1.0750843E-1,7.984951E-2,-2.944922E-2],"categories":[],"categories_nodes":[],"categories_segments":[],"categories_sizes":[],"default_left":[0,0,0,0,0,0,0,0,0,0,0,0,0],"id":42,"left_children":[1,-1,3,5,7,-1,-1,9,-1,-1,11,-1,-1],"loss_changes":[1.14191525E-1,0E0,1.1686118E-1,5.246863E-2,8.8074364E-2,0E0,0E0,1.3456291E-1,0E0,0E0,1.3526934E-1,0E0,0E0],"parents":[2147483647,0,0,2,2,3,3,4,4,7,7,10,10],"right_children":[2,-1,4,6,8,-1,-1,10,-1,-1,12,-1,-1],"split_conditions":[1.505E1,6.6074766E-2,9.44E-2,6.988E2,8.978E1,5.2461494E-2,-1.5453077E-2,1.181E1,-8.464888E-2,-6.334311E-2,1.031E-1,7.984951E-2,-2.944922E-2],"split_indices":[1,0,4,3,2,0,0,0,0,0,4,0,0],"split_type":[0,0,0,0,0,0,0,0,0,0,0,0,0],"sum_hessian":[8.645428E0,1.0098003E0,7.6356273E0,2.784659E0,4.850968E0,1.7292702E0,1.0553887E0,3.5517123E0,1.2992558E0,1.2070239E0,2.3446884E0,1.1575946E0,1.1870937E0],"tree_param":{"num_deleted":"0","num_feature":"5","num_nodes":"13","size_leaf_vector":"1"}},{"base_weights":[4.9969987E-3,6.83315E-2,-5.0581295E-2,-1.9753607E-1,4.8579626E-2,-3.8764158E-3,-9.8240845E-2,1.9180386E-1,-4.5503847E-2,1.238642E-2,7.3328674E-2],"categories":[],"categories_nodes":[],"categories_segments":[],"categories_sizes":[],"default_left":[0,0,0,0,0,0,0,0,0,0,0],"id":43,"left_children":[1,-1,3,5,7,-1,-1,9,-1,-1,-1],"loss_changes":[1.2943453E-1,0E0,1.3258785E-1,8.207519E-2,1.9665873E-1,0E0,0E0,2.0385578E-2,0E0,0E0,0E0],"parents":[2147483647,0,0,2,2,3,3,4,4,7,7],"right_children":[2,-1,4,6,8,-1,-1,10,-1,-1,-1],"split_conditions":[4.289E2,6.83315E-2,8.624E1,2.156E1,6.988E2,-3.8764158E-3,-9.8240845E-2,1.362E1,-4.5503847E-2,1.238642E-2,7.3328674E-2],"split_indices":[3,0,2,1,3,0,0,0,0,0,0],"split_type":[0,0,0,0,0,0,0,0,0,0,0],"sum_hessian":[8.523413E0,1.0832411E0,7.4401717E0,2.597962E0,4.84221E0,1.5273241E0,1.0706378E0,2.847742E0,1.994468E0,1.2000327E0,1.6477093E0],"tree_param":{"num_deleted":"0","num_feature":"5","num_nodes":"11","size_leaf_vector":"1"}},{"base_weights":[4.2807357E-3,5.888214E-2,-4.315223E-2,9.1881394E-2,-1.22433886E-1,7.285099E-2,-1.726274E-2,-2.1010105E-2,-7.3384434E-2,-6.5452665E-2,4.052517E-2],"categories":[],"categories_nodes":[],"categories_segments":[],"categories_sizes":[],"default_left":[0,0,0,0,0,0,0,0,0,0,0],"id":44,"left_children":[1,-1,3,5,7,-1,-1,9,-1,-1,-1],"loss_changes":[9.427468E-2,0E0,1.0091201E-1,9.674443E-2,6.556595E-2,0E0,0E0,1.5909088E-1,0E0,0E0,0E0],"parents":[2147483647,0,0,2,2,3,3,4,4,7,7],"right_children":[2,-1,4,6,8,-1,-1,10,-1,-1,-1],"split_conditions":[4.289E2,5.888214E-2,9.43E-2,1.962E1,6.024E2,7.285099E-2,-1.726274E-2,1.247E1,-7.3384434E-2,-6.5452665E-2,4.052517E-2],"split_indices":[3,0,4,1,3,0,0,0,0,0,0],"split_type":[0,0,0,0,0,0,0,0,0,0,0],"sum_hessian":[8.422082E0,1.0468516E0,7.375231E0,2.6695285E0,4.7057023E0,1.0169766E0,1.6525518E0,3.2116406E0,1.4940616E0,1.2433816E0,1.9682591E0],"tree_param":{"num_deleted":"0","num_feature":"5","num_nodes":"11","size_leaf_vector":"1"}},{"base_weights":[4.7392957E-3,1.4027493E-1,-6.732399E-2,7.863072E-2,-2.561615E-2,-7.7856556E-2,3.521076E-2,7.8054205E-2,-9.8412775E-2,3.2737564E-2,-8.712306E-2],"categories":[],"categories_nodes":[],"categories_segments":[],"categories_sizes":[],"default_left":[0,0,0,0,0,0,0,0,0,0,0],"id":45,"left_children":[1,3,5,-1,-1,-1,7,-1,9,-1,-1],"loss_changes":[1.006931E-1,1.2045254E-1,1.426554E-1,0E0,0E0,0E0,1.848898E-1,0E0,1.9306129E-1,0E0,0E0],"parents":[2147483647,0,0,1,1,2,2,6,6,8,8],"right_children":[2,4,6,-1,-1,-1,8,-1,10,-1,-1],"split_conditions":[1.814E1,1.021E2,1.946E1,7.863072E-2,-2.561615E-2,-7.7856556E-2,8.983E-2,7.8054205E-2,8.721E1,3.2737564E-2,-8.712306E-2],"split_indices":[1,2,1,0,0,0,4,0,2,0,0],"split_type":[0,0,0,0,0,0,0,0,0,0,0],"sum_hessian":[8.342468E0,2.5673258E0,5.7751427E0,1.5623716E0,1.0049542E0,1.4764764E0,4.2986665E0,1.2488956E0,3.0497706E0,1.672994E0,1.3767767E0],"tree_param":{"num_deleted":"0","num_feature":"5","num_nodes":"11","size_leaf_vector":"1"}},{"base_weights":[3.3114094E-3,5.5737395E-2,-4.3168776E-2,5.1947042E-2,-1.5046729E-1,1.8054606E-1,-2.8815012E-2,-7.08621E-2,5.3434465E-3,9.385455E-2,-1.2971625E-2],"categories":[],"categories_nodes":[],"categories_segments":[],"categories_sizes":[],"default_left":[0,0,0,0,0,0,0,0,0,0,0],"id":46,"left_children":[1,-1,3,5,7,9,-1,-1,-1,-1,-1],"loss_changes":[8.609752E-2,0E0,9.097391E-2,1.1369444E-1,6.3153125E-2,1.0400953E-1,0E0,0E0,0E0,0E0,0E0],"parents":[2147483647,0,0,2,2,3,3,4,4,5,5],"right_children":[2,-1,4,6,8,10,-1,-1,-1,-1,-1],"split_conditions":[1.551E1,5.5737395E-2,9.947E-2,2.156E1,1.884E1,6.988E2,-2.8815012E-2,-7.08621E-2,5.3434465E-3,9.385455E-2,-1.2971625E-2],"split_indices":[1,0,4,1,1,3,0,0,0,0,0],"split_type":[0,0,0,0,0,0,0,0,0,0,0],"sum_hessian":[8.205366E0,1.0572838E0,7.148082E0,4.062608E0,3.085474E0,2.056085E0,2.0065227E0,1.7766093E0,1.3088647E0,1.0420394E0,1.0140457E0],"tree_param":{"num_deleted":"0","num_feature":"5","num_nodes":"11","size_leaf_vector":"1"}},{"base_weights":[7.1875537E-3,1.5086828E-1,-5.888166E-2,5.9396275E-3,6.243202E-2,-8.3925776E-2,4.4501167E-2,6.7066245E-2,-7.755512E-2,-6.115352E-2,2.9469928E-2],"categories":[],"categories_nodes":[],"categories_segments":[],"categories_sizes":[],"default_left":[0,0,0,0,0,0,0,0,0,0,0],"id":47,"left_children":[1,3,5,-1,-1,-1,7,-1,9,-1,-1],"loss_changes":[9.573603E-2,1.9606613E-2,1.7198314E-1,0E0,0E0,0E0,1.401996E-1,0E0,1.1072151E-1,0E0,0E0],"parents":[2147483647,0,0,1,1,2,2,6,6,8,8],"right_children":[2,4,6,-1,-1,-1,8,-1,10,-1,-1],"split_conditions":[4.767E2,7.551E1,8.624E1,5.9396275E-3,6.243202E-2,-8.3925776E-2,9.003E1,6.7066245E-2,1.57E1,-6.115352E-2,2.9469928E-2],"split_indices":[3,2,2,0,0,0,2,0,0,0,0],"split_type":[0,0,0,0,0,0,0,0,0,0,0],"sum_hessian":[8.149248E0,2.1626482E0,5.9866E0,1.0664647E0,1.0961835E0,1.3648012E0,4.621799E0,1.5363917E0,3.0854073E0,1.7026104E0,1.3827969E0],"tree_param":{"num_deleted":"0","num_feature":"5","num_nodes":"11","size_leaf_vector":"1"}},{"base_weights":[7.2580213E-3,5.3634334E-2,-5.3224653E-2,-1.810426E-2,6.448139E-2,7.0958026E-2,-6.41161E-2,1.7656782E-1,-1.9683141E-2,8.981755E-2,-6.3788486E-3],"categories":[],"categories_nodes":[],"categories_segments":[],"categories_sizes":[],"default_left":[0,0,0,0,0,0,0,0,0,0,0],"id":48,"left_children":[1,3,-1,5,-1,7,-1,9,-1,-1,-1],"loss_changes":[8.734986E-2,9.683231E-2,0E0,1.2808788E-1,0E0,8.6650014E-2,0E0,8.4263094E-2,0E0,0E0,0E0],"parents":[2147483647,0,0,1,1,3,3,5,5,7,7],"right_children":[2,4,-1,6,-1,8,-1,10,-1,-1,-1],"split_conditions":[1.162E-1,1.043E-1,-5.3224653E-2,9.947E-2,6.448139E-2,2.156E1,-6.41161E-2,6.988E2,-1.9683141E-2,8.981755E-2,-6.3788486E-3],"split_indices":[4,4,0,4,0,1,0,3,0,0,0],"split_type":[0,0,0,0,0,0,0,0,0,0,0],"sum_hessian":[8.088038E0,7.0317545E0,1.0562837E0,5.4816113E0,1.5501431E0,4.204567E0,1.2770442E0,2.2058628E0,1.9987043E0,1.0441954E0,1.1616673E0],"tree_param":{"num_deleted":"0","num_feature":"5","num_nodes":"11","size_leaf_vector":"1"}},{"base_weights":[6.557312E-3,9.641974E-2,-8.372572E-2,-2.3183014E-2,1.8365505E-1,-1.6887137E-1,2.4719952E-2,9.7418346E-2,-6.89968E-3,-8.8426456E-2,2.4101766E-2],"categories":[],"categories_nodes":[],"categories_segments":[],"categories_sizes":[],"default_left":[0,0,0,0,0,0,0,0,0,0,0],"id":49,"left_children":[1,3,5,-1,7,9,-1,-1,-1,-1,-1],"loss_changes":[8.122615E-2,8.970711E-2,8.5107245E-2,0E0,1.1281869E-1,1.3835901E-1,0E0,0E0,0E0,0E0,0E0],"parents":[2147483647,0,0,1,1,2,2,4,4,5,5],"right_children":[2,4,6,-1,8,10,-1,-1,-1,-1,-1],"split_conditions":[5.621E2,1.181E1,1.57E1,-2.3183014E-2,2.019E1,2.207E1,2.4719952E-2,9.7418346E-2,-6.89968E-3,-8.8426456E-2,2.4101766E-2],"split_indices":[3,0,0,0,1,1,0,0,0,0,0],"split_type":[0,0,0,0,0,0,0,0,0,0,0],"sum_hessian":[8.016748E0,3.9836676E0,4.0330806E0,1.3699946E0,2.613673E0,2.655505E0,1.3775756E0,1.2137467E0,1.3999264E0,1.6428832E0,1.0126218E0],"tree_param":{"num_deleted":"0","num_feature":"5","num_nodes":"11","size_leaf_vector":"1"}},{"base_weights":[7.826495E-3,6.1167028E-2,-3.782671E-2,-3.0764375E-2,7.1750924E-2,4.911434E-2,-1.465792E-1,2.3857133E-2,-7.459015E-2],"categories":[],"categories_nodes":[],"categories_segments":[],"categories_sizes":[],"default_left":[0,0,0,0,0,0,0,0,0],"id":50,"left_children":[1,3,-1,5,-1,-1,7,-1,-1],"loss_changes":[7.1661785E-2,1.2314573E-1,0E0,1.4904758E-1,0E0,0E0,1.1224161E-1,0E0,0E0],"parents":[2147483647,0,0,1,1,3,3,6,6],"right_children":[2,4,-1,6,-1,-1,8,-1,-1],"split_conditions":[6.988E2,1.362E1,-3.782671E-2,1.861E1,7.1750924E-2,4.911434E-2,4.765E2,2.3857133E-2,-7.459015E-2],"split_indices":[3,0,0,1,0,0,3,0,0],"split_type":[0,0,0,0,0,0,0,0,0],"sum_hessian":[7.952566E0,6.0757475E0,1.8768188E0,4.551992E0,1.5237558E0,1.5446289E0,3.0073628E0,1.0039265E0,2.0034363E0],"tree_param":{"num_deleted":"0","num_feature":"5","num_nodes":"9","size_leaf_vector":"1"}},{"base_weights":[9.2232395E-3,1.2773815E-1,-6.096213E-2,6.586538E-2,1.1167016E-3,2.5159022E-2,-6.3869454E-2,-3.858369E-2,1.271965E-1,7.759251E-2,-1.3392602E-2],"categories":[],"categories_nodes":[],"categories_segments":[],"categories_sizes":[],"default_left":[0,0,0,0,0,0,0,0,0,0,0],"id":51,"left_children":[1,3,5,-1,-1,7,-1,-1,9,-1,-1],"loss_changes":[8.1443846E-2,4.036272E-2,8.6985834E-2,0E0,0E0,9.286407E-2,0E0,0E0,8.910581E-2,0E0,0E0],"parents":[2147483647,0,0,1,1,2,2,5,5,8,8],"right_children":[2,4,6,-1,-1,8,-1,-1,10,-1,-1],"split_conditions":[9.43E-2,1.977E1,6.024E2,6.586538E-2,1.1167016E-3,1.187E1,-6.3869454E-2,-3.858369E-2,1.024E-1,7.759251E-2,-1.3392602E-2],"split_indices":[4,1,3,0,0,0,0,0,4,0,0],"split_type":[0,0,0,0,0,0,0,0,0,0,0],"sum_hessian":[7.8550787E0,2.61663E0,5.2384486E0,1.0608774E0,1.5557528E0,3.8759015E0,1.3625473E0,1.4421412E0,2.4337602E0,1.092741E0,1.3410192E0],"tree_param":{"num_deleted":"0","num_feature":"5","num_nodes":"11","size_leaf_vector":"1"}},{"base_weights":[9.788025E-3,5.18946E-2,-4.2839188E-2,1.0288105E-1,-3.3241667E-2,-3.129803E-5,6.906798E-2,-5.1518764E-2,5.5208147E-2],"categories":[],"categories_nodes":[],"categories_segments":[],"categories_sizes":[],"default_left":[0,0,0,0,0,0,0,0,0],"id":52,"left_children":[1,3,-1,5,-1,7,-1,-1,-1],"loss_changes":[6.396576E-2,7.471348E-2,0E0,8.296116E-2,0E0,1.7383173E-1,0E0,0E0,0E0],"parents":[2147483647,0,0,1,1,3,3,5,5],"right_children":[2,4,-1,6,-1,8,-1,-1,-1],"split_conditions":[1.158E-1,7.586E2,-4.2839188E-2,1.362E1,-3.3241667E-2,9.97E-2,6.906798E-2,-5.1518764E-2,5.5208147E-2],"split_indices":[4,3,0,0,0,4,0,0,0],"split_type":[0,0,0,0,0,0,0,0,0],"sum_hessian":[7.802602E0,6.632291E0,1.1703112E0,5.329739E0,1.3025517E0,3.500565E0,1.8291739E0,1.8457514E0,1.6548136E0],"tree_param":{"num_deleted":"0","num_feature":"5","num_nodes":"9","size_leaf_vector":"1"}},{"base_weights":[6.6367206E-3,1.250481E-1,-6.3665845E-2,5.4131683E-2,-1.0285194E-3,-6.308418E-2,1.0619609E-2,-3.682239E-2,9.578684E-2,5.844792E-2,-2.2439389E-2],"categories":[],"categories_nodes":[],"categories_segments":[],"categories_sizes":[],"default_left":[0,0,0,0,0,0,0,0,0,0,0],"id":53,"left_children":[1,3,5,-1,-1,-1,7,-1,9,-1,-1],"loss_changes":[8.079683E-2,2.6215155E-2,6.9242954E-2,0E0,0E0,0E0,6.894992E-2,0E0,7.59791E-2,0E0,0E0],"parents":[2147483647,0,0,1,1,2,2,6,6,8,8],"right_children":[2,4,6,-1,-1,-1,8,-1,10,-1,-1],"split_conditions":[9.44E-2,6.988E2,9.879E-2,5.4131683E-2,-1.0285194E-3,-6.308418E-2,1.187E1,-3.682239E-2,1.061E-1,5.844792E-2,-2.2439389E-2],"split_indices":[4,3,4,0,0,0,0,0,4,0,0],"split_type":[0,0,0,0,0,0,0,0,0,0,0],"sum_hessian":[7.7494087E0,2.5968285E0,5.1525803E0,1.5319144E0,1.0649141E0,1.1170955E0,4.0354843E0,1.4008127E0,2.634672E0,1.5769843E0,1.0576875E0],"tree_param":{"num_deleted":"0","num_feature":"5","num_nodes":"11","size_leaf_vector":"1"}},{"base_weights":[3.5149343E-3,4.947071E-2,-4.6654098E-2,5.5718757E-2,-1.8592471E-1,1.6653894E-1,-2.3834504E-2,-8.1728145E-2,2.3384993E-3,-9.491626E-3,8.355656E-2],"categories":[],"categories_nodes":[],"categories_segments":[],"categories_sizes":[],"default_left":[0,0,0,0,0,0,0,0,0,0,0],"id":54,"left_children":[1,-1,3,5,7,9,-1,-1,-1,-1,-1],"loss_changes":[7.804874E-2,0E0,1.1598323E-1,8.8714026E-2,5.8580622E-2,7.742992E-2,0E0,0E0,0E0,0E0,0E0],"parents":[2147483647,0,0,2,2,3,3,4,4,5,5],"right_children":[2,-1,4,6,8,10,-1,-1,-1,-1,-1],"split_conditions":[7.742E1,4.947071E-2,1.015E-1,9.287E1,1.351E1,8.624E1,-2.3834504E-2,-8.1728145E-2,2.3384993E-3,-9.491626E-3,8.355656E-2],"split_indices":[2,0,4,2,0,2,0,0,0,0,0],"split_type":[0,0,0,0,0,0,0,0,0,0,0],"sum_hessian":[7.6894403E0,1.2811637E0,6.4082766E0,4.0391593E0,2.3691173E0,2.0919359E0,1.9472234E0,1.3569139E0,1.0122035E0,1.0143301E0,1.0776057E0],"tree_param":{"num_deleted":"0","num_feature":"5","num_nodes":"11","size_leaf_vector":"1"}},{"base_weights":[4.933657E-3,4.900985E-2,-5.2160304E-2,4.113013E-2,-1.24112576E-1,-1.5281665E-5,-7.466612E-2,-4.227815E-2,3.8766276E-2],"categories":[],"categories_nodes":[],"categories_segments":[],"categories_sizes":[],"default_left":[0,0,0,0,0,0,0,0,0],"id":55,"left_children":[1,-1,3,-1,5,7,-1,-1,-1],"loss_changes":[8.624074E-2,0E0,1.1334703E-1,0E0,8.748574E-2,8.801092E-2,0E0,0E0,0E0],"parents":[2147483647,0,0,2,2,4,4,5,5],"right_children":[2,-1,4,-1,6,8,-1,-1,-1],"split_conditions":[1.658E1,4.900985E-2,8.947E-2,4.113013E-2,8.721E1,1.187E1,-7.466612E-2,-4.227815E-2,3.8766276E-2],"split_indices":[1,0,4,0,2,0,0,0,0],"split_type":[0,0,0,0,0,0,0,0,0],"sum_hessian":[7.5920258E0,1.5180811E0,6.073945E0,1.4236885E0,4.6502566E0,2.8328767E0,1.8173796E0,1.3119445E0,1.5209323E0],"tree_param":{"num_deleted":"0","num_feature":"5","num_nodes":"9","size_leaf_vector":"1"}},{"base_weights":[4.7811717E-3,4.2435776E-2,-5.9158448E-2,1.11499466E-1,-1.973401E-1,-1.2220475E-2,7.262598E-2,-8.953852E-2,2.6275842E-3],"categories":[],"categories_nodes":[],"categories_segments":[],"categories_sizes":[],"default_left":[0,0,0,0,0,0,0,0,0],"id":56,"left_children":[1,-1,3,5,7,-1,-1,-1,-1],"loss_changes":[8.287078E-2,0E0,1.7560053E-1,8.049853E-2,8.5148335E-2,0E0,0E0,0E0,0E0],"parents":[2147483647,0,0,2,2,3,3,4,4],"right_children":[2,-1,4,6,8,-1,-1,-1,-1],"split_conditions":[4.767E2,4.2435776E-2,1.962E1,1.566E1,1.362E1,-1.2220475E-2,7.262598E-2,-8.953852E-2,2.6275842E-3],"split_indices":[3,0,1,0,0,0,0,0,0],"split_type":[0,0,0,0,0,0,0,0,0],"sum_hessian":[7.5255837E0,2.0122025E0,5.5133815E0,2.5532038E0,2.9601777E0,1.4965895E0,1.0566142E0,1.6851935E0,1.2749841E0],"tree_param":{"num_deleted":"0","num_feature":"5","num_nodes":"9","size_leaf_vector":"1"}},{"base_weights":[5.149919E-3,1.0208249E-1,-9.264247E-2,-1.7769253E-2,1.9429246E-1,-1.71065E-1,1.886449E-2,8.769714E-2,7.4355846E-4,-8.4094755E-2,1.4665645E-3],"categories":[],"categories_nodes":[],"categories_segments":[],"categories_sizes":[],"default_left":[0,0,0,0,0,0,0,0,0,0,0],"id":57,"left_children":[1,3,5,-1,7,9,-1,-1,-1,-1,-1],"loss_changes":[8.981813E-2,8.19138E-2,6.862111E-2,0E0,6.029997E-2,6.716557E-2,0E0,0E0,0E0,0E0,0E0],"parents":[2147483647,0,0,1,1,2,2,4,4,5,5],"right_children":[2,4,6,-1,8,10,-1,-1,-1,-1,-1],"split_conditions":[5.621E2,1.187E1,1.57E1,-1.7769253E-2,2.082E1,2.019E1,1.886449E-2,8.769714E-2,7.4355846E-4,-8.4094755E-2,1.4665645E-3],"split_indices":[3,0,0,0,1,1,0,0,0,0,0],"split_type":[0,0,0,0,0,0,0,0,0,0,0],"sum_hessian":[7.477548E0,3.7332513E0,3.744297E0,1.4879191E0,2.2453322E0,2.4227214E0,1.3215754E0,1.1391463E0,1.106186E0,1.1287489E0,1.2939726E0],"tree_param":{"num_deleted":"0","num_feature":"5","num_nodes":"11","size_leaf_vector":"1"}},{"base_weights":[4.530548E-3,5.9320282E-2,-3.8369134E-2,6.4705245E-2,-1.774317E-2,3.924587E-2,-1.2686436E-1,1.1686679E-2,-7.307351E-2],"categories":[],"categories_nodes":[],"categories_segments":[],"categories_sizes":[],"default_left":[0,0,0,0,0,0,0,0,0],"id":58,"left_children":[1,3,-1,-1,5,-1,7,-1,-1],"loss_changes":[6.874003E-2,8.389747E-2,0E0,0E0,1.037346E-1,0E0,7.928929E-2,0E0,0E0],"parents":[2147483647,0,0,1,1,4,4,6,6],"right_children":[2,4,-1,-1,6,-1,8,-1,-1],"split_conditions":[6.988E2,9.258E-2,-3.8369134E-2,6.4705245E-2,1.861E1,3.924587E-2,1.016E-1,1.1686679E-2,-7.307351E-2],"split_indices":[3,4,0,0,1,0,4,0,0],"split_type":[0,0,0,0,0,0,0,0,0],"sum_hessian":[7.428316E0,5.6448917E0,1.7834244E0,1.2697492E0,4.3751426E0,1.7685325E0,2.60661E0,1.3520013E0,1.2546088E0],"tree_param":{"num_deleted":"0","num_feature":"5","num_nodes":"9","size_leaf_vector":"1"}},{"base_weights":[3.7462644E-3,8.516699E-2,-7.767862E-2,-1.4775901E-2,1.6320987E-1,1.489698E-2,-5.438229E-2,7.624772E-2,-2.0538825E-3],"categories":[],"categories_nodes":[],"categories_segments":[],"categories_sizes":[],"default_left":[0,0,0,0,0,0,0,0,0],"id":59,"left_children":[1,3,5,-1,7,-1,-1,-1,-1],"loss_changes":[6.1808288E-2,5.6711044E-2,7.080877E-2,0E0,5.0725706E-2,0E0,0E0,0E0,0E0],"parents":[2147483647,0,0,1,1,2,2,4,4],"right_children":[2,4,6,-1,8,-1,-1,-1,-1],"split_conditions":[5.621E2,1.187E1,1.948E1,-1.4775901E-2,2.082E1,1.489698E-2,-5.438229E-2,7.624772E-2,-2.0538825E-3],"split_indices":[3,0,1,0,1,0,0,0,0],"split_type":[0,0,0,0,0,0,0,0,0],"sum_hessian":[7.3250923E0,3.6396601E0,3.685432E0,1.4724429E0,2.1672173E0,1.8868586E0,1.7985735E0,1.0898081E0,1.0774093E0],"tree_param":{"num_deleted":"0","num_feature":"5","num_nodes":"9","size_leaf_vector":"1"}},{"base_weights":[5.105704E-3,4.275246E-2,-3.9032213E-2,4.7045786E-2,-7.101965E-2,6.653329E-2,-9.298243E-2,-7.618539E-2,2.0645712E-2],"categories":[],"categories_nodes":[],"categories_segments":[],"categories_sizes":[],"default_left":[0,0,0,0,0,0,0,0,0],"id":60,"left_children":[1,-1,3,5,-1,-1,7,-1,-1],"loss_changes":[5.578937E-2,0E0,1.31168E-1,1.6126153E-1,0E0,0E0,1.1893493E-1,0E0,0E0],"parents":[2147483647,0,0,2,2,3,3,6,6],"right_children":[2,-1,4,6,-1,-1,8,-1,-1],"split_conditions":[7.742E1,4.275246E-2,1.061E-1,1.962E1,-7.101965E-2,6.653329E-2,2.211E1,-7.618539E-2,2.0645712E-2],"split_indices":[2,0,4,1,0,0,1,0,0],"split_type":[0,0,0,0,0,0,0,0,0],"sum_hessian":[7.281909E0,1.228586E0,6.053323E0,4.7480636E0,1.3052591E0,1.8525652E0,2.8954985E0,1.1659874E0,1.7295111E0],"tree_param":{"num_deleted":"0","num_feature":"5","num_nodes":"9","size_leaf_vector":"1"}},{"base_weights":[1.368034E-3,5.0816722E-2,-4.3788746E-2,-2.5853654E-2,5.8849826E-2,3.3222497E-2,-1.317038E-1,-6.380294E-2,1.276146E-3],"categories":[],"categories_nodes":[],"categories_segments":[],"categories_sizes":[],"default_left":[0,0,0,0,0,0,0,0,0],"id":61,"left_children":[1,3,-1,5,-1,-1,7,-1,-1],"loss_changes":[6.703432E-2,8.161512E-2,0E0,9.237548E-2,0E0,0E0,3.9303668E-2,0E0,0E0],"parents":[2147483647,0,0,1,1,3,3,6,6],"right_children":[2,4,-1,6,-1,-1,8,-1,-1],"split_conditions":[7.586E2,1.387E1,-4.3788746E-2,4.767E2,5.8849826E-2,3.3222497E-2,8.624E1,-6.380294E-2,1.276146E-3],"split_indices":[3,0,0,3,0,0,2,0,0],"split_type":[0,0,0,0,0,0,0,0,0],"sum_hessian":[7.183189E0,5.8685913E0,1.3145976E0,4.3802037E0,1.4883875E0,1.8921934E0,2.4880102E0,1.2056642E0,1.2823461E0],"tree_param":{"num_deleted":"0","num_feature":"5","num_nodes":"9","size_leaf_vector":"1"}},{"base_weights":[-8.0334645E-4,4.1568376E-2,-5.2578114E-2,2.7381495E-2,-1.0513262E-1,-7.007295E-2,-2.1370394E-2,-1.5365118E-1,5.4612834E-2,-6.987236E-2,1.1784579E-3],"categories":[],"categories_nodes":[],"categories_segments":[],"categories_sizes":[],"default_left":[0,0,0,0,0,0,0,0,0,0,0],"id":62,"left_children":[1,-1,3,-1,5,-1,7,9,-1,-1,-1],"loss_changes":[6.5891504E-2,0E0,5.9846766E-2,0E0,5.2385833E-2,0E0,1.4444676E-1,4.0446624E-2,0E0,0E0,0E0],"parents":[2147483647,0,0,2,2,4,4,6,6,7,7],"right_children":[2,-1,4,-1,6,-1,8,10,-1,-1,-1],"split_conditions":[8.947E-2,4.1568376E-2,1.658E1,2.7381495E-2,9.516E-2,-7.007295E-2,2.07E1,1.187E1,5.4612834E-2,-6.987236E-2,1.1784579E-3],"split_indices":[4,0,1,0,4,0,1,0,0,0,0],"split_type":[0,0,0,0,0,0,0,0,0,0,0],"sum_hessian":[7.122189E0,1.4751709E0,5.647018E0,1.313918E0,4.3331003E0,1.0043814E0,3.3287187E0,2.1652677E0,1.1634511E0,1.1226038E0,1.0426638E0],"tree_param":{"num_deleted":"0","num_feature":"5","num_nodes":"11","size_leaf_vector":"1"}},{"base_weights":[-2.4754354E-3,5.3941462E-2,-3.9908085E-2,6.324222E-2,-2.3129353E-2,5.5750918E-2,-5.1661093E-2,-2.9213913E-2,4.487148E-2],"categories":[],"categories_nodes":[],"categories_segments":[],"categories_sizes":[],"default_left":[0,0,0,0,0,0,0,0,0],"id":63,"left_children":[1,3,-1,-1,5,7,-1,-1,-1],"loss_changes":[6.67072E-2,8.170969E-2,0E0,0E0,7.030816E-2,7.392347E-2,0E0,0E0,0E0],"parents":[2147483647,0,0,1,1,4,4,5,5],"right_children":[2,4,-1,-1,6,8,-1,-1,-1],"split_conditions":[6.988E2,9.258E-2,-3.9908085E-2,6.324222E-2,2.154E1,1.181E1,-5.1661093E-2,-2.9213913E-2,4.487148E-2],"split_indices":[3,4,0,0,1,0,0,0,0],"split_type":[0,0,0,0,0,0,0,0,0],"sum_hessian":[7.0826917E0,5.355269E0,1.7274226E0,1.192623E0,4.162646E0,3.131619E0,1.031027E0,1.1753393E0,1.9562796E0],"tree_param":{"num_deleted":"0","num_feature":"5","num_nodes":"9","size_leaf_vector":"1"}},{"base_weights":[-3.2556893E-3,3.4999695E-2,-5.8118153E-2,3.7127264E-2,-6.0407694E-2,-2.8485486E-2,1.1883562E-1,8.546883E-2,-2.4403615E-2],"categories":[],"categories_nodes":[],"categories_segments":[],"categories_sizes":[],"default_left":[0,0,0,0,0,0,0,0,0],"id":64,"left_children":[1,-1,3,5,-1,-1,7,-1,-1],"loss_changes":[5.9481073E-2,0E0,9.156333E-2,6.034612E-2,0E0,0E0,1.313055E-1,0E0,0E0],"parents":[2147483647,0,0,2,2,3,3,6,6],"right_children":[2,-1,4,6,-1,-1,8,-1,-1],"split_conditions":[4.767E2,3.4999695E-2,1.003E-1,1.362E1,-6.0407694E-2,-2.8485486E-2,6.988E2,8.546883E-2,-2.4403615E-2],"split_indices":[3,0,4,0,0,0,3,0,0],"split_type":[0,0,0,0,0,0,0,0,0],"sum_hessian":[7.01022E0,1.8468233E0,5.163397E0,3.546212E0,1.6171849E0,1.2933977E0,2.2528143E0,1.0000385E0,1.2527759E0],"tree_param":{"num_deleted":"0","num_feature":"5","num_nodes":"9","size_leaf_vector":"1"}},{"base_weights":[-1.3134247E-3,7.8935675E-2,-8.101933E-2,-1.6154097E-2,1.5837996E-1,-1.796083E-1,2.8706193E-2,7.0051804E-2,1.2805643E-3,-8.27768E-2,-2.4434917E-3],"categories":[],"categories_nodes":[],"categories_segments":[],"categories_sizes":[],"default_left":[0,0,0,0,0,0,0,0,0,0,0],"id":65,"left_children":[1,3,5,-1,7,9,-1,-1,-1,-1,-1],"loss_changes":[5.711355E-2,5.5551633E-2,9.5087215E-2,0E0,3.423141E-2,5.089262E-2,0E0,0E0,0E0,0E0,0E0],"parents":[2147483647,0,0,1,1,2,2,4,4,5,5],"right_children":[2,4,6,-1,8,10,-1,-1,-1,-1,-1],"split_conditions":[5.621E2,1.187E1,1.57E1,-1.6154097E-2,2.082E1,2.019E1,2.8706193E-2,7.0051804E-2,1.2805643E-3,-8.27768E-2,-2.4434917E-3],"split_indices":[3,0,0,0,1,1,0,0,0,0,0],"split_type":[0,0,0,0,0,0,0,0,0,0,0],"sum_hessian":[6.929275E0,3.457687E0,3.471588E0,1.4149511E0,2.0427358E0,2.2178013E0,1.2537866E0,1.0269452E0,1.0157907E0,1.0300045E0,1.1877967E0],"tree_param":{"num_deleted":"0","num_feature":"5","num_nodes":"11","size_leaf_vector":"1"}},{"base_weights":[-1.1125023E-3,9.5554754E-2,-6.001045E-2,5.998882E-2,-9.818704E-3,-1.4629216E-1,4.6700995E-2,-8.046682E-2,1.42333945E-2,5.5538297E-2,-3.6733735E-2],"categories":[],"categories_nodes":[],"categories_segments":[],"categories_sizes":[],"default_left":[0,0,0,0,0,0,0,0,0,0,0],"id":66,"left_children":[1,3,5,-1,-1,7,9,-1,-1,-1,-1],"loss_changes":[5.068588E-2,5.174809E-2,5.7658724E-2,0E0,0E0,9.0545446E-2,9.820267E-2,0E0,0E0,0E0,0E0],"parents":[2147483647,0,0,1,1,2,2,5,5,6,6],"right_children":[2,4,6,-1,-1,8,10,-1,-1,-1,-1],"split_conditions":[9.463E-2,2.019E1,1.043E-1,5.998882E-2,-9.818704E-3,2.068E1,1.158E-1,-8.046682E-2,1.42333945E-2,5.5538297E-2,-3.6733735E-2],"split_indices":[4,1,4,0,0,1,4,0,0,0,0],"split_type":[0,0,0,0,0,0,0,0,0,0,0],"sum_hessian":[6.8952436E0,2.3749456E0,4.520298E0,1.0012733E0,1.3736724E0,2.2943137E0,2.2259843E0,1.1721423E0,1.1221714E0,1.1721988E0,1.0537856E0],"tree_param":{"num_deleted":"0","num_feature":"5","num_nodes":"11","size_leaf_vector":"1"}},{"base_weights":[-4.4683853E-4,4.186159E-2,-4.609219E-2,5.1494185E-2,-5.428167E-2,4.9468726E-2,-2.4763068E-2],"categories":[],"categories_nodes":[],"categories_segments":[],"categories_sizes":[],"default_left":[0,0,0,0,0,0,0],"id":67,"left_children":[1,-1,3,5,-1,-1,-1],"loss_changes":[5.6637287E-2,0E0,9.7180486E-2,8.432343E-2,0E0,0E0,0E0],"parents":[2147483647,0,0,2,2,3,3],"right_children":[2,-1,4,6,-1,-1,-1],"split_conditions":[7.742E1,4.186159E-2,1.015E-1,9.287E1,-5.428167E-2,4.9468726E-2,-2.4763068E-2],"split_indices":[2,0,4,2,0,0,0],"split_type":[0,0,0,0,0,0,0],"sum_hessian":[6.8572946E0,1.1803553E0,5.676939E0,3.652101E0,2.0248382E0,1.853632E0,1.7984691E0],"tree_param":{"num_deleted":"0","num_feature":"5","num_nodes":"7","size_leaf_vector":"1"}},{"base_weights":[1.2995229E-3,3.5347436E-2,-4.2247534E-2,3.1931397E-2,-9.99388E-2,1.4350194E-2,-1.473852E-1,-4.0509556E-3,-7.570986E-2],"categories":[],"categories_nodes":[],"categories_segments":[],"categories_sizes":[],"default_left":[0,0,0,0,0,0,0,0,0],"id":68,"left_children":[1,-1,3,-1,5,-1,7,-1,-1],"loss_changes":[4.4469062E-2,0E0,6.554767E-2,0E0,4.300168E-2,0E0,5.459006E-2,0E0,0E0],"parents":[2147483647,0,0,2,2,4,4,6,6],"right_children":[2,-1,4,-1,6,-1,8,-1,-1],"split_conditions":[1.658E1,3.5347436E-2,8.947E-2,3.1931397E-2,7.742E1,1.4350194E-2,1.015E-1,-4.0509556E-3,-7.570986E-2],"split_indices":[1,0,4,0,2,0,4,0,0],"split_type":[0,0,0,0,0,0,0,0,0],"sum_hessian":[6.782552E0,1.381141E0,5.401411E0,1.2737263E0,4.1276846E0,1.0012138E0,3.1264708E0,1.8701271E0,1.2563437E0],"tree_param":{"num_deleted":"0","num_feature":"5","num_nodes":"9","size_leaf_vector":"1"}},{"base_weights":[1.0335271E-3,8.108881E-2,-7.839923E-2,-1.6416721E-2,1.5142034E-1,-4.7673266E-2,2.1278074E-2,6.919149E-2,-2.1600556E-3],"categories":[],"categories_nodes":[],"categories_segments":[],"categories_sizes":[],"default_left":[0,0,0,0,0,0,0,0,0],"id":69,"left_children":[1,3,5,-1,7,-1,-1,-1,-1],"loss_changes":[5.557305E-2,4.9800422E-2,6.408948E-2,0E0,4.0976435E-2,0E0,0E0,0E0,0E0],"parents":[2147483647,0,0,1,1,2,2,4,4],"right_children":[2,4,6,-1,8,-1,-1,-1,-1],"split_conditions":[5.621E2,1.181E1,1.57E1,-1.6416721E-2,1.032E-1,-4.7673266E-2,2.1278074E-2,6.919149E-2,-2.1600556E-3],"split_indices":[3,0,0,0,4,0,0,0,0],"split_type":[0,0,0,0,0,0,0,0,0],"sum_hessian":[6.739527E0,3.3462272E0,3.3933E0,1.2173817E0,2.1288452E0,2.1629329E0,1.2303673E0,1.1169798E0,1.0118655E0],"tree_param":{"num_deleted":"0","num_feature":"5","num_nodes":"9","size_leaf_vector":"1"}},{"base_weights":[3.97867E-3,4.959953E-2,-3.8557444E-2,-4.6651796E-2,1.5774128E-1,3.0863918E-2,-5.9096806E-2,6.7618616E-2,7.4992655E-3],"categories":[],"categories_nodes":[],"categories_segments":[],"categories_sizes":[],"default_left":[0,0,0,0,0,0,0,0,0],"id":70,"left_children":[1,3,-1,5,7,-1,-1,-1,-1],"loss_changes":[5.295226E-2,7.4530184E-2,0E0,1.1437115E-1,2.3707248E-2,0E0,0E0,0E0,0E0],"parents":[2147483647,0,0,1,1,3,3,4,4],"right_children":[2,4,-1,6,8,-1,-1,-1,-1],"split_conditions":[7.586E2,1.345E1,-3.8557444E-2,4.767E2,1.977E1,3.0863918E-2,-5.9096806E-2,6.7618616E-2,7.4992655E-3],"split_indices":[3,0,0,3,1,0,0,0,0],"split_type":[0,0,0,0,0,0,0,0,0],"sum_hessian":[6.705225E0,5.4533234E0,1.2519016E0,3.186125E0,2.2671983E0,1.7556064E0,1.4305187E0,1.0394561E0,1.2277422E0],"tree_param":{"num_deleted":"0","num_feature":"5","num_nodes":"9","size_leaf_vector":"1"}},{"base_weights":[3.9367233E-3,4.7805857E-2,-2.9416649E-2,-2.7462417E-2,5.661006E-2,-5.7132874E-2,1.1174944E-1,7.522648E-2,-2.0052873E-2],"categories":[],"categories_nodes":[],"categories_segments":[],"categories_sizes":[],"default_left":[0,0,0,0,0,0,0,0,0],"id":71,"left_children":[1,3,-1,5,-1,-1,7,-1,-1],"loss_changes":[3.887297E-2,6.896733E-2,0E0,1.3003679E-1,0E0,0E0,9.658386E-2,0E0,0E0],"parents":[2147483647,0,0,1,1,3,3,6,6],"right_children":[2,4,-1,6,-1,-1,8,-1,-1],"split_conditions":[6.988E2,1.362E1,-2.9416649E-2,9.97E-2,5.661006E-2,-5.7132874E-2,1.861E1,7.522648E-2,-2.0052873E-2],"split_indices":[3,0,0,4,0,0,1,0,0],"split_type":[0,0,0,0,0,0,0,0,0],"sum_hessian":[6.640361E0,5.0147038E0,1.6256571E0,3.7933261E0,1.2213778E0,1.5779518E0,2.2153742E0,1.0185407E0,1.1968336E0],"tree_param":{"num_deleted":"0","num_feature":"5","num_nodes":"9","size_leaf_vector":"1"}},{"base_weights":[6.29894E-3,9.894034E-2,-5.058881E-2,4.3086242E-2,3.3100327E-3,2.0014396E-2,-4.9963996E-2,-3.7374053E-2,4.9231794E-2],"categories":[],"categories_nodes":[],"categories_segments":[],"categories_sizes":[],"default_left":[0,0,0,0,0,0,0,0,0],"id":72,"left_children":[1,3,5,-1,-1,7,-1,-1,-1],"loss_changes":[4.4969328E-2,1.10754855E-2,4.7214054E-2,0E0,0E0,1.0845353E-1,0E0,0E0,0E0],"parents":[2147483647,0,0,1,1,2,2,5,5],"right_children":[2,4,6,-1,-1,8,-1,-1,-1],"split_conditions":[9.44E-2,2.156E1,6.024E2,4.3086242E-2,3.3100327E-3,1.884E1,-4.9963996E-2,-3.7374053E-2,4.9231794E-2],"split_indices":[4,1,3,0,0,1,0,0,0],"split_type":[0,0,0,0,0,0,0,0,0],"sum_hessian":[6.583081E0,2.2232726E0,4.3598084E0,1.0538493E0,1.1694232E0,3.2241316E0,1.1356765E0,1.676844E0,1.5472877E0],"tree_param":{"num_deleted":"0","num_feature":"5","num_nodes":"9","size_leaf_vector":"1"}},{"base_weights":[5.513985E-3,7.255202E-2,-6.232257E-2,-2.3785548E-2,5.608684E-2,-4.4912998E-2,2.655993E-2,3.2310866E-2,-4.350553E-2],"categories":[],"categories_nodes":[],"categories_segments":[],"categories_sizes":[],"default_left":[0,0,0,0,0,0,0,0,0],"id":73,"left_children":[1,3,5,7,-1,-1,-1,-1,-1],"loss_changes":[3.889173E-2,5.143504E-2,6.9867566E-2,6.665401E-2,0E0,0E0,0E0,0E0,0E0],"parents":[2147483647,0,0,1,1,2,2,3,3],"right_children":[2,4,6,8,-1,-1,-1,-1,-1],"split_conditions":[5.621E2,5.069E2,1.57E1,7.742E1,5.608684E-2,-4.4912998E-2,2.655993E-2,3.2310866E-2,-4.350553E-2],"split_indices":[3,3,0,2,0,0,0,0,0],"split_type":[0,0,0,0,0,0,0,0,0],"sum_hessian":[6.557806E0,3.2633536E0,3.2944522E0,2.201556E0,1.0617977E0,2.090858E0,1.2035941E0,1.1096451E0,1.091911E0],"tree_param":{"num_deleted":"0","num_feature":"5","num_nodes":"9","size_leaf_vector":"1"}},{"base_weights":[7.44362E-3,4.7633752E-2,-3.297359E-2,-2.7286565E-2,4.9858134E-2,-4.8908796E-2,9.107101E-2,5.9869383E-2,-1.737857E-2],"categories":[],"categories_nodes":[],"categories_segments":[],"categories_sizes":[],"default_left":[0,0,0,0,0,0,0,0,0],"id":74,"left_children":[1,3,-1,5,-1,-1,7,-1,-1],"loss_changes":[4.070037E-2,6.0483716E-2,0E0,9.065843E-2,0E0,0E0,6.268158E-2,0E0,0E0],"parents":[2147483647,0,0,1,1,3,3,6,6],"right_children":[2,4,-1,6,-1,-1,8,-1,-1],"split_conditions":[7.586E2,1.362E1,-3.297359E-2,9.97E-2,4.9858134E-2,-4.8908796E-2,1.87E1,5.9869383E-2,-1.737857E-2],"split_indices":[3,0,0,4,0,0,1,0,0],"split_type":[0,0,0,0,0,0,0,0,0],"sum_hessian":[6.519257E0,5.298735E0,1.2205218E0,3.7186806E0,1.5800545E0,1.5563235E0,2.1623573E0,1.0548835E0,1.1074739E0],"tree_param":{"num_deleted":"0","num_feature":"5","num_nodes":"9","size_leaf_vector":"1"}},{"base_weights":[6.738848E-3,1.0492148E-1,-5.6349147E-2,4.3745182E-2,5.3292774E-3,-1.244915E-1,3.195521E-2,-6.6570655E-2,1.0656695E-2,4.311311E-2,-2.8192347E-2],"categories":[],"categories_nodes":[],"categories_segments":[],"categories_sizes":[],"default_left":[0,0,0,0,0,0,0,0,0,0,0],"id":75,"left_children":[1,3,5,-1,-1,7,9,-1,-1,-1,-1],"loss_changes":[5.2227814E-2,9.081107E-3,3.5284974E-2,0E0,0E0,5.68403E-2,5.6596164E-2,0E0,0E0,0E0,0E0],"parents":[2147483647,0,0,1,1,2,2,5,5,6,6],"right_children":[2,4,6,-1,-1,8,10,-1,-1,-1,-1],"split_conditions":[9.463E-2,2.146E1,1.043E-1,4.3745182E-2,5.3292774E-3,2.068E1,1.139E-1,-6.6570655E-2,1.0656695E-2,4.311311E-2,-2.8192347E-2],"split_indices":[4,1,4,0,0,1,4,0,0,0,0],"split_type":[0,0,0,0,0,0,0,0,0,0,0],"sum_hessian":[6.4773145E0,2.274483E0,4.2028317E0,1.0899985E0,1.1844845E0,2.1409285E0,2.061903E0,1.0903771E0,1.0505513E0,1.0176256E0,1.0442775E0],"tree_param":{"num_deleted":"0","num_feature":"5","num_nodes":"11","size_leaf_vector":"1"}},{"base_weights":[5.7975594E-3,7.668639E-2,-6.478628E-2,-1.7197564E-2,5.022222E-2,2.7004866E-2,-6.987988E-2],"categories":[],"categories_nodes":[],"categories_segments":[],"categories_sizes":[],"default_left":[0,0,0,0,0,0,0],"id":76,"left_children":[1,3,5,-1,-1,-1,-1],"loss_changes":[4.227542E-2,6.039063E-2,1.323253E-1,0E0,0E0,0E0,0E0],"parents":[2147483647,0,0,1,1,2,2],"right_children":[2,4,6,-1,-1,-1,-1],"split_conditions":[8.721E1,1.884E1,1.948E1,-1.7197564E-2,5.022222E-2,2.7004866E-2,-6.987988E-2],"split_indices":[2,1,1,0,0,0,0],"split_type":[0,0,0,0,0,0,0],"sum_hessian":[6.4560623E0,3.1779363E0,3.2781262E0,1.4314852E0,1.7464511E0,1.9487166E0,1.3294095E0],"tree_param":{"num_deleted":"0","num_feature":"5","num_nodes":"7","size_leaf_vector":"1"}},{"base_weights":[2.6793168E-3,7.0300475E-2,-7.139882E-2,1.4481035E-1,-2.1965709E-2,4.635134E-3,-3.8360227E-2,8.152392E-3,6.0616486E-2],"categories":[],"categories_nodes":[],"categories_segments":[],"categories_sizes":[],"default_left":[0,0,0,0,0,0,0,0,0],"id":77,"left_children":[1,3,5,7,-1,-1,-1,-1,-1],"loss_changes":[4.211195E-2,5.738742E-2,2.1738883E-2,1.6163759E-2,0E0,0E0,0E0,0E0,0E0],"parents":[2147483647,0,0,1,1,2,2,3,3],"right_children":[2,4,6,8,-1,-1,-1,-1,-1],"split_conditions":[9.947E-2,6.988E2,4.765E2,5.732E2,-2.1965709E-2,4.635134E-3,-3.8360227E-2,8.152392E-3,6.0616486E-2],"split_indices":[4,3,3,3,0,0,0,0,0],"split_type":[0,0,0,0,0,0,0,0,0],"sum_hessian":[6.4048176E0,3.3749964E0,3.0298212E0,2.2156966E0,1.1592997E0,1.4799824E0,1.5498388E0,1.2080028E0,1.0076939E0],"tree_param":{"num_deleted":"0","num_feature":"5","num_nodes":"9","size_leaf_vector":"1"}},{"base_weights":[3.6817624E-3,3.142974E-2,-3.598391E-2,3.0593107E-2,-9.004884E-2,-9.973746E-3,-4.9502525E-2,-3.983115E-2,2.9580778E-2],"categories":[],"categories_nodes":[],"categories_segments":[],"categories_sizes":[],"default_left":[0,0,0,0,0,0,0,0,0],"id":78,"left_children":[1,-1,3,-1,5,7,-1,-1,-1],"loss_changes":[3.3314362E-2,0E0,5.4206543E-2,0E0,2.7572803E-2,5.8662184E-2,0E0,0E0,0E0],"parents":[2147483647,0,0,2,2,4,4,5,5],"right_children":[2,-1,4,-1,6,8,-1,-1,-1],"split_conditions":[8.947E-2,3.142974E-2,1.658E1,3.0593107E-2,8.721E1,1.181E1,-4.9502525E-2,-3.983115E-2,2.9580778E-2],"split_indices":[4,0,1,0,2,0,0,0,0],"split_type":[0,0,0,0,0,0,0,0,0],"sum_hessian":[6.3684993E0,1.3322277E0,5.0362716E0,1.1684551E0,3.8678162E0,2.4179313E0,1.4498849E0,1.0300938E0,1.3878376E0],"tree_param":{"num_deleted":"0","num_feature":"5","num_nodes":"9","size_leaf_vector":"1"}},{"base_weights":[2.8675764E-3,4.7865912E-2,-2.9969906E-2,-4.4008084E-2,5.0074812E-2,2.8199345E-2,-5.3827852E-2],"categories":[],"categories_nodes":[],"categories_segments":[],"categories_sizes":[],"default_left":[0,0,0,0,0,0,0],"id":79,"left_children":[1,3,-1,5,-1,-1,-1],"loss_changes":[3.8713705E-2,7.055652E-2,0E0,9.261523E-2,0E0,0E0,0E0],"parents":[2147483647,0,0,1,1,3,3],"right_children":[2,4,-1,6,-1,-1,-1],"split_conditions":[6.988E2,1.345E1,-2.9969906E-2,4.767E2,5.0074812E-2,2.8199345E-2,-5.3827852E-2],"split_indices":[3,0,0,3,0,0,0],"split_type":[0,0,0,0,0,0,0],"sum_hessian":[6.3376517E0,4.779221E0,1.5584307E0,3.0532727E0,1.7259485E0,1.6636748E0,1.3895979E0],"tree_param":{"num_deleted":"0","num_feature":"5","num_nodes":"7","size_leaf_vector":"1"}},{"base_weights":[1.2768453E-3,6.451891E-2,-6.2183063E-2,4.3053377E-2,-1.8919818E-2,-4.5269422E-2,2.7045792E-2],"categories":[],"categories_nodes":[],"categories_segments":[],"categories_sizes":[],"default_left":[0,0,0,0,0,0,0],"id":80,"left_children":[1,3,5,-1,-1,-1,-1],"loss_changes":[3.325671E-2,5.077952E-2,6.964019E-2,0E0,0E0,0E0,0E0],"parents":[2147483647,0,0,1,1,2,2],"right_children":[2,4,6,-1,-1,-1,-1],"split_conditions":[5.621E2,1.085E-1,1.57E1,4.3053377E-2,-1.8919818E-2,-4.5269422E-2,2.7045792E-2],"split_indices":[3,4,0,0,0,0,0],"split_type":[0,0,0,0,0,0,0],"sum_hessian":[6.286887E0,3.14049E0,3.146397E0,1.8625135E0,1.2779765E0,1.9943781E0,1.152019E0],"tree_param":{"num_deleted":"0","num_feature":"5","num_nodes":"7","size_leaf_vector":"1"}},{"base_weights":[1.7440399E-3,6.194306E-2,-6.414435E-2,4.7077984E-2,-1.8304834E-2,-3.713392E-2,6.202263E-3],"categories":[],"categories_nodes":[],"categories_segments":[],"categories_sizes":[],"default_left":[0,0,0,0,0,0,0],"id":81,"left_children":[1,3,5,-1,-1,-1,-1],"loss_changes":[3.2750234E-2,5.9795033E-2,2.2564985E-2,0E0,0E0,0E0,0E0],"parents":[2147483647,0,0,1,1,2,2],"right_children":[2,4,6,-1,-1,-1,-1],"split_conditions":[9.947E-2,2.146E1,1.816E1,4.7077984E-2,-1.8304834E-2,-3.713392E-2,6.202263E-3],"split_indices":[4,1,1,0,0,0,0],"split_type":[0,0,0,0,0,0,0],"sum_hessian":[6.255148E0,3.2999883E0,2.95516E0,1.7059363E0,1.5940518E0,1.4654584E0,1.4897015E0],"tree_param":{"num_deleted":"0","num_feature":"5","num_nodes":"7","size_leaf_vector":"1"}},{"base_weights":[9.3765126E-4,4.467107E-2,-3.6327425E-2,-4.148645E-2,4.264146E-2,2.3944894E-2,-4.791687E-2],"categories":[],"categories_nodes":[],"categories_segments":[],"categories_sizes":[],"default_left":[0,0,0,0,0,0,0],"id":82,"left_children":[1,3,-1,5,-1,-1,-1],"loss_changes":[4.4093132E-2,5.6841962E-2,0E0,7.0035495E-2,0E0,0E0,0E0],"parents":[2147483647,0,0,1,1,3,3],"right_children":[2,4,-1,6,-1,-1,-1],"split_conditions":[7.586E2,1.345E1,-3.6327425E-2,4.767E2,4.264146E-2,2.3944894E-2,-4.791687E-2],"split_indices":[3,0,0,3,0,0,0],"split_type":[0,0,0,0,0,0,0],"sum_hessian":[6.24858E0,5.0666857E0,1.1818945E0,2.9942384E0,2.072447E0,1.6383467E0,1.3558917E0],"tree_param":{"num_deleted":"0","num_feature":"5","num_nodes":"7","size_leaf_vector":"1"}},{"base_weights":[-1.8049248E-3,2.9694596E-2,-4.0533267E-2,3.0450882E-2,-9.523044E-2,-1.5689883E-2,-4.9991254E-2,-3.948766E-2,3.1283837E-2],"categories":[],"categories_nodes":[],"categories_segments":[],"categories_sizes":[],"default_left":[0,0,0,0,0,0,0,0,0],"id":83,"left_children":[1,-1,3,-1,5,7,-1,-1,-1],"loss_changes":[3.2140043E-2,0E0,5.5621833E-2,0E0,2.4572276E-2,6.057446E-2,0E0,0E0,0E0],"parents":[2147483647,0,0,2,2,4,4,5,5],"right_children":[2,-1,4,-1,6,8,-1,-1,-1],"split_conditions":[8.947E-2,2.9694596E-2,1.658E1,3.0450882E-2,8.721E1,1.187E1,-4.9991254E-2,-3.948766E-2,3.1283837E-2],"split_indices":[4,0,1,0,2,0,0,0,0],"split_type":[0,0,0,0,0,0,0,0,0],"sum_hessian":[6.2061872E0,1.2909105E0,4.9152765E0,1.1286644E0,3.7866123E0,2.3682907E0,1.4183215E0,1.1549822E0,1.2133085E0],"tree_param":{"num_deleted":"0","num_feature":"5","num_nodes":"9","size_leaf_vector":"1"}},{"base_weights":[-1.0297586E-3,4.5164656E-2,-3.1053023E-2,-3.650748E-2,4.4791788E-2,3.195849E-2,-3.7390884E-2],"categories":[],"categories_nodes":[],"categories_segments":[],"categories_sizes":[],"default_left":[0,0,0,0,0,0,0],"id":84,"left_children":[1,3,-1,5,-1,-1,-1],"loss_changes":[3.8645104E-2,5.344192E-2,0E0,6.326943E-2,0E0,0E0,0E0],"parents":[2147483647,0,0,1,1,3,3],"right_children":[2,4,-1,6,-1,-1,-1],"split_conditions":[6.988E2,1.345E1,-3.1053023E-2,7.742E1,4.4791788E-2,3.195849E-2,-3.7390884E-2],"split_indices":[3,0,0,2,0,0,0],"split_type":[0,0,0,0,0,0,0],"sum_hessian":[6.175746E0,4.642403E0,1.5333426E0,2.9658763E0,1.6765267E0,1.0511109E0,1.9147655E0],"tree_param":{"num_deleted":"0","num_feature":"5","num_nodes":"7","size_leaf_vector":"1"}},{"base_weights":[4.6405743E-4,6.576563E-2,-6.4647935E-2,-1.8199619E-2,4.3312464E-2,-4.481692E-2,2.4608169E-2],"categories":[],"categories_nodes":[],"categories_segments":[],"categories_sizes":[],"default_left":[0,0,0,0,0,0,0],"id":85,"left_children":[1,3,5,-1,-1,-1,-1],"loss_changes":[3.458146E-2,4.9081035E-2,6.291772E-2,0E0,0E0,0E0,0E0],"parents":[2147483647,0,0,1,1,2,2],"right_children":[2,4,6,-1,-1,-1,-1],"split_conditions":[5.621E2,1.187E1,1.57E1,-1.8199619E-2,4.3312464E-2,-4.481692E-2,2.4608169E-2],"split_indices":[3,0,0,0,0,0,0],"split_type":[0,0,0,0,0,0,0],"sum_hessian":[6.1332192E0,3.05714E0,3.0760794E0,1.2595737E0,1.7975663E0,1.9379301E0,1.1381494E0],"tree_param":{"num_deleted":"0","num_feature":"5","num_nodes":"7","size_leaf_vector":"1"}},{"base_weights":[1.0263927E-3,3.959981E-2,-3.171584E-2,-2.7306728E-2,4.8308812E-2,2.9661482E-2,-9.0461604E-2,6.4584245E-3,-4.9878143E-2],"categories":[],"categories_nodes":[],"categories_segments":[],"categories_sizes":[],"default_left":[0,0,0,0,0,0,0,0,0],"id":86,"left_children":[1,3,-1,5,-1,-1,7,-1,-1],"loss_changes":[3.347756E-2,5.2761555E-2,0E0,4.634294E-2,0E0,0E0,3.4562193E-2,0E0,0E0],"parents":[2147483647,0,0,1,1,3,3,6,6],"right_children":[2,4,-1,6,-1,-1,8,-1,-1],"split_conditions":[7.586E2,