{"learner":{"attributes":{"scikit_learn":"{\"_estimator_type\": \"classifier\"}"},"feature_names":["age","sex","cp","trestbps","chol","fbs","restecg","thalach","exang","oldpeak","slope","ca","thal"],"feature_types":["int","int","int","int","int","int","int","int","int","float","int","int","int"],"gradient_booster":{"model":{"cats":{"enc":[],"feature_segments":[],"sorted_idx":[]},"gbtree_model_param":{"num_parallel_tree":"1","num_trees":"300"},"iteration_indptr":[0,1,2,3,4,5,6,7,8,9,10,11,12,13,14,15,16,17,18,19,20,21,22,23,24,25,26,27,28,29,30,31,32,33,34,35,36,37,38,39,40,41,42,43,44,45,46,47,48,49,50,51,52,53,54,55,56,57,58,59,60,61,62,63,64,65,66,67,68,69,70,71,72,73,74,75,76,77,78,79,80,81,82,83,84,85,86,87,88,89,90,91,92,93,94,95,96,97,98,99,100,101,102,103,104,105,106,107,108,109,110,111,112,113,114,115,116,117,118,119,120,121,122,123,124,125,126,127,128,129,130,131,132,133,134,135,136,137,138,139,140,141,142,143,144,145,146,147,148,149,150,151,152,153,154,155,156,157,158,159,160,161,162,163,164,165,166,167,168,169,170,171,172,173,174,175,176,177,178,179,180,181,182,183,184,185,186,187,188,189,190,191,192,193,194,195,196,197,198,199,200,201,202,203,204,205,206,207,208,209,210,211,212,213,214,215,216,217,218,219,220,221,222,223,224,225,226,227,228,229,230,231,232,233,234,235,236,237,238,239,240,241,242,243,244,245,246,247,248,249,250,251,252,253,254,255,256,257,258,259,260,261,262,263,264,265,266,267,268,269,270,271,272,273,274,275,276,277,278,279,280,281,282,283,284,285,286,287,288,289,290,291,292,293,294,295,296,297,298,299,300],"tree_info":[0,0,0,0,0,0,0,0,0,0,0,0,0,0,0,0,0,0,0,0,0,0,0,0,0,0,0,0,0,0,0,0,0,0,0,0,0,0,0,0,0,0,0,0,0,0,0,0,0,0,0,0,0,0,0,0,0,0,0,0,0,0,0,0,0,0,0,0,0,0,0,0,0,0,0,0,0,0,0,0,0,0,0,0,0,0,0,0,0,0,0,0,0,0,0,0,0,0,0,0,0,0,0,0,0,0,0,0,0,0,0,0,0,0,0,0,0,0,0,0,0,0,0,0,0,0,0,0,0,0,0,0,0,0,0,0,0,0,0,0,0,0,0,0,0,0,0,0,0,0,0,0,0,0,0,0,0,0,0,0,0,0,0,0,0,0,0,0,0,0,0,0,0,0,0,0,0,0,0,0,0,0,0,0,0,0,0,0,0,0,0,0,0,0,0,0,0,0,0,0,0,0,0,0,0,0,0,0,0,0,0,0,0,0,0,0,0,0,0,0,0,0,0,0,0,0,0,0,0,0,0,0,0,0,0,0,0,0,0,0,0,0,0,0,0,0,0,0,0,0,0,0,0,0,0,0,0,0,0,0,0,0,0,0,0,0,0,0,0,0,0,0,0,0,0,0,0,0,0,0,0,0,0,0,0,0,0,0,0,0,0,0,0,0,0,0,0,0,0,0],"trees":[{"base_weights":[-2.9850746E-2,-1.1463414E0,1.0289017E0,-4E-2,-1.6034483E0,1.4090909E0,-1.8604651E-1,6.923077E-1,-7.692308E-1,-9.047619E-1,-9.736842E-2,1.8490566E0,7.155963E-1,5.714286E-1,-8.333333E-1,1.0857143E0,-9.52381E-2,6.0000002E-2,-1.1304348E0,-4.6511628E-2,-8.222222E-2,9.483871E-2,-0E0,1.5384616E0,-3.2786883E-2,7.777778E-2,-1.4285715E-1,-1.2222222E0,2.5E-1,8.095238E-2,1.1111111E-2,2.3076924E-2,-3.3333335E-2,-2.3076924E-2,-8.3333336E-2,-7.1428575E-2,2.727273E-2,2.5E-2,8.9999996E-2,2.5E-2,-7.647059E-2,-2.5E-2,5E-2,-6.875E-2,-0E0,-4.0000003E-2,6.0000002E-2],"categories":[],"categories_nodes":[],"categories_segments":[],"categories_sizes":[],"default_left":[0,0,0,0,0,0,0,0,0,0,0,0,0,0,0,0,0,0,0,0,0,0,0,0,0,0,0,0,0,0,0,0,0,0,0,0,0,0,0,0,0,0,0,0,0,0,0],"id":0,"left_children":[1,3,5,7,9,11,13,15,17,19,-1,21,23,25,27,29,31,-1,33,35,-1,-1,-1,37,39,-1,41,43,45,-1,-1,-1,-1,-1,-1,-1,-1,-1,-1,-1,-1,-1,-1,-1,-1,-1,-1],"loss_changes":[1.9917911E2,4.1404594E1,4.0217384E1,1.3883077E1,1.2175049E1,1.8814331E1,1.1017718E1,4.131135E0,1.0603345E1,1.3255003E1,0E0,3.507248E0,1.6831495E1,7.603175E0,5.3611116E0,3.6698418E0,1.9780219E0,0E0,3.355629E0,9.574147E0,0E0,0E0,0E0,2.6307716E0,1.2924783E1,0E0,3.357143E0,1.6805553E0,4.95E0,0E0,0E0,0E0,0E0,0E0,0E0,0E0,0E0,0E0,0E0,0E0,0E0,0E0,0E0,0E0,0E0,0E0,0E0],"parents":[2147483647,0,0,1,1,2,2,3,3,4,4,5,5,6,6,7,7,8,8,9,9,11,11,12,12,13,13,14,14,15,15,16,16,18,18,19,19,23,23,24,24,26,26,27,27,28,28],"right_children":[2,4,6,8,10,12,14,16,18,20,-1,22,24,26,28,30,32,-1,34,36,-1,-1,-1,38,40,-1,42,44,46,-1,-1,-1,-1,-1,-1,-1,-1,-1,-1,-1,-1,-1,-1,-1,-1,-1,-1],"split_conditions":[1E0,6.297077E-1,3E0,3E0,3E0,5.6E1,6.297077E-1,5.9E1,1.12E2,1E0,-9.736842E-2,2.5E0,1E0,2.28E2,3E0,1E0,1E0,6.0000002E-2,2.35E2,1.18E2,-8.222222E-2,9.483871E-2,-0E0,5.9E1,2.46E2,7.777778E-2,2.89E2,2E0,4.6E1,8.095238E-2,1.1111111E-2,2.3076924E-2,-3.3333335E-2,-2.3076924E-2,-8.3333336E-2,-7.1428575E-2,2.727273E-2,2.5E-2,8.9999996E-2,2.5E-2,-7.647059E-2,-2.5E-2,5E-2,-6.875E-2,-0E0,-4.0000003E-2,6.0000002E-2],"split_indices":[2,9,12,12,12,0,9,0,7,8,0,9,1,4,2,1,8,0,4,7,0,0,0,0,4,0,4,10,0,0,0,0,0,0,0,0,0,0,0,0,0,0,0,0,0,0,0],"split_type":[0,0,0,0,0,0,0,0,0,0,0,0,0,0,0,0,0,0,0,0,0,0,0,0,0,0,0,0,0,0,0,0,0,0,0,0,0,0,0,0,0,0,0,0,0,0,0],"sum_hessian":[1.665E2,8.1E1,8.55E1,2.4E1,5.7E1,6.5E1,2.05E1,1.2E1,1.2E1,2E1,3.7E1,3.875E1,2.625E1,9.5E0,1.1E1,7.75E0,4.25E0,1.5E0,1.05E1,9.75E0,1.025E1,3.775E1,1E0,1.2E1,1.425E1,3.5E0,6E0,8E0,3E0,4.25E0,3.5E0,2.25E0,2E0,5.5E0,5E0,2.5E0,7.25E0,3E0,9E0,1.1E1,3.25E0,5E0,1E0,7E0,1E0,1.5E0,1.5E0],"tree_param":{"num_deleted":"0","num_feature":"13","num_nodes":"47","size_leaf_vector":"1"}},{"base_weights":[-5.271223E-3,7.974857E-1,-1.0747206E0,1.4000713E0,-5.0852334E-1,-1.5584918E0,-2.287878E-1,1.5752879E0,3.2864663E-1,-1.2944356E0,5.794264E-1,-4.277963E-1,-8.7764554E-2,3.1864586E-1,-8.849099E-1,1.6770583E0,8.7340474E-2,-6.10873E-2,7.658533E-1,2.3767474E-1,-1.6621265E0,-5.587795E-2,1.0457493E0,-9.9925864E-1,3.4551838E-1,-4.6835932E-1,6.9278145E-1,4.9115866E-2,-1.3140048E0,-1.0930023E-2,8.6306415E-2,-6.304181E-2,6.472267E-2,-3.1079814E-2,5.3489264E-2,5.6233194E-2,-2.2495167E-2,-8.889211E-2,-1.0166105E-2,-2.0390661E-2,7.215505E-2,-7.061326E-2,-1.0472846E-3,5.8143336E-2,-2.617541E-2,3.6434542E-2,-7.228528E-2,7.8084774E-2,-5.8637774E-3,-7.645936E-2,1.0098668E-2],"categories":[],"categories_nodes":[],"categories_segments":[],"categories_sizes":[],"default_left":[0,0,0,0,0,0,0,0,0,0,0,0,0,0,0,0,0,0,0,0,0,0,0,0,0,0,0,0,0,0,0,0,0,0,0,0,0,0,0,0,0,0,0,0,0,0,0,0,0,0,0],"id":1,"left_children":[1,3,5,7,9,11,13,15,17,19,21,23,-1,25,27,29,31,-1,33,35,37,-1,39,41,43,45,47,-1,49,-1,-1,-1,-1,-1,-1,-1,-1,-1,-1,-1,-1,-1,-1,-1,-1,-1,-1,-1,-1,-1,-1],"loss_changes":[1.4744398E2,7.792151E1,2.9778824E1,1.2135345E1,2.7861885E1,9.635185E0,1.0325768E1,8.585388E0,8.213489E0,1.0940231E1,1.2239252E1,3.9874582E0,0E0,5.0295186E0,1.16934395E1,5.3926544E0,9.356411E0,0E0,4.4558387E0,3.2490783E0,2.2079544E0,0E0,7.2252016E0,1.9891953E0,3.6242623E0,7.7751856E0,8.090355E0,0E0,3.8923664E0,0E0,0E0,0E0,0E0,0E0,0E0,0E0,0E0,0E0,0E0,0E0,0E0,0E0,0E0,0E0,0E0,0E0,0E0,0E0,0E0,0E0,0E0],"parents":[2147483647,0,0,1,1,2,2,3,3,4,4,5,5,6,6,7,7,8,8,9,9,10,10,11,11,13,13,14,14,15,15,16,16,18,18,19,19,20,20,22,22,23,23,24,24,25,25,26,26,28,28],"right_children":[2,4,6,8,10,12,14,16,18,20,22,24,-1,26,28,30,32,-1,34,36,38,-1,40,42,44,46,48,-1,50,-1,-1,-1,-1,-1,-1,-1,-1,-1,-1,-1,-1,-1,-1,-1,-1,-1,-1,-1,-1,-1,-1],"split_conditions":[1E0,3E0,2E0,1E0,1.51E2,6E-1,3E0,3.26E2,1.26E2,5E-1,4.2E1,5.8E1,-8.7764554E-2,1.2E2,1.1E2,1.15E2,3.4E2,-6.10873E-2,2E0,1.22E2,3.5E0,-5.587795E-2,1E0,2E-1,2E0,1.12E2,5.5E1,4.9115866E-2,1.49E2,-1.0930023E-2,8.6306415E-2,-6.304181E-2,6.472267E-2,-3.1079814E-2,5.3489264E-2,5.6233194E-2,-2.2495167E-2,-8.889211E-2,-1.0166105E-2,-2.0390661E-2,7.215505E-2,-7.061326E-2,-1.0472846E-3,5.8143336E-2,-2.617541E-2,3.6434542E-2,-7.228528E-2,7.8084774E-2,-5.8637774E-3,-7.645936E-2,1.0098668E-2],"split_indices":[11,12,10,8,7,9,12,4,7,9,0,0,0,3,3,7,4,0,12,3,9,0,10,9,11,3,0,0,3,0,0,0,0,0,0,0,0,0,0,0,0,0,0,0,0,0,0,0,0,0,0],"split_type":[0,0,0,0,0,0,0,0,0,0,0,0,0,0,0,0,0,0,0,0,0,0,0,0,0,0,0,0,0,0,0,0,0,0,0,0,0,0,0,0,0,0,0,0,0,0,0,0,0,0,0],"sum_hessian":[1.6974615E2,9.710835E1,7.2637794E1,6.639982E1,3.070854E1,4.5674927E1,2.6962866E1,5.666308E1,9.736735E0,1.7718946E1,1.2989593E1,7.24175E0,3.8433178E1,1.4979288E1,1.1983578E1,5.2916668E1,3.7464108E0,1.7470456E0,7.9896894E0,3.4977927E0,1.4221155E1,2.4990003E0,1.0490593E1,3.9963558E0,3.245394E0,4.7453856E0,1.0233902E1,1.9983561E0,9.985222E0,1.248033E0,5.1668636E1,1.7487714E0,1.9976394E0,1.2478898E0,6.7418E0,1.2498163E0,2.2479763E0,1.2973379E1,1.2477754E0,2.2464542E0,8.244139E0,2.498157E0,1.4981989E0,1.4981804E0,1.7472137E0,2.247309E0,2.498077E0,4.4898963E0,5.7440057E0,8.736433E0,1.2487887E0],"tree_param":{"num_deleted":"0","num_feature":"13","num_nodes":"51","size_leaf_vector":"1"}},{"base_weights":[-2.743173E-2,-1.0637444E0,9.5798486E-1,-2.5297445E-1,-1.6947812E0,1.49088E0,2.2066936E-1,6.8028456E-1,-1.0712271E0,1.3010678E-3,-8.867056E-2,1.5406364E0,-1.2509125E-2,1.3883533E0,-4.1827562E-1,-4.0021818E-2,9.70577E-1,1.9888462E-1,-1.590526E0,3.318311E-1,1.6053336E0,9.9845566E-2,8.547119E-2,2.6996386E-1,-1.4359512E0,7.4527465E-2,2.4222076E-2,-3.8344353E-2,4.2678304E-2,-7.2509E-3,-8.579525E-2,5.4848958E-2,-3.3170942E-2,8.2061484E-2,8.799E-3,-5.501874E-2,5.7074524E-2,5.8743667E-2,-2.691245E-2,-7.911679E-2,-1.7397119E-2],"categories":[],"categories_nodes":[],"categories_segments":[],"categories_sizes":[],"default_left":[0,0,0,0,0,0,0,0,0,0,0,0,0,0,0,0,0,0,0,0,0,0,0,0,0,0,0,0,0,0,0,0,0,0,0,0,0,0,0,0,0],"id":2,"left_children":[1,3,5,7,9,11,13,15,17,-1,-1,19,-1,21,23,-1,25,27,29,31,33,35,-1,37,39,-1,-1,-1,-1,-1,-1,-1,-1,-1,-1,-1,-1,-1,-1,-1,-1],"loss_changes":[1.7193477E2,4.1550644E1,3.358584E1,2.9049732E1,6.265396E0,4.710846E0,2.847418E1,8.487134E0,1.3606194E1,0E0,0E0,3.2745895E0,0E0,5.3952065E0,1.7850523E1,0E0,3.183116E0,4.9137883E0,2.3633308E0,3.5710711E0,2.0687408E0,5.9390025E0,0E0,1.2126006E1,1.0766926E0,0E0,0E0,0E0,0E0,0E0,0E0,0E0,0E0,0E0,0E0,0E0,0E0,0E0,0E0,0E0,0E0],"parents":[2147483647,0,0,1,1,2,2,3,3,4,4,5,5,6,6,7,7,8,8,11,11,13,13,14,14,16,16,17,17,18,18,19,19,20,20,21,21,23,23,24,24],"right_children":[2,4,6,8,10,12,14,16,18,-1,-1,20,-1,22,24,-1,26,28,30,32,34,36,-1,38,40,-1,-1,-1,-1,-1,-1,-1,-1,-1,-1,-1,-1,-1,-1,-1,-1],"split_conditions":[1E0,1E0,5.7E1,1E0,1.1E2,2.5E0,1E0,4.2E1,6.297077E-1,1.3010678E-3,-8.867056E-2,1.33E2,-1.2509125E-2,5.9E1,2.44E2,-4.0021818E-2,2.35E2,1.44E2,1.12E2,6.297077E-1,1.62E2,2E0,8.547119E-2,1E0,1.72E2,7.4527465E-2,2.4222076E-2,-3.8344353E-2,4.2678304E-2,-7.2509E-3,-8.579525E-2,5.4848958E-2,-3.3170942E-2,8.2061484E-2,8.799E-3,-5.501874E-2,5.7074524E-2,5.8743667E-2,-2.691245E-2,-7.911679E-2,-1.7397119E-2],"split_indices":[2,11,0,8,3,9,1,0,9,0,0,7,0,0,4,0,4,7,3,9,3,2,0,11,3,0,0,0,0,0,0,0,0,0,0,0,0,0,0,0,0],"split_type":[0,0,0,0,0,0,0,0,0,0,0,0,0,0,0,0,0,0,0,0,0,0,0,0,0,0,0,0,0,0,0,0,0,0,0,0,0,0,0,0,0],"sum_hessian":[1.6636758E2,8.1050934E1,8.531665E1,3.6086754E1,4.4964176E1,4.8930244E1,3.6386402E1,1.6937397E1,1.9149355E1,1.9940385E0,4.297014E1,4.768268E1,1.2475665E0,1.2453858E1,2.3932545E1,2.4882107E0,1.4449187E1,5.7363324E0,1.3413024E1,2.7337677E0,4.4948914E1,2.7457387E0,9.708119E0,1.4715433E1,9.217112E0,5.983304E0,8.465883E0,2.2482998E0,3.4880323E0,1.2426803E0,1.2170343E1,1.4877619E0,1.2460059E0,4.370314E1,1.2457731E0,1.2495642E0,1.4961745E0,6.728382E0,7.987051E0,7.7236094E0,1.4935026E0],"tree_param":{"num_deleted":"0","num_feature":"13","num_nodes":"41","size_leaf_vector":"1"}},{"base_weights":[-3.443693E-2,7.117146E-1,-1.0566074E0,1.2528303E0,-4.2273E-1,-1.1053772E-1,-1.4835689E0,1.4279819E0,-1.2719384E-1,-1.2031976E0,4.683647E-1,1.1908861E0,-6.2561667E-1,-1.5890857E0,4.4269834E-2,1.6380104E0,6.245286E-1,6.8634635E-1,-6.7039095E-2,3.9379045E-1,-8.121828E-2,-5.431019E-1,9.1235673E-1,1.0395399E-2,6.8424836E-2,3.9014825E-1,-1.261509E0,-1.6203563E0,-7.2436124E-1,2.5697438E-2,8.5486166E-2,1.4448272E-3,5.8857616E-2,6.6254E-2,-1.6845133E-2,-3.0942796E-2,4.8814423E-2,4.005595E-2,-6.905625E-2,7.437152E-2,1.2254651E-2,-2.3498187E-2,6.870024E-2,-8.2032666E-2,8.5186213E-4,-8.521891E-2,-5.5224217E-2,-4.9284816E-2,-6.9798687E-3],"categories":[],"categories_nodes":[],"categories_segments":[],"categories_sizes":[],"default_left":[0,0,0,0,0,0,0,0,0,0,0,0,0,0,0,0,0,0,0,0,0,0,0,0,0,0,0,0,0,0,0,0,0,0,0,0,0,0,0,0,0,0,0,0,0,0,0,0,0],"id":3,"left_children":[1,3,5,7,9,11,13,15,17,19,21,23,25,27,-1,29,31,33,-1,35,-1,37,39,-1,-1,41,43,45,47,-1,-1,-1,-1,-1,-1,-1,-1,-1,-1,-1,-1,-1,-1,-1,-1,-1,-1,-1,-1],"loss_changes":[1.2950809E2,6.0799984E1,2.8772232E1,1.6310349E1,2.31351E1,1.6401783E1,1.3725082E1,8.982643E0,9.246453E0,1.246513E1,7.623972E0,9.3187714E-1,1.1724205E1,1.1166382E-1,0E0,2.860733E0,4.54258E0,4.1785207E0,0E0,3.2432332E0,0E0,7.2672935E0,4.011569E0,0E0,0E0,6.9574842E0,5.326586E0,7.1006775E-2,3.9229417E-1,0E0,0E0,0E0,0E0,0E0,0E0,0E0,0E0,0E0,0E0,0E0,0E0,0E0,0E0,0E0,0E0,0E0,0E0,0E0,0E0],"parents":[2147483647,0,0,1,1,2,2,3,3,4,4,5,5,6,6,7,7,8,8,9,9,10,10,11,11,12,12,13,13,15,15,16,16,17,17,19,19,21,21,22,22,25,25,26,26,27,27,28,28],"right_children":[2,4,6,8,10,12,14,16,18,20,22,24,26,28,-1,30,32,34,-1,36,-1,38,40,-1,-1,42,44,46,48,-1,-1,-1,-1,-1,-1,-1,-1,-1,-1,-1,-1,-1,-1,-1,-1,-1,-1,-1,-1],"split_conditions":[3E0,1E0,6.297077E-1,1.8E0,2E0,1.22E2,1.74E2,5.9E1,2.52E2,6E-1,1.2E2,4.4E1,2.28E2,4.1204567E0,4.4269834E-2,2E0,1E-1,2.6650517E0,-6.7039095E-2,2.37E2,-8.121828E-2,1.12E2,5.5E1,1.0395399E-2,6.8424836E-2,1E-1,5.9E1,1.51E2,5.6E1,2.5697438E-2,8.5486166E-2,1.4448272E-3,5.8857616E-2,6.6254E-2,-1.6845133E-2,-3.0942796E-2,4.8814423E-2,4.005595E-2,-6.905625E-2,7.437152E-2,1.2254651E-2,-2.3498187E-2,6.870024E-2,-8.2032666E-2,8.5186213E-4,-8.521891E-2,-5.5224217E-2,-4.9284816E-2,-6.9798687E-3],"split_indices":[12,11,9,9,10,3,7,0,4,9,3,0,4,9,0,12,9,9,0,4,0,3,0,0,0,9,0,7,0,0,0,0,0,0,0,0,0,0,0,0,0,0,0,0,0,0,0,0,0],"split_type":[0,0,0,0,0,0,0,0,0,0,0,0,0,0,0,0,0,0,0,0,0,0,0,0,0,0,0,0,0,0,0,0,0,0,0,0,0,0,0,0,0,0,0,0,0,0,0,0,0],"sum_hessian":[1.6781746E2,9.718169E1,7.063578E1,6.5726585E1,3.1455101E1,2.2356562E1,4.827922E1,5.8293293E1,7.4332933E0,1.6581717E1,1.4873384E1,5.9672832E0,1.6389277E1,4.6535667E1,1.7435533E0,4.5389446E1,1.2903845E1,4.710209E0,2.723084E0,3.473996E0,1.3107719E1,4.4690757E0,1.0404309E1,1.2453773E0,4.721906E0,6.4586997E0,9.930577E0,4.4068207E1,2.46746E0,3.2118685E0,4.2177578E1,6.7167015E0,6.187144E0,2.7183714E0,1.9918377E0,1.2458044E0,2.2281916E0,1.7331208E0,2.7359548E0,4.9280105E0,5.4762983E0,3.7247527E0,2.733947E0,7.440831E0,2.4897466E0,3.5914772E1,8.153435E0,1.2314742E0,1.2359858E0],"tree_param":{"num_deleted":"0","num_feature":"13","num_nodes":"49","size_leaf_vector":"1"}},{"base_weights":[1.0248319E-2,6.985499E-1,-8.8031536E-1,1.1347601E0,-6.4066315E-1,-2.356642E-2,-1.3045009E0,1.4062169E0,2.1500517E-1,1.12478405E-1,-7.54443E-2,-6.296127E-1,5.508856E-1,-3.0023852E-1,-1.4106297E0,1.4502915E0,-1.3239219E-2,-8.083063E-1,8.910598E-1,7.237656E-1,-6.8216413E-1,-1.0743109E0,5.119652E-1,6.662353E-2,4.3496866E-2,4.34927E-2,-5.5108637E-2,-1.4644995E0,1.2153748E-2,8.1589155E-2,4.5781266E-2,7.534377E-4,-5.555853E-2,1.2396079E-3,5.1305838E-2,-2.3421763E-2,6.6263914E-2,-6.4819686E-2,5.397174E-3,-6.82758E-2,-2.6786124E-2,5.682696E-2,-1.885437E-2,-4.49015E-2,6.8118796E-2,-7.81497E-2,-1.3551648E-2],"categories":[],"categories_nodes":[],"categories_segments":[],"categories_sizes":[],"default_left":[0,0,0,0,0,0,0,0,0,0,0,0,0,0,0,0,0,0,0,0,0,0,0,0,0,0,0,0,0,0,0,0,0,0,0,0,0,0,0,0,0,0,0,0,0,0,0],"id":4,"left_children":[1,3,5,7,9,11,13,15,17,19,-1,21,23,25,27,29,-1,31,33,35,37,39,41,-1,43,-1,-1,45,-1,-1,-1,-1,-1,-1,-1,-1,-1,-1,-1,-1,-1,-1,-1,-1,-1,-1,-1],"loss_changes":[1.0163137E2,5.5354435E1,2.6239124E1,1.7398834E1,1.5611018E1,9.035075E0,4.727455E0,4.4023285E0,1.2714068E1,7.088263E0,0E0,6.9518847E0,5.234314E0,6.4851522E0,4.2257843E0,3.6792297E0,0E0,1.8674221E0,1.2516088E0,6.47138E0,3.2543836E0,7.424536E-1,2.7677011E0,0E0,1.2555474E1,0E0,0E0,4.5383377E0,0E0,0E0,0E0,0E0,0E0,0E0,0E0,0E0,0E0,0E0,0E0,0E0,0E0,0E0,0E0,0E0,0E0,0E0,0E0],"parents":[2147483647,0,0,1,1,2,2,3,3,4,4,5,5,6,6,7,7,8,8,9,9,11,11,12,12,13,13,14,14,15,15,17,17,18,18,19,19,20,20,21,21,22,22,24,24,27,27],"right_children":[2,4,6,8,10,12,14,16,18,20,-1,22,24,26,28,30,-1,32,34,36,38,40,42,-1,44,-1,-1,46,-1,-1,-1,-1,-1,-1,-1,-1,-1,-1,-1,-1,-1,-1,-1,-1,-1,-1,-1],"split_conditions":[1E0,1E0,6E-1,3E0,1.5E0,1E0,5.3E1,2.6650517E0,1.51E2,2.44E2,-7.54443E-2,5.9E1,1.55E2,2E0,4.09E2,5.8E1,-1.3239219E-2,5E-1,4.3E1,1.37E2,1.47E2,2.57E2,1E0,6.662353E-2,1.64E2,4.34927E-2,-5.5108637E-2,6.8E1,1.2153748E-2,8.1589155E-2,4.5781266E-2,7.534377E-4,-5.555853E-2,1.2396079E-3,5.1305838E-2,-2.3421763E-2,6.6263914E-2,-6.4819686E-2,5.397174E-3,-6.82758E-2,-2.6786124E-2,5.682696E-2,-1.885437E-2,-4.49015E-2,6.8118796E-2,-7.81497E-2,-1.3551648E-2],"split_indices":[11,8,9,12,9,6,0,9,7,4,0,0,7,11,4,0,0,9,0,7,7,4,8,0,7,0,0,0,0,0,0,0,0,0,0,0,0,0,0,0,0,0,0,0,0,0,0],"split_type":[0,0,0,0,0,0,0,0,0,0,0,0,0,0,0,0,0,0,0,0,0,0,0,0,0,0,0,0,0,0,0,0,0,0,0,0,0,0,0,0,0,0,0,0,0,0,0],"sum_hessian":[1.637966E2,9.251158E1,7.128503E1,6.989723E1,2.261435E1,2.3955814E1,4.732921E1,5.3560474E1,1.6336758E1,1.2575854E1,1.0038496E1,1.1610611E1,1.2345204E1,4.8895917E0,4.2439617E1,5.2312744E1,1.2477283E0,6.421388E0,9.91537E0,7.1583843E0,5.41747E0,8.398086E0,3.212525E0,4.2194314E0,8.125772E0,1.9539343E0,2.9356573E0,4.1211555E1,1.2280605E0,3.752349E1,1.4789255E1,1.9823537E0,4.4390345E0,1.4970055E0,8.418365E0,2.4747188E0,4.6836653E0,2.6874585E0,2.7300115E0,4.454343E0,3.943743E0,1.7234219E0,1.4891031E0,4.9273276E0,3.1984453E0,3.778372E1,3.4278383E0],"tree_param":{"num_deleted":"0","num_feature":"13","num_nodes":"47","size_leaf_vector":"1"}},{"base_weights":[4.1795154E-3,-8.7205744E-1,8.3757067E-1,-1.5474696E-1,-1.4463497E0,1.2651962E0,2.0883283E-1,5.858429E-1,-1.1629212E0,8.9114765E-3,-1.5155768E0,1.3462349E0,-5.3811695E-2,1.1107333E0,-3.272347E-1,-5.880771E-2,7.924267E-1,-2.2024228E-1,-7.674792E-2,-8.031478E-2,-9.587185E-1,4.4023502E-1,1.4580755E0,-6.096714E-2,7.989217E-2,-8.647675E-2,-1.0990604E0,-2.1624275E-2,5.6693174E-2,-6.2073916E-2,3.2897335E-2,-7.202463E-2,1.4567583E-2,-2.342829E-2,4.858322E-2,7.5697E-2,-1.2341197E-2,5.4455914E-2,-5.023352E-2,-1.858816E-2,3.423315E-2,-6.764428E-2,-6.6817636E-3],"categories":[],"categories_nodes":[],"categories_segments":[],"categories_sizes":[],"default_left":[0,0,0,0,0,0,0,0,0,0,0,0,0,0,0,0,0,0,0,0,0,0,0,0,0,0,0,0,0,0,0,0,0,0,0,0,0,0,0,0,0,0,0],"id":5,"left_children":[1,3,5,7,9,11,13,15,17,-1,19,21,-1,23,25,-1,27,29,-1,-1,31,33,35,37,-1,39,41,-1,-1,-1,-1,-1,-1,-1,-1,-1,-1,-1,-1,-1,-1,-1,-1],"loss_changes":[1.2143844E2,3.3171513E1,2.2651104E1,2.8430437E1,5.3200226E0,1.1036842E1,1.7623487E1,8.973129E0,5.299345E0,0E0,6.4095306E-1,4.351967E0,0E0,7.823162E0,4.2092505E0,0E0,9.009809E0,5.9433203E0,0E0,0E0,5.5559464E0,3.762571E0,4.5106964E0,6.4537787E0,0E0,4.3775425E0,1.1478786E0,0E0,0E0,0E0,0E0,0E0,0E0,0E0,0E0,0E0,0E0,0E0,0E0,0E0,0E0,0E0,0E0],"parents":[2147483647,0,0,1,1,2,2,3,3,4,4,5,5,6,6,7,7,8,8,10,10,11,11,13,13,14,14,16,16,17,17,20,20,21,21,22,22,23,23,25,25,26,26],"right_children":[2,4,6,8,10,12,14,16,18,-1,20,22,-1,24,26,-1,28,30,-1,-1,32,34,36,38,-1,40,42,-1,-1,-1,-1,-1,-1,-1,-1,-1,-1,-1,-1,-1,-1,-1,-1],"split_conditions":[1E0,1E0,5.7E1,3E0,1.1E2,3.6E0,1E0,1.18E2,6E-1,8.9114765E-3,6.4E1,1.43E2,-5.3811695E-2,6.3E1,1.9E0,-5.880771E-2,2E0,4.2E1,-7.674792E-2,-8.031478E-2,1E0,1.22E2,1.62E2,1E0,7.989217E-2,1E0,3E0,-2.1624275E-2,5.6693174E-2,-6.2073916E-2,3.2897335E-2,-7.202463E-2,1.4567583E-2,-2.342829E-2,4.858322E-2,7.5697E-2,-1.2341197E-2,5.4455914E-2,-5.023352E-2,-1.858816E-2,3.423315E-2,-6.764428E-2,-6.6817636E-3],"split_indices":[2,11,0,12,3,9,1,7,9,0,0,7,0,0,9,0,12,0,0,0,6,3,3,11,0,5,2,0,0,0,0,0,0,0,0,0,0,0,0,0,0,0,0],"split_type":[0,0,0,0,0,0,0,0,0,0,0,0,0,0,0,0,0,0,0,0,0,0,0,0,0,0,0,0,0,0,0,0,0,0,0,0,0,0,0,0,0,0,0],"sum_hessian":[1.6429729E2,8.006726E1,8.423003E1,3.6165184E1,4.3902073E1,4.953044E1,3.4699585E1,2.1090973E1,1.507421E1,1.7299557E0,4.217212E1,4.828432E1,1.246121E0,1.2536201E1,2.2163383E1,1.7207737E0,1.93702E1,4.7161856E0,1.0358025E1,3.4643696E1,7.5284247E0,5.8478937E0,4.2436428E1,3.938155E0,8.598045E0,1.7741322E1,4.4220624E0,4.1642375E0,1.5205961E1,1.9892402E0,2.7269454E0,5.324172E0,2.2042527E0,2.201458E0,3.6464357E0,4.1198486E1,1.2379417E0,1.7055373E0,2.2326176E0,1.3328347E1,4.412974E0,3.1836858E0,1.2383765E0],"tree_param":{"num_deleted":"0","num_feature":"13","num_nodes":"43","size_leaf_vector":"1"}},{"base_weights":[-7.923048E-3,-8.315397E-1,7.5353146E-1,-5.640656E-2,-1.4216775E0,1.0904391E0,-1.1389603E-2,8.0611473E-1,-1.0293608E0,-9.0451986E-2,-1.5086459E0,1.3775799E0,2.1037947E-1,8.0013424E-1,-4.4942912E-1,1.091628E0,-2.0655963E-1,2.042727E-2,-7.433791E-2,5.0964214E-2,-5.3056188E-2,-6.2729967E-1,-7.853876E-2,1.4499513E0,-1.1650322E-2,-7.1301395E-1,7.5258994E-1,2.3597202E-1,6.717762E-2,-7.158266E-1,5.6565937E-2,6.918175E-2,1.979984E-3,-4.2595647E-2,4.7962874E-2,3.182583E-2,-5.4838505E-2,1.4769648E-2,-5.4212667E-2,7.417072E-2,1.0553378E-2,-5.0412416E-2,6.789718E-3,5.897019E-2,7.011499E-4,6.0869772E-2,-4.0235564E-2,-5.12555E-3,-6.3654214E-2],"categories":[],"categories_nodes":[],"categories_segments":[],"categories_sizes":[],"default_left":[0,0,0,0,0,0,0,0,0,0,0,0,0,0,0,0,0,0,0,0,0,0,0,0,0,0,0,0,0,0,0,0,0,0,0,0,0,0,0,0,0,0,0,0,0,0,0,0,0],"id":6,"left_children":[1,3,5,7,9,11,13,15,17,19,21,23,25,27,29,31,33,35,-1,-1,-1,37,-1,39,-1,41,43,45,-1,47,-1,-1,-1,-1,-1,-1,-1,-1,-1,-1,-1,-1,-1,-1,-1,-1,-1,-1,-1],"loss_changes":[9.929253E1,3.470916E1,2.1214584E1,2.929121E1,4.8578033E0,1.4145988E1,9.654012E0,5.5856113E0,7.8938866E0,5.077029E0,1.2284241E0,5.337387E0,8.163721E0,2.6031876E0,8.230082E0,4.436636E0,4.517434E0,4.7978334E0,0E0,0E0,0E0,2.1447382E0,0E0,1.3943558E0,0E0,1.677917E0,3.1623683E0,6.9918337E0,0E0,5.232623E0,0E0,0E0,0E0,0E0,0E0,0E0,0E0,0E0,0E0,0E0,0E0,0E0,0E0,0E0,0E0,0E0,0E0,0E0,0E0],"parents":[2147483647,0,0,1,1,2,2,3,3,4,4,5,5,6,6,7,7,8,8,9,9,10,10,11,11,12,12,13,13,14,14,15,15,16,16,17,17,21,21,23,23,25,25,26,26,27,27,29,29],"right_children":[2,4,6,8,10,12,14,16,18,20,22,24,26,28,30,32,34,36,-1,-1,-1,38,-1,40,-1,42,44,46,-1,48,-1,-1,-1,-1,-1,-1,-1,-1,-1,-1,-1,-1,-1,-1,-1,-1,-1,-1,-1],"split_conditions":[1E0,1E0,1E0,3E0,1.1E2,3E0,1E0,3.04E2,6E-1,2.34E2,1.06E2,3.26E2,1.51E2,1.38E2,4E0,1E0,3.35E2,2.35E2,-7.433791E-2,5.0964214E-2,-5.3056188E-2,1.1E0,-7.853876E-2,1.56E2,-1.1650322E-2,1.8E0,8.5824585E-1,1.22E2,6.717762E-2,1.32E2,5.6565937E-2,6.918175E-2,1.979984E-3,-4.2595647E-2,4.7962874E-2,3.182583E-2,-5.4838505E-2,1.4769648E-2,-5.4212667E-2,7.417072E-2,1.0553378E-2,-5.0412416E-2,6.789718E-3,5.897019E-2,7.011499E-4,6.0869772E-2,-4.0235564E-2,-5.12555E-3,-6.3654214E-2],"split_indices":[2,11,11,12,3,12,1,4,9,4,7,4,7,3,11,8,4,4,0,0,0,9,0,3,0,9,9,3,0,3,0,0,0,0,0,0,0,0,0,0,0,0,0,0,0,0,0,0,0],"split_type":[0,0,0,0,0,0,0,0,0,0,0,0,0,0,0,0,0,0,0,0,0,0,0,0,0,0,0,0,0,0,0,0,0,0,0,0,0,0,0,0,0,0,0,0,0,0,0,0,0],"sum_hessian":[1.5632515E2,7.505303E1,8.127211E1,3.2915207E1,4.213783E1,5.6125996E1,2.5146114E1,1.7538685E1,1.537652E1,2.709136E0,3.942869E1,4.1892292E1,1.4233704E1,8.525296E0,1.662082E1,1.3620545E1,3.9181392E0,4.9563575E0,1.0420163E1,1.2406552E0,1.4684807E0,3.3271756E0,3.6101517E1,4.0186268E1,1.7060246E0,5.1493177E0,9.084386E0,4.8864994E0,3.6387966E0,1.4691993E1,1.9288263E0,1.0414601E1,3.205944E0,2.69535E0,1.2227893E0,3.4719648E0,1.4843928E0,1.2190992E0,2.1080763E0,3.893717E1,1.2491003E0,3.6811073E0,1.4682102E0,5.3790064E0,3.70538E0,2.4274616E0,2.459038E0,7.5578303E0,7.134162E0],"tree_param":{"num_deleted":"0","num_feature":"13","num_nodes":"49","size_leaf_vector":"1"}},{"base_weights":[2.5268788E-2,6.413924E-1,-8.603338E-1,1.0931411E0,-3.0971852E-1,5.6744065E-2,-9.927657E-1,1.2417272E0,5.484388E-2,-1.0133617E0,3.7856612E-1,-5.261485E-1,-1.4069611E0,1.4612209E0,4.3698797E-1,6.8941796E-1,-6.147198E-2,6.262551E-2,-1.3349729E0,1.1769006E0,-2.8461832E-1,-2.55485E-2,-9.7882307E-1,-8.136099E-1,-7.4531704E-2,3.1611454E-2,7.5426966E-2,-1.834399E-2,3.7191637E-2,6.4439386E-2,-1.2933306E-2,3.5387326E-2,-4.7928695E-2,-7.406012E-2,9.2687877E-4,7.3791765E-2,-1.12241E-2,2.5934739E-2,-6.990812E-2,-3.519644E-2,2.4800267E-2,-7.267269E-2,-1.2981365E-2,-5.826785E-2,-1.2540579E-2],"categories":[],"categories_nodes":[],"categories_segments":[],"categories_sizes":[],"default_left":[0,0,0,0,0,0,0,0,0,0,0,0,0,0,0,0,0,0,0,0,0,0,0,0,0,0,0,0,0,0,0,0,0,0,0,0,0,0,0,0,0,0,0,0,0],"id":7,"left_children":[1,3,5,7,9,-1,11,13,15,17,19,21,23,25,27,29,-1,31,33,35,37,39,41,43,-1,-1,-1,-1,-1,-1,-1,-1,-1,-1,-1,-1,-1,-1,-1,-1,-1,-1,-1,-1,-1],"loss_changes":[8.8986946E1,4.1651848E1,1.8809761E1,1.0023193E1,1.5756641E1,0E0,1.1492008E1,9.460663E0,8.373831E0,5.6093254E0,9.216008E0,7.081317E0,4.2217255E-1,7.916794E-1,3.6470888E0,4.2097754E0,0E0,3.7284608E0,2.4694939E0,3.601534E0,9.641833E0,5.981208E0,5.2348843E0,9.492841E-1,0E0,0E0,0E0,0E0,0E0,0E0,0E0,0E0,0E0,0E0,0E0,0E0,0E0,0E0,0E0,0E0,0E0,0E0,0E0,0E0,0E0],"parents":[2147483647,0,0,1,1,2,2,3,3,4,4,6,6,7,7,8,8,9,9,10,10,11,11,12,12,13,13,14,14,15,15,17,17,18,18,19,19,20,20,21,21,22,22,23,23],"right_children":[2,4,6,8,10,-1,12,14,16,18,20,22,24,26,28,30,-1,32,34,36,38,40,42,44,-1,-1,-1,-1,-1,-1,-1,-1,-1,-1,-1,-1,-1,-1,-1,-1,-1,-1,-1,-1,-1],"split_conditions":[3E0,1E0,1.1E2,1.8E0,2E0,5.6744065E-2,1E0,5.9E1,2.52E2,6E-1,1E0,1E0,3E-1,2E0,1.32E2,2.6650517E0,-6.147198E-2,1E0,3E2,3.09E2,5.4E1,5.1E1,1E0,5.3E1,-7.4531704E-2,3.1611454E-2,7.5426966E-2,-1.834399E-2,3.7191637E-2,6.4439386E-2,-1.2933306E-2,3.5387326E-2,-4.7928695E-2,-7.406012E-2,9.2687877E-4,7.3791765E-2,-1.12241E-2,2.5934739E-2,-6.990812E-2,-3.519644E-2,2.4800267E-2,-7.267269E-2,-1.2981365E-2,-5.826785E-2,-1.2540579E-2],"split_indices":[12,11,3,9,10,0,8,0,4,9,1,11,9,12,3,9,0,8,4,4,0,0,6,0,0,0,0,0,0,0,0,0,0,0,0,0,0,0,0,0,0,0,0,0,0],"split_type":[0,0,0,0,0,0,0,0,0,0,0,0,0,0,0,0,0,0,0,0,0,0,0,0,0,0,0,0,0,0,0,0,0,0,0,0,0,0,0,0,0,0,0,0,0],"sum_hessian":[1.6107578E2,9.5152725E1,6.592306E1,6.441041E1,3.0742311E1,3.6321182E0,6.2290936E1,5.617546E1,8.234947E0,1.4968005E1,1.5774306E1,3.0359423E1,3.1931515E1,4.3496082E1,1.2679379E1,5.8216267E0,2.4133205E0,3.6297002E0,1.1338305E1,6.8063145E0,8.967992E0,1.4918222E1,1.54412E1,5.271732E0,2.6659782E1,3.1241434E0,4.037194E1,3.4487464E0,9.230633E0,3.3465865E0,2.4750402E0,2.4125617E0,1.2171388E0,1.0147641E1,1.1906638E0,5.5659013E0,1.2404133E0,5.520027E0,3.4479647E0,6.332248E0,8.585974E0,8.687183E0,6.754017E0,2.5852876E0,2.6864443E0],"tree_param":{"num_deleted":"0","num_feature":"13","num_nodes":"45","size_leaf_vector":"1"}},{"base_weights":[-1.4229658E-2,5.903232E-1,-8.312209E-1,1.0300696E0,-2.7525058E-1,-4.958824E-2,-1.205749E0,1.1821619E0,3.1578105E-2,6.227852E-1,-8.5130906E-1,1.085729E0,-5.129557E-1,-1.2865161E0,3.702282E-2,1.404324E0,4.619978E-1,5.783332E-1,-5.9497427E-2,1.1371886E0,-1.3587339E-1,1.8191594E-1,-7.5245984E-2,9.511343E-3,6.216454E-2,5.245316E-1,-1.2885104E0,-7.447147E-2,-8.2784206E-1,2.4228087E-2,7.2792985E-2,-8.339082E-3,4.8573405E-2,-5.019767E-2,5.43363E-2,7.063898E-2,3.4561467E-3,-5.614583E-2,3.7268527E-2,-6.3820586E-2,6.70852E-2,-1.3943045E-2,6.696346E-2,-7.1528785E-2,-7.163536E-3,-6.545005E-2,-2.078766E-2],"categories":[],"categories_nodes":[],"categories_segments":[],"categories_sizes":[],"default_left":[0,0,0,0,0,0,0,0,0,0,0,0,0,0,0,0,0,0,0,0,0,0,0,0,0,0,0,0,0,0,0,0,0,0,0,0,0,0,0,0,0,0,0,0,0,0,0],"id":8,"left_children":[1,3,5,7,9,11,13,15,17,19,21,23,25,27,-1,29,31,33,-1,35,37,39,-1,-1,-1,41,43,-1,45,-1,-1,-1,-1,-1,-1,-1,-1,-1,-1,-1,-1,-1,-1,-1,-1,-1,-1],"loss_changes":[7.968849E1,3.558329E1,2.0024624E1,9.333771E0,1.7101004E1,1.2797356E1,8.23674E0,7.914566E0,6.8222294E0,5.2650127E0,1.3737589E1,7.6032066E-1,1.4517779E1,2.9420319E0,0E0,1.2102127E0,4.6817245E0,6.7360725E0,0E0,2.2308226E0,6.216541E0,1.6287266E1,0E0,0E0,0E0,5.6553698E0,1.4437351E0,0E0,2.6301994E0,0E0,0E0,0E0,0E0,0E0,0E0,0E0,0E0,0E0,0E0,0E0,0E0,0E0,0E0,0E0,0E0,0E0,0E0],"parents":[2147483647,0,0,1,1,2,2,3,3,4,4,5,5,6,6,7,7,8,8,9,9,10,10,11,11,12,12,13,13,15,15,16,16,17,17,19,19,20,20,21,21,25,25,26,26,28,28],"right_children":[2,4,6,8,10,12,14,16,18,20,22,24,26,28,-1,30,32,34,-1,36,38,40,-1,-1,-1,42,44,-1,46,-1,-1,-1,-1,-1,-1,-1,-1,-1,-1,-1,-1,-1,-1,-1,-1,-1,-1],"split_conditions":[3E0,1E0,6.297077E-1,1.8E0,1E0,1.22E2,1.74E2,5.9E1,2.52E2,2E0,5.5E1,4.4E1,2.28E2,1.45E2,3.702282E-2,2E0,1E-1,1.86E2,-5.9497427E-2,1.64E2,6.3E1,1.23E2,-7.5245984E-2,9.511343E-3,6.216454E-2,1E-1,6E1,-7.447147E-2,2.31E2,2.4228087E-2,7.2792985E-2,-8.339082E-3,4.8573405E-2,-5.019767E-2,5.43363E-2,7.063898E-2,3.4561467E-3,-5.614583E-2,3.7268527E-2,-6.3820586E-2,6.70852E-2,-1.3943045E-2,6.696346E-2,-7.1528785E-2,-7.163536E-3,-6.545005E-2,-2.078766E-2],"split_indices":[12,11,9,9,1,3,7,0,4,11,0,0,4,7,0,12,9,4,0,7,0,3,0,0,0,9,0,0,4,0,0,0,0,0,0,0,0,0,0,0,0,0,0,0,0,0,0],"split_type":[0,0,0,0,0,0,0,0,0,0,0,0,0,0,0,0,0,0,0,0,0,0,0,0,0,0,0,0,0,0,0,0,0,0,0,0,0,0,0,0,0,0,0,0,0,0,0],"sum_hessian":[1.5934723E2,9.1739655E1,6.760758E1,6.070767E1,3.1031982E1,2.2267715E1,4.5339867E1,5.2523266E1,8.184404E0,1.209523E1,1.8936752E1,6.064844E0,1.6202871E1,4.3858704E1,1.4811625E0,3.9414387E1,1.3108878E1,6.017515E0,2.1668897E0,6.910599E0,5.184631E0,7.617195E0,1.1319557E1,1.2376989E0,4.827145E0,7.0694647E0,9.133407E0,2.8848934E1,1.5009771E1,2.64321E0,3.6771175E1,6.168482E0,6.9403963E0,1.2262523E0,4.7912626E0,5.2366505E0,1.673949E0,2.31616E0,2.868471E0,3.3297641E0,4.287431E0,3.890685E0,3.1787796E0,7.903802E0,1.229604E0,5.920471E0,9.0893E0],"tree_param":{"num_deleted":"0","num_feature":"13","num_nodes":"47","size_leaf_vector":"1"}},{"base_weights":[-6.8972306E-3,5.4950017E-1,-7.9580146E-1,8.5026985E-1,-4.9350107E-1,5.2606978E-2,-9.197481E-1,1.0378145E0,-2.6683682E-1,-8.575354E-1,6.884462E-1,-5.3473693E-1,-1.2750553E0,1.1383413E0,8.51359E-3,3.587552E-1,-5.5349376E-2,-1.4206688E-1,-7.313833E-2,1.1309064E-1,5.7818193E-2,-6.4029396E-2,-2.5930497E-1,-3.873621E-1,-7.15649E-2,6.1634123E-2,2.6658466E-3,-4.3869954E-2,5.5739082E-2,-1.70011E-2,4.884307E-2,-3.825323E-2,2.7713988E-2,-3.22578E-2,4.4684533E-2,-3.2740016E-2,1.5502957E-2,5.8595814E-2,-5.8077674E-2],"categories":[],"categories_nodes":[],"categories_segments":[],"categories_sizes":[],"default_left":[0,0,0,0,0,0,0,0,0,0,0,0,0,0,0,0,0,0,0,0,0,0,0,0,0,0,0,0,0,0,0,0,0,0,0,0,0,0,0],"id":9,"left_children":[1,3,5,7,9,-1,11,13,15,17,19,21,23,25,27,29,-1,31,-1,33,-1,-1,35,37,-1,-1,-1,-1,-1,-1,-1,-1,-1,-1,-1,-1,-1,-1,-1],"loss_changes":[6.873562E1,2.9228765E1,1.5800983E1,1.5287678E1,9.706871E0,0E0,7.693447E0,6.359337E0,6.2285247E0,6.999467E0,1.3617301E0,6.0580845E0,3.7614822E0,5.6736145E0,7.333024E0,3.405142E0,0E0,4.2134857E0,0E0,2.7043207E0,0E0,0E0,5.6008096E0,8.638584E0,0E0,0E0,0E0,0E0,0E0,0E0,0E0,0E0,0E0,0E0,0E0,0E0,0E0,0E0,0E0],"parents":[2147483647,0,0,1,1,2,2,3,3,4,4,6,6,7,7,8,8,9,9,10,10,11,11,12,12,13,13,14,14,15,15,17,17,19,19,22,22,23,23],"right_children":[2,4,6,8,10,-1,12,14,16,18,20,22,24,26,28,30,-1,32,-1,34,-1,-1,36,38,-1,-1,-1,-1,-1,-1,-1,-1,-1,-1,-1,-1,-1,-1,-1],"split_conditions":[3E0,1E0,1.1E2,1.8E0,2E0,5.2606978E-2,1E0,3.19E2,2.52E2,2.44E2,1.26E2,1.42E2,1.12E2,1.54E2,1E-1,1.48E2,-5.5349376E-2,2.07E2,-7.313833E-2,2E-1,5.7818193E-2,-6.4029396E-2,1E0,3E-1,-7.15649E-2,6.1634123E-2,2.6658466E-3,-4.3869954E-2,5.5739082E-2,-1.70011E-2,4.884307E-2,-3.825323E-2,2.7713988E-2,-3.22578E-2,4.4684533E-2,-3.2740016E-2,1.5502957E-2,5.8595814E-2,-5.8077674E-2],"split_indices":[12,8,3,9,10,0,8,4,4,4,3,7,7,3,9,7,0,4,0,9,0,0,6,9,0,0,0,0,0,0,0,0,0,0,0,0,0,0,0],"split_type":[0,0,0,0,0,0,0,0,0,0,0,0,0,0,0,0,0,0,0,0,0,0,0,0,0,0,0,0,0,0,0,0,0,0,0,0,0,0,0],"sum_hessian":[1.545968E2,9.083574E1,6.376106E1,7.064785E1,2.0187895E1,3.537108E0,6.022395E1,6.0552944E1,1.0094903E1,1.5644066E1,4.543829E0,3.0106028E1,3.0117924E1,5.5068714E1,5.4842315E0,6.11474E0,3.9801636E0,7.7349706E0,7.9090953E0,2.5948582E0,1.9489708E0,7.1351485E0,2.2970879E1,5.0283804E0,2.5089544E1,5.053839E1,4.530321E0,3.160305E0,2.3239264E0,3.0812469E0,3.0334928E0,4.030413E0,3.704558E0,1.4042922E0,1.190566E0,1.346658E1,9.504298E0,1.4978571E0,3.5305235E0],"tree_param":{"num_deleted":"0","num_feature":"13","num_nodes":"39","size_leaf_vector":"1"}},{"base_weights":[-2.620592E-4,-8.1266916E-1,8.000922E-1,-1.6161683E-1,-1.2716452E0,1.1849113E0,2.5441393E-1,5.070477E-1,-6.805743E-1,-3.1848896E-1,-1.3221172E0,1.2692538E0,-5.195756E-2,-2.245689E-1,7.11454E-1,-5.7537552E-2,8.386423E-1,8.599717E-1,-1.0245489E0,2.4071014E-2,-4.6169627E-2,-6.8914366E-1,-1.3698479E0,4.9101883E-1,1.3361691E0,5.9471067E-2,-6.488892E-2,5.010718E-2,1.2392566E0,6.834744E-2,7.017504E-3,4.305587E-3,5.7063162E-2,-6.749972E-2,1.5542733E-2,-5.468176E-2,1.7033761E-2,-7.278378E-2,-4.268333E-2,4.141901E-2,-3.9409488E-3,6.854076E-2,9.1907E-3,-1.1713817E-2,4.6516575E-2,3.418271E-2,-5.138383E-2,7.395891E-2,-4.0357737E-3],"categories":[],"categories_nodes":[],"categories_segments":[],"categories_sizes":[],"default_left":[0,0,0,0,0,0,0,0,0,0,0,0,0,0,0,0,0,0,0,0,0,0,0,0,0,0,0,0,0,0,0,0,0,0,0,0,0,0,0,0,0,0,0,0,0,0,0,0,0],"id":10,"left_children":[1,3,5,7,9,11,13,15,17,19,21,23,-1,25,27,-1,29,31,33,-1,-1,35,37,39,41,43,-1,45,47,-1,-1,-1,-1,-1,-1,-1,-1,-1,-1,-1,-1,-1,-1,-1,-1,-1,-1,-1,-1],"loss_changes":[1.0195E2,2.3045837E1,1.6284058E1,1.1907095E1,1.7674484E0,9.956276E0,7.589286E0,9.283699E0,1.1048194E1,2.1889417E0,3.516922E-1,1.6776047E0,0E0,5.360353E0,6.0837145E0,0E0,4.673621E0,7.823956E-1,7.434473E0,0E0,0E0,2.4635108E0,4.792633E-1,1.0513163E0,1.3723068E0,3.9682856E0,0E0,6.750275E0,3.2070732E0,0E0,0E0,0E0,0E0,0E0,0E0,0E0,0E0,0E0,0E0,0E0,0E0,0E0,0E0,0E0,0E0,0E0,0E0,0E0,0E0],"parents":[2147483647,0,0,1,1,2,2,3,3,4,4,5,5,6,6,7,7,8,8,9,9,10,10,11,11,13,13,14,14,16,16,17,17,18,18,21,21,22,22,23,23,24,24,25,25,27,27,28,28],"right_children":[2,4,6,8,10,12,14,16,18,20,22,24,-1,26,28,-1,30,32,34,-1,-1,36,38,40,42,44,-1,46,48,-1,-1,-1,-1,-1,-1,-1,-1,-1,-1,-1,-1,-1,-1,-1,-1,-1,-1,-1,-1],"split_conditions":[1E0,1E0,5.7E1,6.297077E-1,1.1E2,3.6E0,2E0,4.2E1,1.17E2,2.35E2,1.06E2,1.43E2,-5.195756E-2,1.56E2,6E1,-5.7537552E-2,5.4E1,1.72E2,2E0,2.4071014E-2,-4.6169627E-2,6.3E1,3.02E2,2.14E2,1.95E2,3E0,-6.488892E-2,1E0,3.19E2,6.834744E-2,7.017504E-3,4.305587E-3,5.7063162E-2,-6.749972E-2,1.5542733E-2,-5.468176E-2,1.7033761E-2,-7.278378E-2,-4.268333E-2,4.141901E-2,-3.9409488E-3,6.854076E-2,9.1907E-3,-1.1713817E-2,4.6516575E-2,3.418271E-2,-5.138383E-2,7.395891E-2,-4.0357737E-3],"split_indices":[2,11,0,9,3,9,10,0,3,4,7,7,0,7,0,0,0,4,10,0,0,0,4,4,7,2,0,11,4,0,0,0,0,0,0,0,0,0,0,0,0,0,0,0,0,0,0,0,0],"split_type":[0,0,0,0,0,0,0,0,0,0,0,0,0,0,0,0,0,0,0,0,0,0,0,0,0,0,0,0,0,0,0,0,0,0,0,0,0,0,0,0,0,0,0,0,0,0,0,0,0],"sum_hessian":[1.5479465E2,7.6811264E1,7.7983376E1,3.2319103E1,4.449216E1,4.5045376E1,3.2938004E1,1.4132568E1,1.8186535E1,2.6051188E0,4.1887043E1,4.381317E1,1.2322066E0,1.6331285E1,1.6606716E1,1.9438721E0,1.2188696E1,3.0457134E0,1.5140821E1,1.2096479E0,1.3954707E0,4.019618E0,3.7867424E1,4.129096E0,3.9684074E1,1.3660443E1,2.6708424E0,7.8568583E0,8.749858E0,6.3937907E0,5.794905E0,1.1601526E0,1.885561E0,1.2165173E1,2.9756486E0,2.8415484E0,1.1780698E0,3.0908112E1,6.9593134E0,2.3086138E0,1.8204821E0,3.834174E1,1.3423358E0,1.0761497E1,2.8989465E0,5.1784987E0,2.6783597E0,7.3020115E0,1.4478462E0],"tree_param":{"num_deleted":"0","num_feature":"13","num_nodes":"49","size_leaf_vector":"1"}},{"base_weights":[1.8203015E-2,-7.6457083E-1,7.4872243E-1,9.522087E-3,-1.153544E0,2.624863E-1,1.1193892E0,-2.631935E-1,9.545863E-1,-1.2126302E0,2.8218716E-2,8.031739E-1,-2.7069885E-1,8.819872E-1,1.3294041E0,8.25563E-2,-8.9120436E-1,3.5787615E-1,6.0722616E-2,1.6791707E-2,-1.2807364E0,1.1787462E0,-1.9502126E-1,-2.2763439E-2,-9.874939E-1,9.6765095E-1,-8.273343E-3,1.3767143E0,2.2677412E-2,-5.5996627E-2,1.7738285E-2,-2.255598E-3,-5.1879592E-2,4.063297E-2,-1.304423E-2,-5.018844E-2,-6.966798E-2,6.373841E-2,1.37305455E-2,-4.798276E-2,5.3129077E-2,-1.616083E-2,4.621224E-2,-6.386607E-2,-2.5015844E-3,3.8609646E-2,6.9509074E-2,7.0616186E-2,1.9260777E-2],"categories":[],"categories_nodes":[],"categories_segments":[],"categories_sizes":[],"default_left":[0,0,0,0,0,0,0,0,0,0,0,0,0,0,0,0,0,0,0,0,0,0,0,0,0,0,0,0,0,0,0,0,0,0,0,0,0,0,0,0,0,0,0,0,0,0,0,0,0],"id":11,"left_children":[1,3,5,7,9,11,13,15,17,19,-1,21,23,25,27,29,31,33,-1,-1,35,37,39,41,43,45,-1,47,-1,-1,-1,-1,-1,-1,-1,-1,-1,-1,-1,-1,-1,-1,-1,-1,-1,-1,-1,-1,-1],"loss_changes":[8.935461E1,2.2727226E1,1.4271675E1,7.009812E0,5.7820435E0,1.0671934E1,1.098568E0,4.662589E0,5.095105E-1,5.5837936E0,0E0,7.074538E0,3.3553805E0,2.3452568E0,2.9542542E-1,5.158479E0,8.9313316E-1,1.1307759E0,0E0,0E0,6.800842E-2,8.139839E-1,6.644574E0,4.6081395E0,1.2568755E0,7.9774284E-1,0E0,1.8219376E-1,0E0,0E0,0E0,0E0,0E0,0E0,0E0,0E0,0E0,0E0,0E0,0E0,0E0,0E0,0E0,0E0,0E0,0E0,0E0,0E0,0E0],"parents":[2147483647,0,0,1,1,2,2,3,3,4,4,5,5,6,6,7,7,8,8,9,9,11,11,12,12,13,13,14,14,15,15,16,16,17,17,20,20,21,21,22,22,23,23,24,24,25,25,27,27],"right_children":[2,4,6,8,10,12,14,16,18,20,-1,22,24,26,28,30,32,34,-1,-1,36,38,40,42,44,46,-1,48,-1,-1,-1,-1,-1,-1,-1,-1,-1,-1,-1,-1,-1,-1,-1,-1,-1,-1,-1,-1,-1],"split_conditions":[1E0,6.297077E-1,2E0,3E-1,1.71E2,5.7E1,1.65E2,5.8E1,1E0,1.05E2,2.8218716E-2,3E0,1.56E2,1.64E2,1.5E0,4.2E1,1.33E2,5E-1,6.0722616E-2,1.6791707E-2,3E0,5.6E1,5.1E1,3E0,6E1,6.5E1,-8.273343E-3,1.9E2,2.2677412E-2,-5.5996627E-2,1.7738285E-2,-2.255598E-3,-5.1879592E-2,4.063297E-2,-1.304423E-2,-5.018844E-2,-6.966798E-2,6.373841E-2,1.37305455E-2,-4.798276E-2,5.3129077E-2,-1.616083E-2,4.621224E-2,-6.386607E-2,-2.5015844E-3,3.8609646E-2,6.9509074E-2,7.0616186E-2,1.9260777E-2],"split_indices":[2,9,10,9,7,0,7,0,6,3,0,12,7,7,9,0,7,9,0,0,12,0,0,2,0,0,0,7,0,0,0,0,0,0,0,0,0,0,0,0,0,0,0,0,0,0,0,0,0],"split_type":[0,0,0,0,0,0,0,0,0,0,0,0,0,0,0,0,0,0,0,0,0,0,0,0,0,0,0,0,0,0,0,0,0,0,0,0,0,0,0,0,0,0,0,0,0,0,0,0,0],"sum_hessian":[1.542593E2,7.444384E1,7.981546E1,2.5223072E1,4.9220764E1,3.5264317E1,4.4551144E1,2.0134422E1,5.088649E0,4.78685E1,1.3522648E0,1.7257559E1,1.8006758E1,2.3352732E1,2.1198412E1,1.3545516E1,6.588907E0,2.2649577E0,2.8236911E0,1.8510921E0,4.601741E1,1.2408112E1,4.8494473E0,1.4145623E1,3.861135E0,2.1657694E1,1.6950383E0,1.9569496E1,1.6289163E0,1.9254743E0,1.1620042E1,1.164792E0,5.4241147E0,1.1248428E0,1.1401148E0,1.6168287E1,2.9849121E1,1.0846272E1,1.5618389E0,3.163144E0,1.6863034E0,1.1238675E1,2.906948E0,2.6723998E0,1.1887351E0,1.6741022E1,4.916671E0,1.8481312E1,1.0881832E0],"tree_param":{"num_deleted":"0","num_feature":"13","num_nodes":"49","size_leaf_vector":"1"}},{"base_weights":[-4.712091E-2,4.7466403E-1,-7.629461E-1,9.4948864E-1,-3.261872E-1,-1.1396321E-2,-1.1082054E0,1.093832E0,1.7402317E-1,-9.258262E-1,3.429123E-1,5.4401506E-2,-4.617502E-1,-1.1777228E0,1.4665226E-2,1.1935147E0,-1.1442223E-1,-5.503681E-2,6.453418E-1,1.2799905E-1,-1.2476871E0,1.0858707E0,-3.3912367E-1,3.9626077E-1,-1.036087E0,-6.8465605E-2,-7.78805E-1,6.388618E-2,1.80412E-2,-6.005263E-2,4.9506474E-2,-3.716085E-2,6.0083695E-2,-4.6402648E-2,3.800082E-2,-6.846528E-2,-1.330354E-2,6.69626E-2,-3.7963688E-3,-4.5495283E-2,4.232897E-2,-1.1922905E-2,5.8732837E-2,3.3116215E-3,-6.177437E-2,-6.245734E-2,-1.8794702E-2],"categories":[],"categories_nodes":[],"categories_segments":[],"categories_sizes":[],"default_left":[0,0,0,0,0,0,0,0,0,0,0,0,0,0,0,0,0,0,0,0,0,0,0,0,0,0,0,0,0,0,0,0,0,0,0,0,0,0,0,0,0,0,0,0,0,0,0],"id":12,"left_children":[1,3,5,7,9,11,13,15,17,19,21,-1,23,25,-1,27,29,-1,31,33,35,37,39,41,43,-1,45,-1,-1,-1,-1,-1,-1,-1,-1,-1,-1,-1,-1,-1,-1,-1,-1,-1,-1,-1,-1],"loss_changes":[5.8073185E1,3.4527664E1,1.6990181E1,6.1615143E0,1.4054347E1,1.121564E1,4.7189674E0,5.875931E0,6.7752113E0,6.375766E0,8.937691E0,0E0,8.32061E0,2.2174988E0,0E0,2.6318321E0,6.643436E0,0E0,7.0730896E0,4.1724925E0,1.3227539E0,2.5545015E0,7.2533326E0,3.8174329E0,2.256114E0,0E0,2.611742E0,0E0,0E0,0E0,0E0,0E0,0E0,0E0,0E0,0E0,0E0,0E0,0E0,0E0,0E0,0E0,0E0,0E0,0E0,0E0,0E0],"parents":[2147483647,0,0,1,1,2,2,3,3,4,4,5,5,6,6,7,7,8,8,9,9,10,10,12,12,13,13,15,15,16,16,18,18,19,19,20,20,21,21,22,22,23,23,24,24,26,26],"right_children":[2,4,6,8,10,12,14,16,18,20,22,-1,24,26,-1,28,30,-1,32,34,36,38,40,42,44,-1,46,-1,-1,-1,-1,-1,-1,-1,-1,-1,-1,-1,-1,-1,-1,-1,-1,-1,-1,-1,-1],"split_conditions":[3E0,1E0,6.297077E-1,1E0,2E0,1.22E2,1.74E2,3.26E2,2E0,6E-1,1E0,5.4401506E-2,2.28E2,1.45E2,1.4665226E-2,1.8E0,3.4E2,-5.503681E-2,1.44E2,1.21E2,3E2,3.19E2,1.65E2,1E-1,1.24E2,-6.8465605E-2,2.31E2,6.388618E-2,1.80412E-2,-6.005263E-2,4.9506474E-2,-3.716085E-2,6.0083695E-2,-4.6402648E-2,3.800082E-2,-6.846528E-2,-1.330354E-2,6.69626E-2,-3.7963688E-3,-4.5495283E-2,4.232897E-2,-1.1922905E-2,5.8732837E-2,3.3116215E-3,-6.177437E-2,-6.245734E-2,-1.8794702E-2],"split_indices":[12,11,9,8,10,3,7,4,12,9,1,0,4,7,0,9,4,0,7,7,4,4,7,9,7,0,4,0,0,0,0,0,0,0,0,0,0,0,0,0,0,0,0,0,0,0,0],"split_type":[0,0,0,0,0,0,0,0,0,0,0,0,0,0,0,0,0,0,0,0,0,0,0,0,0,0,0,0,0,0,0,0,0,0,0,0,0,0,0,0,0,0,0,0,0,0,0],"sum_hessian":[1.5351135E2,8.898477E1,6.452658E1,5.5746864E1,3.3237907E1,2.063719E1,4.388939E1,4.6652523E1,9.094342E0,1.7326456E1,1.5911453E1,5.585542E0,1.5051649E1,4.1967407E1,1.9219799E0,4.310823E1,3.544292E0,2.0943599E0,6.9999824E0,4.194685E0,1.313177E1,7.3322034E0,8.57925E0,6.1596723E0,8.891976E0,2.6707811E1,1.5259598E1,3.8663765E1,4.4444675E0,1.7425995E0,1.8016924E0,1.9062406E0,5.093742E0,1.3951309E0,2.799554E0,1.1332739E1,1.7990313E0,5.8940134E0,1.4381897E0,5.94838E0,2.6308699E0,3.775066E0,2.3846061E0,1.4643939E0,7.4275827E0,6.0715795E0,9.188019E0],"tree_param":{"num_deleted":"0","num_feature":"13","num_nodes":"47","size_leaf_vector":"1"}},{"base_weights":[-1.2237036E-2,-7.226355E-1,6.5136117E-1,8.436285E-3,-1.104059E0,1.2432537E0,3.6348337E-1,-2.1047464E-1,8.474936E-1,-1.1885105E0,3.407669E-2,6.4705424E-2,6.111794E-1,8.4042865E-1,-3.0987993E-1,2.0744175E-1,-7.978898E-1,5.0890993E-2,6.1000832E-3,1.04352925E-2,-1.2290281E0,4.2375892E-2,1.9076419E-3,2.4197796E-2,1.0756669E0,2.3084979E-1,-1.0231954E0,3.1377904E-2,-2.2781864E-2,-6.038342E-2,-3.7436213E-3,-6.6417895E-2,-3.4285065E-2,-3.7088845E-2,5.360691E-2,5.929908E-2,-1.9530702E-2,3.5837017E-2,-1.6236763E-2,-6.209427E-2,2.6122814E-3],"categories":[],"categories_nodes":[],"categories_segments":[],"categories_sizes":[],"default_left":[0,0,0,0,0,0,0,0,0,0,0,0,0,0,0,0,0,0,0,0,0,0,0,0,0,0,0,0,0,0,0,0,0,0,0,0,0,0,0,0,0],"id":13,"left_children":[1,3,5,7,9,11,13,15,17,19,-1,-1,21,23,25,27,29,-1,-1,-1,31,-1,-1,33,35,37,39,-1,-1,-1,-1,-1,-1,-1,-1,-1,-1,-1,-1,-1,-1],"loss_changes":[6.983858E1,1.9958515E1,1.2601101E1,4.865989E0,7.9005547E0,1.537323E-3,1.7266296E1,5.3309073E0,5.529394E-1,2.818863E0,0E0,0E0,4.729185E-1,5.9773407E0,8.986321E0,3.9318619E0,2.5621872E0,0E0,0E0,0E0,1.4708481E0,0E0,0E0,7.231283E0,4.3854523E0,3.9364583E0,2.4087439E0,0E0,0E0,0E0,0E0,0E0,0E0,0E0,0E0,0E0,0E0,0E0,0E0,0E0,0E0],"parents":[2147483647,0,0,1,1,2,2,3,3,4,4,5,5,6,6,7,7,8,8,9,9,12,12,13,13,14,14,15,15,16,16,20,20,23,23,24,24,25,25,26,26],"right_children":[2,4,6,8,10,12,14,16,18,20,-1,-1,22,24,26,28,30,-1,-1,-1,32,-1,-1,34,36,38,40,-1,-1,-1,-1,-1,-1,-1,-1,-1,-1,-1,-1,-1,-1],"split_conditions":[1E0,6.297077E-1,1E0,3E-1,1.71E2,1.74E2,5.7E1,5.8E1,1.52E2,1.05E2,3.407669E-2,6.4705424E-2,4.6E1,1.2E2,2.46E2,1E0,2.55E2,5.0890993E-2,6.1000832E-3,1.04352925E-2,6.4E1,4.2375892E-2,1.9076419E-3,5E1,2.5E0,6.297077E-1,1.9E0,3.1377904E-2,-2.2781864E-2,-6.038342E-2,-3.7436213E-3,-6.6417895E-2,-3.4285065E-2,-3.7088845E-2,5.360691E-2,5.929908E-2,-1.9530702E-2,3.5837017E-2,-1.6236763E-2,-6.209427E-2,2.6122814E-3],"split_indices":[2,9,1,9,7,7,0,0,7,3,0,0,0,3,4,8,4,0,0,0,0,0,0,0,9,9,9,0,0,0,0,0,0,0,0,0,0,0,0,0,0],"split_type":[0,0,0,0,0,0,0,0,0,0,0,0,0,0,0,0,0,0,0,0,0,0,0,0,0,0,0,0,0,0,0,0,0,0,0,0,0,0,0,0,0],"sum_hessian":[1.4614691E2,7.0541504E1,7.560541E1,2.4520708E1,4.6020794E1,2.3653608E1,5.19518E1,2.0041115E1,4.479594E0,4.4261776E1,1.759018E0,2.0922821E1,2.7307866E0,3.0266115E1,2.1685688E1,1.208798E1,7.953134E0,3.3015423E0,1.1780521E0,1.130384E0,4.313139E1,1.5942401E0,1.1365465E0,7.0179768E0,2.3248138E1,1.2719799E1,8.965888E0,7.4324613E0,4.6555195E0,4.6483245E0,3.3048096E0,3.5243412E1,7.887978E0,4.2232323E0,2.7947445E0,2.179925E1,1.4488895E0,6.63076E0,6.089039E0,7.322164E0,1.6437244E0],"tree_param":{"num_deleted":"0","num_feature":"13","num_nodes":"41","size_leaf_vector":"1"}},{"base_weights":[-1.9596698E-2,-7.2175306E-1,6.6205776E-1,-1.7551845E-1,-1.1582124E0,9.388158E-1,6.998328E-2,4.818398E-1,-7.6900154E-1,4.8921548E-2,-1.2309647E0,1.1410824E0,3.205239E-1,-5.527175E-1,5.8075184E-1,8.0342716E-1,-3.5827708E-1,-1.0181984E0,1.7094469E-1,4.2276505E-2,-3.9447792E-2,-7.9512125E-1,-1.3090177E0,1.2072756E0,3.1293426E-3,-5.139175E-1,7.5526553E-1,-7.697467E-1,1.24875065E-2,-1.2922674E-1,1.1485425E0,5.0408103E-2,-2.077494E-2,-4.356793E-2,2.2830976E-2,-6.2241282E-2,-1.7448579E-3,5.072139E-2,-2.1356668E-2,3.6541123E-2,-5.9521236E-2,-3.2383066E-2,-6.793461E-2,6.3844904E-2,3.5642E-2,-7.4166763E-3,-4.575222E-2,1.0916605E-2,6.2019326E-2,-5.642087E-2,1.6591618E-2,-3.74397E-2,2.2014605E-2,6.606136E-2,2.7523886E-3],"categories":[],"categories_nodes":[],"categories_segments":[],"categories_sizes":[],"default_left":[0,0,0,0,0,0,0,0,0,0,0,0,0,0,0,0,0,0,0,0,0,0,0,0,0,0,0,0,0,0,0,0,0,0,0,0,0,0,0,0,0,0,0,0,0,0,0,0,0,0,0,0,0,0,0],"id":14,"left_children":[1,3,5,7,9,11,13,15,17,19,21,23,25,27,29,31,33,35,37,-1,-1,39,41,43,-1,45,47,49,-1,51,53,-1,-1,-1,-1,-1,-1,-1,-1,-1,-1,-1,-1,-1,-1,-1,-1,-1,-1,-1,-1,-1,-1,-1,-1],"loss_changes":[7.1277176E1,1.7282448E1,1.2318626E1,1.3538925E1,3.6248703E0,6.0651817E0,8.321751E0,4.7807484E0,4.4192514E0,2.8490133E0,2.627983E-1,2.6626816E0,5.49092E0,2.2556615E0,5.915967E0,3.4971004E0,2.611817E0,3.1810112E0,2.7812417E0,0E0,0E0,5.9173865E0,1.369133E-1,3.3192062E-1,0E0,6.581042E-1,2.2435708E0,4.1558733E0,0E0,2.8901696E0,1.4475031E0,0E0,0E0,0E0,0E0,0E0,0E0,0E0,0E0,0E0,0E0,0E0,0E0,0E0,0E0,0E0,0E0,0E0,0E0,0E0,0E0,0E0,0E0,0E0,0E0],"parents":[2147483647,0,0,1,1,2,2,3,3,4,4,5,5,6,6,7,7,8,8,9,9,10,10,11,11,12,12,13,13,14,14,15,15,16,16,17,17,18,18,21,21,22,22,23,23,25,25,26,26,27,27,29,29,30,30],"right_children":[2,4,6,8,10,12,14,16,18,20,22,24,26,28,30,32,34,36,38,-1,-1,40,42,44,-1,46,48,50,-1,52,54,-1,-1,-1,-1,-1,-1,-1,-1,-1,-1,-1,-1,-1,-1,-1,-1,-1,-1,-1,-1,-1,-1,-1,-1],"split_conditions":[1E0,1E0,1E0,1E0,1.1E2,3E0,2E0,3E0,2E0,2.34E2,1E0,3.26E2,1.51E2,1.42E2,1E0,3.04E2,1.59E2,1.47E2,2.62E2,4.2276505E-2,-3.9447792E-2,1.32E2,1.06E2,2.73E2,3.1293426E-3,1.48E2,2E0,3E0,1.24875065E-2,2E0,3E0,5.0408103E-2,-2.077494E-2,-4.356793E-2,2.2830976E-2,-6.2241282E-2,-1.7448579E-3,5.072139E-2,-2.1356668E-2,3.6541123E-2,-5.9521236E-2,-3.2383066E-2,-6.793461E-2,6.3844904E-2,3.5642E-2,-7.4166763E-3,-4.575222E-2,1.0916605E-2,6.2019326E-2,-5.642087E-2,1.6591618E-2,-3.74397E-2,2.2014605E-2,6.606136E-2,2.7523886E-3],"split_indices":[2,11,11,8,3,12,10,12,10,4,1,4,7,3,6,4,7,7,4,0,0,3,7,4,0,7,10,11,0,2,2,0,0,0,0,0,0,0,0,0,0,0,0,0,0,0,0,0,0,0,0,0,0,0,0],"split_type":[0,0,0,0,0,0,0,0,0,0,0,0,0,0,0,0,0,0,0,0,0,0,0,0,0,0,0,0,0,0,0,0,0,0,0,0,0,0,0,0,0,0,0,0,0,0,0,0,0,0,0,0,0,0,0],"sum_hessian":[1.4692142E2,7.234337E1,7.457804E1,3.275376E1,3.958961E1,5.042285E1,2.4155191E1,1.5629837E1,1.7123924E1,2.269E0,3.732061E1,3.735657E1,1.3066284E1,1.0847901E1,1.330729E1,1.1334709E1,4.295128E0,1.3469629E1,3.6542947E0,1.1584626E0,1.1105373E0,7.3675513E0,2.9953058E1,3.5083874E1,2.2726967E0,4.4132967E0,8.6529875E0,8.570709E0,2.277192E0,6.2564654E0,7.0508246E0,9.852722E0,1.4819868E0,2.5931327E0,1.7019955E0,1.0730534E1,2.7390957E0,1.2272831E0,2.4270115E0,1.341264E0,6.0262876E0,3.0733418E0,2.6879717E1,2.9366222E1,5.717651E0,3.0255892E0,1.3877075E0,4.7954383E0,3.8575492E0,6.4471674E0,2.1235414E0,2.8457987E0,3.4106665E0,5.909358E0,1.1414665E0],"tree_param":{"num_deleted":"0","num_feature":"13","num_nodes":"55","size_leaf_vector":"1"}},{"base_weights":[1.3726598E-2,4.0349874E-1,-8.111174E-1,8.355209E-1,-3.0815288E-1,-1.5454538E-1,-1.060829E0,4.5452568E-1,1.1876848E0,-8.315673E-1,2.7777052E-1,4.8469776E-1,-6.6856074E-1,-5.5386573E-1,-6.294399E-2,6.655845E-2,-4.1331287E-2,6.273883E-2,-2.1187838E-3,2.9505298E-2,-1.1014029E0,1.0811393E0,-2.4006952E-1,-4.3561986E-1,5.4430712E-2,3.8669813E-2,-9.976679E-1,1.718218E-1,-5.2462157E-2,1.0071345E-2,-5.0534446E-2,2.7767519E-2,-4.763612E-2,-5.961429E-2,-1.8034767E-2,6.263583E-2,4.131423E-3,-4.970153E-2,1.7554697E-2,1.1432751E-2,-4.5682322E-2,-1.4300572E-2,-5.9549194E-2,-4.1444648E-2,3.088503E-2],"categories":[],"categories_nodes":[],"categories_segments":[],"categories_sizes":[],"default_left":[0,0,0,0,0,0,0,0,0,0,0,0,0,0,0,0,0,0,0,0,0,0,0,0,0,0,0,0,0,0,0,0,0,0,0,0,0,0,0,0,0,0,0,0,0],"id":15,"left_children":[1,3,5,7,9,11,13,15,17,19,21,23,25,27,-1,-1,29,-1,-1,31,33,35,37,39,-1,-1,41,43,-1,-1,-1,-1,-1,-1,-1,-1,-1,-1,-1,-1,-1,-1,-1,-1,-1],"loss_changes":[4.706211E1,3.081318E1,7.538574E0,7.7938385E0,1.1968582E1,4.961986E0,2.7029228E0,1.3727945E1,2.6657257E0,4.787548E0,8.083909E0,4.2930307E0,4.683931E0,4.2420845E0,0E0,0E0,5.1595197E0,0E0,0E0,3.5541937E0,6.206608E-1,1.1905384E0,5.8110013E0,1.3001461E0,0E0,0E0,6.4286804E-1,2.94072E0,0E0,0E0,0E0,0E0,0E0,0E0,0E0,0E0,0E0,0E0,0E0,0E0,0E0,0E0,0E0,0E0,0E0],"parents":[2147483647,0,0,1,1,2,2,3,3,4,4,5,5,6,6,7,7,8,8,9,9,10,10,11,11,12,12,13,13,16,16,19,19,20,20,21,21,22,22,23,23,26,26,27,27],"right_children":[2,4,6,8,10,12,14,16,18,20,22,24,26,28,-1,-1,30,-1,-1,32,34,36,38,40,-1,-1,42,44,-1,-1,-1,-1,-1,-1,-1,-1,-1,-1,-1,-1,-1,-1,-1,-1,-1],"split_conditions":[1E0,1E0,6.297077E-1,1.61E2,2E0,1E0,2.23E2,1E0,6.1E1,6E-1,1E0,1.44E2,1E0,1.9E0,-6.294399E-2,6.655845E-2,1.58E2,6.273883E-2,-2.1187838E-3,1.53E2,2.95E2,3.19E2,1E0,2.27E2,5.4430712E-2,3.8669813E-2,5.2E1,1.1E0,-5.2462157E-2,1.0071345E-2,-5.0534446E-2,2.7767519E-2,-4.763612E-2,-5.961429E-2,-1.8034767E-2,6.263583E-2,4.131423E-3,-4.970153E-2,1.7554697E-2,1.1432751E-2,-4.5682322E-2,-1.4300572E-2,-5.9549194E-2,-4.1444648E-2,3.088503E-2],"split_indices":[8,11,9,7,10,11,4,1,0,9,1,7,1,9,0,0,7,0,0,7,4,4,6,4,0,0,0,9,0,0,0,0,0,0,0,0,0,0,0,0,0,0,0,0,0],"split_type":[0,0,0,0,0,0,0,0,0,0,0,0,0,0,0,0,0,0,0,0,0,0,0,0,0,0,0,0,0,0,0,0,0,0,0,0,0,0,0,0,0,0,0,0,0],"sum_hessian":[1.443644E2,9.8384544E1,4.597985E1,6.1111523E1,3.7273018E1,1.3115057E1,3.2864796E1,3.045445E1,3.0657072E1,1.9465208E1,1.7807812E1,5.870894E0,7.244163E0,1.0298813E1,2.2565983E1,1.0393979E1,2.006047E1,2.9052364E1,1.6047088E0,4.856924E0,1.4608283E1,6.5533156E0,1.1254496E1,2.4365196E0,3.4343743E0,1.0952834E0,6.1488795E0,4.443134E0,5.855679E0,1.6676378E1,3.3840933E0,3.4464405E0,1.4104838E0,1.246874E1,2.139542E0,5.3751082E0,1.1782072E0,4.6466923E0,6.607804E0,1.2379332E0,1.1985866E0,1.8431542E0,4.3057256E0,1.1047227E0,3.338411E0],"tree_param":{"num_deleted":"0","num_feature":"13","num_nodes":"45","size_leaf_vector":"1"}},{"base_weights":[-6.746899E-3,-6.8565863E-1,6.6402775E-1,-1.7383933E-1,-1.0939237E0,9.87704E-1,2.347246E-1,3.450543E-1,-8.3181065E-1,-5.055041E-1,-6.416585E-2,3.1201184E-1,1.1069812E0,8.446783E-1,-7.860669E-2,-4.9865816E-2,5.4526883E-1,-4.1423216E-2,-1.0654219E0,4.5350203E-1,-8.464997E-1,5.4077294E-2,-7.2137535E-1,1.1607183E0,1.8952437E-1,-1.4863093E-2,1.1393939E0,4.0736228E-1,-8.7581235E-1,3.515266E-2,-1.9495184E-2,-3.457508E-2,4.2246647E-2,-6.143508E-2,6.533846E-3,6.6607757E-3,2.7819334E-2,-1.3448507E-2,-5.369919E-2,-5.198088E-2,3.5452507E-3,9.0112155E-3,6.0852822E-2,1.8360889E-2,-3.945217E-3,1.8815916E-2,6.305941E-2,-4.2609465E-3,5.0838202E-2,-5.63145E-2,2.01944E-2],"categories":[],"categories_nodes":[],"categories_segments":[],"categories_sizes":[],"default_left":[0,0,0,0,0,0,0,0,0,0,0,0,0,0,0,0,0,0,0,0,0,0,0,0,0,0,0,0,0,0,0,0,0,0,0,0,0,0,0,0,0,0,0,0,0,0,0,0,0,0,0],"id":16,"left_children":[1,3,5,7,9,11,13,15,17,19,-1,21,23,25,27,-1,29,31,33,35,37,-1,39,41,43,-1,45,47,49,-1,-1,-1,-1,-1,-1,-1,-1,-1,-1,-1,-1,-1,-1,-1,-1,-1,-1,-1,-1,-1,-1],"loss_changes":[6.552469E1,1.47511215E1,9.825914E0,1.1525452E1,3.7629395E0,2.9554176E0,6.2634974E0,5.6799345E0,2.689825E0,4.075609E0,0E0,6.7741985E0,1.4768867E0,4.0707674E0,9.010246E0,0E0,2.8233647E0,3.130157E0,2.3846827E0,4.4915974E-2,8.5107183E-1,0E0,1.0361401E0,1.5659142E0,1.7681694E-1,0E0,3.6381721E-1,4.457133E0,3.2681646E0,0E0,0E0,0E0,0E0,0E0,0E0,0E0,0E0,0E0,0E0,0E0,0E0,0E0,0E0,0E0,0E0,0E0,0E0,0E0,0E0,0E0,0E0],"parents":[2147483647,0,0,1,1,2,2,3,3,4,4,5,5,6,6,7,7,8,8,9,9,11,11,12,12,13,13,14,14,16,16,17,17,18,18,19,19,20,20,22,22,23,23,24,24,26,26,27,27,28,28],"right_children":[2,4,6,8,10,12,14,16,18,20,-1,22,24,26,28,-1,30,32,34,36,38,-1,40,42,44,-1,46,48,50,-1,-1,-1,-1,-1,-1,-1,-1,-1,-1,-1,-1,-1,-1,-1,-1,-1,-1,-1,-1,-1,-1],"split_conditions":[1E0,3E0,5.7E1,1E0,6E-1,1.12E2,1E0,1E0,5.2E1,1.22E2,-6.416585E-2,2.28E2,2E0,5.9E1,2.46E2,-4.9865816E-2,3.04E2,1.38E2,3.05E2,4.4E1,2.35E2,5.4077294E-2,2.44E2,2E0,4.2E1,-1.4863093E-2,6.3E1,6E1,2.1E0,3.515266E-2,-1.9495184E-2,-3.457508E-2,4.2246647E-2,-6.143508E-2,6.533846E-3,6.6607757E-3,2.7819334E-2,-1.3448507E-2,-5.369919E-2,-5.198088E-2,3.5452507E-3,9.0112155E-3,6.0852822E-2,1.8360889E-2,-3.945217E-3,1.8815916E-2,6.305941E-2,-4.2609465E-3,5.0838202E-2,-5.63145E-2,2.01944E-2],"split_indices":[2,12,0,8,9,3,1,10,0,3,0,4,9,0,4,0,4,3,4,0,4,0,4,12,0,0,0,0,9,0,0,0,0,0,0,0,0,0,0,0,0,0,0,0,0,0,0,0,0,0,0],"split_type":[0,0,0,0,0,0,0,0,0,0,0,0,0,0,0,0,0,0,0,0,0,0,0,0,0,0,0,0,0,0,0,0,0,0,0,0,0,0,0,0,0,0,0,0,0,0,0,0,0,0,0],"sum_hessian":[1.4188507E2,7.05038E1,7.138126E1,3.1917013E1,3.858679E1,3.9955673E1,3.1425589E1,1.8110317E1,1.3806697E1,1.0289081E1,2.8297707E1,6.537471E0,3.3418205E1,1.0089272E1,2.1336317E1,1.8338351E0,1.6276482E1,3.4183974E0,1.03883E1,2.6123235E0,7.6767573E0,3.7203956E0,2.8170753E0,3.1318665E1,2.09954E0,2.0679417E0,8.02133E0,1.3559554E1,7.7767625E0,1.413911E1,2.1373715E0,2.0988674E0,1.3195301E0,9.116542E0,1.2717583E0,1.1930586E0,1.4192648E0,2.7860322E0,4.890725E0,1.7870653E0,1.03001E0,1.9299141E0,2.938875E1,1.0418398E0,1.0577002E0,1.666984E0,6.354346E0,7.9741697E0,5.5853844E0,6.604027E0,1.1727356E0],"tree_param":{"num_deleted":"0","num_feature":"13","num_nodes":"51","size_leaf_vector":"1"}},{"base_weights":[-2.2949724E-2,5.040317E-1,-7.056513E-1,9.231462E-1,-3.588396E-1,-1.059807E0,-1.1077217E-1,9.949572E-1,-4.2280284E-1,-1.00325E0,1.2890285E-1,-2.6028964E-1,-5.9771724E-2,9.133317E-1,-5.384568E-1,1.0255579E0,-7.4282573E-3,1.6593423E-2,-4.7608122E-2,-4.1897646E-1,-1.1742266E0,5.9842724E-2,-2.2663681E-1,-8.679077E-1,4.712484E-1,5.934025E-2,-1.4541785E-2,-1.0122371E0,-8.0714375E-2,5.4880362E-2,1.7726617E-2,-4.7639165E-2,2.8609032E-2,-1.4566463E-2,-6.418102E-2,4.3192763E-2,-2.9554559E-2,-7.165032E-3,-5.3396042E-2,4.8859157E-2,-1.1597179E-2,-2.134377E-2,-6.0291808E-2,2.1382492E-2,-3.3496358E-2],"categories":[],"categories_nodes":[],"categories_segments":[],"categories_sizes":[],"default_left":[0,0,0,0,0,0,0,0,0,0,0,0,0,0,0,0,0,0,0,0,0,0,0,0,0,0,0,0,0,0,0,0,0,0,0,0,0,0,0,0,0,0,0,0,0],"id":17,"left_children":[1,3,5,7,9,11,13,15,17,19,21,23,-1,25,27,29,-1,-1,-1,31,33,-1,35,37,39,-1,-1,41,43,-1,-1,-1,-1,-1,-1,-1,-1,-1,-1,-1,-1,-1,-1,-1,-1],"loss_changes":[5.0874207E1,2.9201319E1,1.2857965E1,5.6411247E0,8.558628E0,3.862362E0,1.1047353E1,1.9570732E0,1.6892612E0,6.7359066E-1,6.403819E0,3.458432E0,0E0,2.805255E0,3.7415562E0,2.045456E0,0E0,0E0,0E0,2.7652745E0,4.4425297E-1,0E0,5.6605387E0,4.411149E-1,1.5646627E0,0E0,0E0,4.5716667E-1,3.2977366E0,0E0,0E0,0E0,0E0,0E0,0E0,0E0,0E0,0E0,0E0,0E0,0E0,0E0,0E0,0E0,0E0],"parents":[2147483647,0,0,1,1,2,2,3,3,4,4,5,5,6,6,7,7,8,8,9,9,10,10,11,11,13,13,14,14,15,15,19,19,20,20,22,22,23,23,24,24,27,27,28,28],"right_children":[2,4,6,8,10,12,14,16,18,20,22,24,-1,26,28,30,-1,-1,-1,32,34,-1,36,38,40,-1,-1,42,44,-1,-1,-1,-1,-1,-1,-1,-1,-1,-1,-1,-1,-1,-1,-1,-1],"split_conditions":[1E0,3E0,2E0,2.6650517E0,5.2E1,5E-1,1E0,1.62E2,4.6E1,2.12E2,1.22E2,5.8E1,-5.9771724E-2,3.09E2,1E0,3.09E2,-7.4282573E-3,1.6593423E-2,-4.7608122E-2,1E0,1E0,5.9842724E-2,5.5E1,1.2E2,2E0,5.934025E-2,-1.4541785E-2,5.4E1,5.8E1,5.4880362E-2,1.7726617E-2,-4.7639165E-2,2.8609032E-2,-1.4566463E-2,-6.418102E-2,4.3192763E-2,-2.9554559E-2,-7.165032E-3,-5.3396042E-2,4.8859157E-2,-1.1597179E-2,-2.134377E-2,-6.0291808E-2,2.1382492E-2,-3.3496358E-2],"split_indices":[11,12,10,9,0,9,1,3,0,4,3,0,0,4,6,4,0,0,0,6,10,0,0,3,11,0,0,0,0,0,0,0,0,0,0,0,0,0,0,0,0,0,0,0,0],"split_type":[0,0,0,0,0,0,0,0,0,0,0,0,0,0,0,0,0,0,0,0,0,0,0,0,0,0,0,0,0,0,0,0,0,0,0,0,0,0,0,0,0,0,0,0,0],"sum_hessian":[1.3941856E2,7.883052E1,6.0588047E1,5.301176E1,2.5818764E1,3.7488228E1,2.3099815E1,5.0574226E1,2.4375327E0,1.0667641E1,1.5151123E1,5.86043E0,3.16278E1,6.4704947E0,1.662932E1,4.9356606E1,1.2176226E0,1.1587124E0,1.2788203E0,3.1961203E0,7.4715204E0,3.1932127E0,1.1957911E1,3.0995324E0,2.7608974E0,5.284723E0,1.1857721E0,7.5762525E0,9.053068E0,4.3996853E1,5.359752E0,2.1024961E0,1.093624E0,1.2275239E0,6.2439966E0,2.6521332E0,9.305778E0,1.041791E0,2.0577414E0,1.379053E0,1.3818444E0,2.6795053E0,4.896747E0,5.0071626E0,4.045906E0],"tree_param":{"num_deleted":"0","num_feature":"13","num_nodes":"45","size_leaf_vector":"1"}},{"base_weights":[-8.078405E-3,-6.5134364E-1,6.005743E-1,-6.455865E-2,-1.1292368E0,2.1742071E-1,9.031182E-1,4.7740728E-1,-8.147012E-1,-3.3630282E-3,-1.1726183E0,4.7788915E-1,-3.4867725E-1,1.0077865E0,1.8643169E-1,-5.5541206E-2,7.1213096E-1,-7.382392E-2,-5.842925E-2,-5.7184166E-1,-6.0578775E-2,8.4599614E-1,-9.401575E-2,2.7290744E-1,-7.93326E-1,1.1384524E0,2.1104386E-2,4.9637135E-2,-6.854704E-1,5.0574817E-2,-1.2065625E-3,1.0810814E-2,-2.8443411E-2,-4.3022174E-2,6.3590603E-3,5.9751846E-2,1.6564898E-5,-2.5109798E-2,1.1883891E-2,4.912358E-2,-1.647847E-2,-5.9471894E-2,1.9952541E-2,3.929006E-2,6.383121E-2,-3.1713422E-2,4.237167E-2,-5.274428E-2,4.822429E-3],"categories":[],"categories_nodes":[],"categories_segments":[],"categories_sizes":[],"default_left":[0,0,0,0,0,0,0,0,0,0,0,0,0,0,0,0,0,0,0,0,0,0,0,0,0,0,0,0,0,0,0,0,0,0,0,0,0,0,0,0,0,0,0,0,0,0,0,0,0],"id":18,"left_children":[1,3,5,7,9,11,13,15,17,-1,19,21,23,25,27,-1,29,31,-1,33,-1,35,37,39,41,43,45,-1,47,-1,-1,-1,-1,-1,-1,-1,-1,-1,-1,-1,-1,-1,-1,-1,-1,-1,-1,-1,-1],"loss_changes":[5.2408314E1,1.8174622E1,7.777338E0,1.269484E1,1.5705757E0,4.835914E0,2.671587E0,7.5771875E0,3.339322E0,0E0,1.10816956E-1,4.734127E0,3.1343272E0,4.234951E0,4.9581347E0,0E0,3.654334E0,8.8268197E-1,0E0,9.1333556E-1,0E0,3.9996567E0,1.4134417E0,2.52395E0,3.5023756E0,4.1732025E-1,3.1813755E0,0E0,1.1170466E0,0E0,0E0,0E0,0E0,0E0,0E0,0E0,0E0,0E0,0E0,0E0,0E0,0E0,0E0,0E0,0E0,0E0,0E0,0E0,0E0],"parents":[2147483647,0,0,1,1,2,2,3,3,4,4,5,5,6,6,7,7,8,8,10,10,11,11,12,12,13,13,14,14,16,16,17,17,19,19,21,21,22,22,23,23,24,24,25,25,26,26,28,28],"right_children":[2,4,6,8,10,12,14,16,18,-1,20,22,24,26,28,-1,30,32,-1,34,-1,36,38,40,42,44,46,-1,48,-1,-1,-1,-1,-1,-1,-1,-1,-1,-1,-1,-1,-1,-1,-1,-1,-1,-1,-1,-1],"split_conditions":[1E0,1E0,2E0,3E0,1.1E2,1E0,2E0,1.18E2,6E-1,-3.3630282E-3,1.06E2,3E0,6E-1,1.54E2,5E-1,-5.5541206E-2,1E0,1.62E2,-5.842925E-2,1.03E2,-6.0578775E-2,1.8E0,1.51E2,1.26E2,3E0,1.59E2,1E-1,4.9637135E-2,8.5824585E-1,5.0574817E-2,-1.2065625E-3,1.0810814E-2,-2.8443411E-2,-4.3022174E-2,6.3590603E-3,5.9751846E-2,1.6564898E-5,-2.5109798E-2,1.1883891E-2,4.912358E-2,-1.647847E-2,-5.9471894E-2,1.9952541E-2,3.929006E-2,6.383121E-2,-3.1713422E-2,4.237167E-2,-5.274428E-2,4.822429E-3],"split_indices":[2,11,10,12,3,11,11,7,9,0,7,12,9,3,9,0,8,7,0,7,0,9,7,3,11,7,9,0,9,0,0,0,0,0,0,0,0,0,0,0,0,0,0,0,0,0,0,0,0],"split_type":[0,0,0,0,0,0,0,0,0,0,0,0,0,0,0,0,0,0,0,0,0,0,0,0,0,0,0,0,0,0,0,0,0,0,0,0,0,0,0,0,0,0,0,0,0,0,0,0,0],"sum_hessian":[1.3185773E2,6.407199E1,6.7785736E1,2.9268955E1,3.4803032E1,3.0666763E1,3.711897E1,1.7203373E1,1.2065582E1,1.4659948E0,3.333704E1,2.110974E1,9.557024E0,3.2034348E1,5.0846252E0,1.7345128E0,1.5468861E1,4.29091E0,7.7746725E0,2.9848628E0,3.0352177E1,1.25516205E1,8.558119E0,4.146616E0,5.4104085E0,2.8152327E1,3.8820193E0,2.5696707E0,2.5149546E0,1.07315645E1,4.7372956E0,3.0608406E0,1.2300693E0,1.9491886E0,1.0356743E0,8.592153E0,3.9594681E0,3.6062512E0,4.951868E0,1.6144656E0,2.5321503E0,4.063098E0,1.3473108E0,9.807672E0,1.8344654E1,2.2945814E0,1.5874379E0,1.4709231E0,1.0440315E0],"tree_param":{"num_deleted":"0","num_feature":"13","num_nodes":"49","size_leaf_vector":"1"}},{"base_weights":[-3.9289513E-5,3.5403603E-1,-7.137558E-1,7.0945656E-1,-2.4066347E-1,-5.4695163E-2,-9.635875E-1,3.2843328E-1,1.0746429E0,-7.241776E-1,2.9447445E-1,-5.008152E-1,7.348158E-1,-4.0037978E-1,-6.16447E-2,6.103271E-2,-9.8396555E-2,1.1486241E0,-5.584217E-3,-9.623178E-1,-4.2722552E-4,5.0159115E-1,-4.536677E-2,-4.946603E-2,1.2359987E-2,1.4942649E-1,5.459091E-2,3.284247E-1,-7.694805E-1,1.8467117E-2,-3.853217E-2,6.2310904E-2,3.1846058E-2,-1.5139887E-2,-5.683316E-2,4.2455696E-2,-4.6128903E-2,-3.818999E-2,3.3906285E-2,3.544239E-2,-2.4910996E-2,1.9204302E-2,-7.573057E-3,-1.0114749E-2,3.7331656E-2,-6.466552E-3,-5.320069E-2],"categories":[],"categories_nodes":[],"categories_segments":[],"categories_sizes":[],"default_left":[0,0,0,0,0,0,0,0,0,0,0,0,0,0,0,0,0,0,0,0,0,0,0,0,0,0,0,0,0,0,0,0,0,0,0,0,0,0,0,0,0,0,0,0,0,0,0],"id":19,"left_children":[1,3,5,7,9,11,13,15,17,19,21,23,25,27,-1,-1,29,31,-1,33,35,37,-1,-1,39,41,-1,43,45,-1,-1,-1,-1,-1,-1,-1,-1,-1,-1,-1,-1,-1,-1,-1,-1,-1,-1],"loss_changes":[3.3408775E1,1.884824E1,7.1653633E0,7.378275E0,8.959441E0,4.9855924E0,4.3186817E0,1.1023855E1,2.579647E0,3.1100044E0,4.625794E0,2.2612622E0,9.1075706E-1,3.4119787E0,0E0,0E0,6.6652546E0,5.236435E-1,0E0,1.2171144E0,5.0673065E0,3.85451E0,0E0,0E0,2.2602744E0,2.7742153E-1,0E0,1.1829278E0,1.3887038E0,0E0,0E0,0E0,0E0,0E0,0E0,0E0,0E0,0E0,0E0,0E0,0E0,0E0,0E0,0E0,0E0,0E0,0E0],"parents":[2147483647,0,0,1,1,2,2,3,3,4,4,5,5,6,6,7,7,8,8,9,9,10,10,11,11,12,12,13,13,16,16,17,17,19,19,20,20,21,21,24,24,25,25,27,27,28,28],"right_children":[2,4,6,8,10,12,14,16,18,20,22,24,26,28,-1,-1,30,32,-1,34,36,38,-1,-1,40,42,-1,44,46,-1,-1,-1,-1,-1,-1,-1,-1,-1,-1,-1,-1,-1,-1,-1,-1,-1,-1],"split_conditions":[1E0,1E0,6.297077E-1,1.61E2,1E0,2E-1,3E0,1E0,6.1E1,6.5E1,2.1E0,1.51E2,5.8E1,5.2E1,-6.16447E-2,6.103271E-2,6.297077E-1,3E0,-5.584217E-3,5.5E1,8.5824585E-1,1.14E2,-4.536677E-2,-4.946603E-2,3E0,5.7E1,5.459091E-2,1.26E2,1E0,1.8467117E-2,-3.853217E-2,6.2310904E-2,3.1846058E-2,-1.5139887E-2,-5.683316E-2,4.2455696E-2,-4.6128903E-2,-3.818999E-2,3.3906285E-2,3.544239E-2,-2.4910996E-2,1.9204302E-2,-7.573057E-3,-1.0114749E-2,3.7331656E-2,-6.466552E-3,-5.320069E-2],"split_indices":[8,11,9,7,6,9,12,1,0,0,9,7,0,0,0,0,9,12,0,0,9,7,0,0,12,0,0,7,11,0,0,0,0,0,0,0,0,0,0,0,0,0,0,0,0,0,0],"split_type":[0,0,0,0,0,0,0,0,0,0,0,0,0,0,0,0,0,0,0,0,0,0,0,0,0,0,0,0,0,0,0,0,0,0,0,0,0,0,0,0,0,0,0,0,0,0,0],"sum_hessian":[1.302024E2,8.736467E1,4.2837727E1,5.4562546E1,3.2802124E1,1.211007E1,3.0727657E1,2.76318E1,2.6930744E1,1.7046665E1,1.5755457E1,7.971416E0,4.1386547E0,1.0744371E1,1.9983286E1,8.339521E0,1.9292278E1,2.5379803E1,1.5509412E0,1.2578315E1,4.468351E0,1.3936342E1,1.8191147E0,3.6085234E0,4.3628926E0,2.1052165E0,2.0334382E0,3.64916E0,7.0952115E0,1.1642319E1,7.649959E0,2.0109087E1,5.2707167E0,3.2020917E0,9.376223E0,2.3669636E0,2.1013873E0,1.2989445E0,1.2637398E1,1.6812127E0,2.68168E0,1.0274261E0,1.0777903E0,1.8357797E0,1.8133804E0,2.689297E0,4.405915E0],"tree_param":{"num_deleted":"0","num_feature":"13","num_nodes":"47","size_leaf_vector":"1"}},{"base_weights":[4.30611E-2,-5.2332807E-1,5.903944E-1,1.0017449E-1,-1.0371213E0,1.4893958E-1,9.2679054E-1,5.736173E-1,-5.9991604E-1,-6.400923E-1,-5.761072E-2,6.299868E-1,-1.5515617E-1,2.2007911E-1,1.0207199E0,-4.676625E-2,7.407683E-1,4.1670367E-1,-5.6791525E-2,-1.0106126E-1,-5.780481E-2,9.426042E-1,1.0221836E-1,1.002095E-1,-7.256606E-1,3.5834204E-2,-3.5385543E-1,1.0749027E0,-6.3106366E-3,5.237869E-2,6.2765256E-3,3.1144185E-2,-6.9426806E-3,-3.3234835E-2,3.785593E-2,5.52873E-2,2.7175478E-3,-1.5568763E-2,4.1091662E-2,-3.8261488E-2,1.6339159E-2,-5.5891525E-2,1.757252E-2,2.8778368E-3,-3.031497E-2,5.634075E-2,1.8607952E-2],"categories":[],"categories_nodes":[],"categories_segments":[],"categories_sizes":[],"default_left":[0,0,0,0,0,0,0,0,0,0,0,0,0,0,0,0,0,0,0,0,0,0,0,0,0,0,0,0,0,0,0,0,0,0,0,0,0,0,0,0,0,0,0,0,0,0,0],"id":20,"left_children":[1,3,5,7,9,11,13,15,17,19,-1,21,23,25,27,-1,29,31,-1,33,-1,35,37,39,41,-1,43,45,-1,-1,-1,-1,-1,-1,-1,-1,-1,-1,-1,-1,-1,-1,-1,-1,-1,-1,-1],"loss_changes":[4.058169E1,2.0726181E1,9.742882E0,1.0285711E1,8.791771E-1,4.481369E0,2.2692986E0,5.3348923E0,7.332264E0,2.720518E0,0E0,1.8511839E0,2.8644412E0,1.8732256E0,2.179432E0,0E0,3.1014042E0,6.680664E-1,0E0,3.446579E0,0E0,9.965019E-1,1.8966124E0,3.0179956E0,2.9469752E0,0E0,3.7819895E-1,7.3012924E-1,0E0,0E0,0E0,0E0,0E0,0E0,0E0,0E0,0E0,0E0,0E0,0E0,0E0,0E0,0E0,0E0,0E0,0E0,0E0],"parents":[2147483647,0,0,1,1,2,2,3,3,4,4,5,5,6,6,7,7,8,8,9,9,11,11,12,12,13,13,14,14,16,16,17,17,19,19,21,21,22,22,23,23,24,24,26,26,27,27],"right_children":[2,4,6,8,10,12,14,16,18,20,-1,22,24,26,28,-1,30,32,-1,34,-1,36,38,40,42,-1,44,46,-1,-1,-1,-1,-1,-1,-1,-1,-1,-1,-1,-1,-1,-1,-1,-1,-1,-1,-1],"split_conditions":[1E0,1E0,2E0,3E0,4E-1,6.297077E-1,1.42E2,1.18E2,6E-1,1.6E2,-5.761072E-2,1E0,1E0,3E-1,1.94E2,-4.676625E-2,1E0,2.27E2,-5.6791525E-2,1E0,-5.780481E-2,2.46E2,2.57E2,2E0,3E0,3.5834204E-2,1E0,3.19E2,-6.3106366E-3,5.237869E-2,6.2765256E-3,3.1144185E-2,-6.9426806E-3,-3.3234835E-2,3.785593E-2,5.52873E-2,2.7175478E-3,-1.5568763E-2,4.1091662E-2,-3.8261488E-2,1.6339159E-2,-5.5891525E-2,1.757252E-2,2.8778368E-3,-3.031497E-2,5.634075E-2,1.8607952E-2],"split_indices":[2,11,10,12,9,9,7,7,9,7,0,11,11,9,7,0,8,4,0,6,0,4,4,2,11,0,6,4,0,0,0,0,0,0,0,0,0,0,0,0,0,0,0,0,0,0,0],"split_type":[0,0,0,0,0,0,0,0,0,0,0,0,0,0,0,0,0,0,0,0,0,0,0,0,0,0,0,0,0,0,0,0,0,0,0,0,0,0,0,0,0,0,0,0,0,0,0],"sum_hessian":[1.2891048E2,6.3373962E1,6.553652E1,2.899398E1,3.4379982E1,2.8966433E1,3.6570087E1,1.7404606E1,1.15893755E1,9.2010975E0,2.5178883E1,1.080399E1,1.8162441E1,4.682513E0,3.1887573E1,1.2773895E0,1.6127216E1,4.077286E0,7.51209E0,5.085014E0,4.116084E0,6.2913604E0,4.5126305E0,1.3115923E1,5.046519E0,2.377032E0,2.3054814E0,3.050908E1,1.378491E0,1.0292072E1,5.835143E0,2.8852983E0,1.1919872E0,3.2052965E0,1.8797175E0,5.1082873E0,1.1830729E0,3.2258809E0,1.2867496E0,2.2280567E0,1.0887867E1,3.6718242E0,1.3746945E0,1.1702716E0,1.1352097E0,2.7848438E1,2.660644E0],"tree_param":{"num_deleted":"0","num_feature":"13","num_nodes":"47","size_leaf_vector":"1"}},{"base_weights":[-2.0427937E-2,4.1690996E-1,-6.198151E-1,8.2663196E-1,-2.8378254E-1,1.8418647E-2,-9.5718956E-1,-1.942191E-1,9.4287974E-1,-8.1400347E-1,2.8202227E-1,9.044469E-1,-3.2698366E-1,-5.949057E-1,-5.9970774E-2,3.939614E-2,-6.983548E-1,9.9524295E-1,-4.8970548E-3,1.4845029E-1,-5.625322E-2,8.642902E-1,-2.4842066E-1,1.3029948E-2,4.9556278E-2,5.4793645E-2,-5.69951E-1,-9.789329E-1,-3.4074366E-2,6.3524017E-4,-5.4144796E-2,2.3294365E-2,5.1747113E-2,-1.690664E-2,4.1723188E-2,5.596718E-2,9.216919E-3,-5.3596344E-2,1.1518667E-2,-4.4113785E-2,1.9980727E-2,-5.7643164E-2,3.024145E-3,5.9241485E-2,-3.2138582E-2],"categories":[],"categories_nodes":[],"categories_segments":[],"categories_sizes":[],"default_left":[0,0,0,0,0,0,0,0,0,0,0,0,0,0,0,0,0,0,0,0,0,0,0,0,0,0,0,0,0,0,0,0,0,0,0,0,0,0,0,0,0,0,0,0,0],"id":21,"left_children":[1,3,5,7,9,11,13,15,17,19,21,23,25,27,-1,-1,29,31,-1,33,-1,35,37,-1,-1,-1,39,41,43,-1,-1,-1,-1,-1,-1,-1,-1,-1,-1,-1,-1,-1,-1,-1,-1],"loss_changes":[3.3145687E1,2.1230211E1,1.1500124E1,5.689934E0,8.548327E0,6.2395663E0,2.3495064E0,3.3096945E0,2.3772736E0,4.529598E0,4.5872636E0,6.0554028E-2,5.7095385E0,3.406249E0,0E0,0E0,1.1656978E0,3.5668182E-1,0E0,1.7651416E0,0E0,1.0027933E0,3.4741945E0,0E0,0E0,0E0,4.35624E0,1.776947E0,6.346209E0,0E0,0E0,0E0,0E0,0E0,0E0,0E0,0E0,0E0,0E0,0E0,0E0,0E0,0E0,0E0,0E0],"parents":[2147483647,0,0,1,1,2,2,3,3,4,4,5,5,6,6,7,7,8,8,9,9,10,10,11,11,12,12,13,13,16,16,17,17,19,19,21,21,22,22,26,26,27,27,28,28],"right_children":[2,4,6,8,10,12,14,16,18,20,22,24,26,28,-1,-1,30,32,-1,34,-1,36,38,-1,-1,-1,40,42,44,-1,-1,-1,-1,-1,-1,-1,-1,-1,-1,-1,-1,-1,-1,-1,-1],"split_conditions":[3E0,1E0,6.297077E-1,1.26E2,2E0,1.22E2,1E0,1.13E2,2.5E0,6E-1,1E0,1.01E2,1.12E2,1.6E0,-5.9970774E-2,3.939614E-2,1E0,2E0,-4.8970548E-3,1E-1,-5.625322E-2,1E0,1.2E2,1.3029948E-2,4.9556278E-2,5.4793645E-2,4E-1,1.69E2,2E0,6.3524017E-4,-5.4144796E-2,2.3294365E-2,5.1747113E-2,-1.690664E-2,4.1723188E-2,5.596718E-2,9.216919E-3,-5.3596344E-2,1.1518667E-2,-4.4113785E-2,1.9980727E-2,-5.7643164E-2,3.024145E-3,5.9241485E-2,-3.2138582E-2],"split_indices":[12,11,9,7,10,3,8,3,9,9,1,3,7,9,0,0,1,12,0,9,0,5,3,0,0,0,9,7,9,0,0,0,0,0,0,0,0,0,0,0,0,0,0,0,0],"split_type":[0,0,0,0,0,0,0,0,0,0,0,0,0,0,0,0,0,0,0,0,0,0,0,0,0,0,0,0,0,0,0,0,0,0,0,0,0,0,0,0,0,0,0,0,0],"sum_hessian":[1.2445944E2,7.213279E1,5.2326653E1,4.5403736E1,2.6729055E1,1.8421974E1,3.390468E1,4.5731406E0,4.0830593E1,1.3571971E1,1.3157084E1,4.7131753E0,1.3708799E1,1.4970348E1,1.8934328E1,1.3602414E0,3.2128992E0,3.8916515E1,1.9140801E0,3.4426935E0,1.0129277E1,5.972113E0,7.1849713E0,1.0346091E0,3.6785665E0,1.4874833E0,1.2221316E1,8.4433155E0,6.5270333E0,1.4670746E0,1.7458246E0,3.6034214E0,3.531309E1,2.3107817E0,1.1319116E0,3.8730886E0,2.0990248E0,2.186123E0,4.9988484E0,9.311762E0,2.909554E0,7.1394863E0,1.3038288E0,1.8586409E0,4.668392E0],"tree_param":{"num_deleted":"0","num_feature":"13","num_nodes":"45","size_leaf_vector":"1"}},{"base_weights":[-8.0157764E-2,-6.9036955E-1,5.271822E-1,-2.3356143E-1,-1.0610472E0,1.7177077E-1,7.6460636E-1,2.5504017E-1,-8.579444E-1,-7.779221E-3,-1.1295031E0,5.4948475E-2,4.5141235E-2,8.6976755E-1,1.5738052E-1,-8.247717E-1,5.294187E-1,-1.9561894E-1,-9.848614E-1,3.7147712E-2,-3.8863257E-2,-5.9712857E-2,-6.7163676E-1,3.2615516E-1,-3.9823785E-1,9.3048185E-1,9.4262995E-3,4.6446058E-1,-3.0847145E-2,-5.4096878E-2,-7.44337E-3,-5.15804E-2,4.12353E-2,-3.4738388E-2,2.2343306E-2,-5.433619E-2,-1.9193146E-2,1.5394948E-2,-5.009864E-2,3.2090466E-2,-5.016922E-2,-3.813614E-2,3.160533E-2,2.5812835E-2,5.489513E-2,-3.2687114E-4,1.027884E-3,4.7175586E-2,-6.7542046E-3],"categories":[],"categories_nodes":[],"categories_segments":[],"categories_sizes":[],"default_left":[0,0,0,0,0,0,0,0,0,0,0,0,0,0,0,0,0,0,0,0,0,0,0,0,0,0,0,0,0,0,0,0,0,0,0,0,0,0,0,0,0,0,0,0,0,0,0,0,0],"id":22,"left_children":[1,3,5,7,9,11,13,15,17,19,21,-1,23,25,27,29,31,33,35,-1,-1,-1,37,39,41,43,45,47,-1,-1,-1,-1,-1,-1,-1,-1,-1,-1,-1,-1,-1,-1,-1,-1,-1,-1,-1,-1,-1],"loss_changes":[4.5711105E1,1.016054E1,5.0912323E0,9.010275E0,2.4175339E0,3.0120435E0,2.213974E0,5.4548144E0,8.900423E-1,2.3454978E0,1.3450623E-1,0E0,3.118425E0,1.6188297E0,1.8690674E0,5.0339603E-1,7.3569565E0,1.3748817E0,2.2937965E-1,0E0,0E0,0E0,2.3144393E0,7.035955E0,4.1456E0,1.4509335E0,6.7889586E-4,1.6600258E0,0E0,0E0,0E0,0E0,0E0,0E0,0E0,0E0,0E0,0E0,0E0,0E0,0E0,0E0,0E0,0E0,0E0,0E0,0E0,0E0,0E0],"parents":[2147483647,0,0,1,1,2,2,3,3,4,4,5,5,6,6,7,7,8,8,9,9,10,10,12,12,13,13,14,14,15,15,16,16,17,17,18,18,22,22,23,23,24,24,25,25,26,26,27,27],"right_children":[2,4,6,8,10,12,14,16,18,20,22,-1,24,26,28,30,32,34,36,-1,-1,-1,38,40,42,44,46,48,-1,-1,-1,-1,-1,-1,-1,-1,-1,-1,-1,-1,-1,-1,-1,-1,-1,-1,-1,-1,-1],"split_conditions":[1E0,1E0,1.53E2,3E0,1.1E2,1E0,3E0,2E0,1.12E2,2.34E2,3.02E2,5.4948475E-2,3E0,1.52E2,1E0,1.29E2,1.18E2,1.42E2,1.59E2,3.7147712E-2,-3.8863257E-2,-5.9712857E-2,3.05E2,2E0,2E0,2E0,1.62E2,2.28E2,-3.0847145E-2,-5.4096878E-2,-7.44337E-3,-5.15804E-2,4.12353E-2,-3.4738388E-2,2.2343306E-2,-5.433619E-2,-1.9193146E-2,1.5394948E-2,-5.009864E-2,3.2090466E-2,-5.016922E-2,-3.813614E-2,3.160533E-2,2.5812835E-2,5.489513E-2,-3.2687114E-4,1.027884E-3,4.7175586E-2,-6.7542046E-3],"split_indices":[2,11,7,12,3,10,2,12,7,4,4,0,12,3,11,3,7,3,7,0,0,0,4,11,11,10,3,4,0,0,0,0,0,0,0,0,0,0,0,0,0,0,0,0,0,0,0,0,0],"split_type":[0,0,0,0,0,0,0,0,0,0,0,0,0,0,0,0,0,0,0,0,0,0,0,0,0,0,0,0,0,0,0,0,0,0,0,0,0,0,0,0,0,0,0,0,0,0,0,0,0],"sum_hessian":[1.21359474E2,6.0468422E1,6.0891052E1,2.7817436E1,3.2650986E1,2.5076426E1,3.5814625E1,1.5937397E1,1.1880039E1,2.0605683E0,3.0590416E1,2.090546E0,2.298588E1,3.01592E1,5.655423E0,2.8227098E0,1.3114687E1,2.3190777E0,9.560962E0,1.0604457E0,1.0001227E0,2.5391151E1,5.199265E0,1.4230786E1,8.755094E0,2.8095009E1,2.0641923E0,4.336022E0,1.319401E0,1.6095774E0,1.2131324E0,1.68952E0,1.1425167E1,1.2593268E0,1.059751E0,7.484266E0,2.0766954E0,1.3283297E0,3.8709354E0,1.1918429E1,2.3123577E0,6.659154E0,2.0959396E0,9.262273E0,1.8832737E1,1.0175737E0,1.0466185E0,2.091304E0,2.2447178E0],"tree_param":{"num_deleted":"0","num_feature":"13","num_nodes":"49","size_leaf_vector":"1"}},{"base_weights":[-1.8037975E-2,4.159412E-1,-6.3445157E-1,7.52877E-1,-2.098604E-1,8.36332E-1,-7.476026E-1,8.501209E-1,-6.114157E-1,3.6329645E-1,-6.9980526E-1,1.2039537E-2,4.7502633E-2,-3.7322298E-1,-5.5474337E-2,1.0175701E0,2.3961602E-1,4.435949E-3,-5.1469255E-2,-2.408018E-2,4.294182E-2,-9.509967E-1,3.0587947E-1,-7.243001E-2,-6.2606955E-1,5.557571E-2,2.3458228E-2,2.5380963E-2,-4.478155E-2,-3.8111128E-2,2.9607851E-2,2.0748917E-3,-5.7543535E-2,5.5578925E-2,-3.583799E-2,-3.2918867E-2,1.6867956E-2,-5.691555E-2,-1.968952E-3],"categories":[],"categories_nodes":[],"categories_segments":[],"categories_sizes":[],"default_left":[0,0,0,0,0,0,0,0,0,0,0,0,0,0,0,0,0,0,0,0,0,0,0,0,0,0,0,0,0,0,0,0,0,0,0,0,0,0,0],"id":23,"left_children":[1,3,5,7,9,11,13,15,17,19,21,-1,-1,23,-1,25,27,-1,-1,29,-1,31,33,35,37,-1,-1,-1,-1,-1,-1,-1,-1,-1,-1,-1,-1,-1,-1],"loss_changes":[3.3642647E1,1.572486E1,9.270472E0,6.9154205E0,7.729504E0,5.4530144E-2,6.1927032E0,4.3992195E0,1.200168E0,2.50204E0,4.002747E0,0E0,0E0,1.8921905E0,0E0,1.2989235E0,3.8269396E0,0E0,0E0,4.1939015E0,0E0,2.4283028E0,3.839693E0,3.2873015E0,4.0754404E0,0E0,0E0,0E0,0E0,0E0,0E0,0E0,0E0,0E0,0E0,0E0,0E0,0E0,0E0],"parents":[2147483647,0,0,1,1,2,2,3,3,4,4,5,5,6,6,7,7,8,8,9,9,10,10,13,13,15,15,16,16,19,19,21,21,22,22,23,23,24,24],"right_children":[2,4,6,8,10,12,14,16,18,20,22,-1,-1,24,-1,26,28,-1,-1,30,-1,32,34,36,38,-1,-1,-1,-1,-1,-1,-1,-1,-1,-1,-1,-1,-1,-1],"split_conditions":[3E0,1E0,1.1E2,2.6650517E0,6E-1,1.01E2,1E0,2.73E2,4.6E1,1E0,3E2,1.2039537E-2,4.7502633E-2,1E0,-5.5474337E-2,1E0,1.3272849E0,4.435949E-3,-5.1469255E-2,2.37E2,4.294182E-2,5.3E1,2.1E0,5.1E1,1E0,5.557571E-2,2.3458228E-2,2.5380963E-2,-4.478155E-2,-3.8111128E-2,2.9607851E-2,2.0748917E-3,-5.7543535E-2,5.5578925E-2,-3.583799E-2,-3.2918867E-2,1.6867956E-2,-5.691555E-2,-1.968952E-3],"split_indices":[12,11,3,9,9,3,8,4,0,6,4,0,0,11,0,8,9,0,0,4,0,0,9,0,6,0,0,0,0,0,0,0,0,0,0,0,0,0,0],"split_type":[0,0,0,0,0,0,0,0,0,0,0,0,0,0,0,0,0,0,0,0,0,0,0,0,0,0,0,0,0,0,0,0,0,0,0,0,0,0,0],"sum_hessian":[1.237754E2,7.282734E1,5.094806E1,4.7207466E1,2.5619875E1,3.1829858E0,4.7765076E1,4.44183E1,2.7891653E0,1.1926399E1,1.3693477E1,1.0101804E0,2.1728055E0,2.4475645E1,2.328943E1,3.433432E1,1.008398E1,1.3371172E0,1.4520481E0,7.2277126E0,4.6986866E0,1.1000295E1,2.693182E0,1.1765524E1,1.2710122E1,2.843626E1,5.89806E0,8.605332E0,1.4786468E0,3.1807923E0,4.0469203E0,1.976779E0,9.023516E0,1.4577249E0,1.2354571E0,4.592375E0,7.1731486E0,6.283634E0,6.4264874E0],"tree_param":{"num_deleted":"0","num_feature":"13","num_nodes":"39","size_leaf_vector":"1"}},{"base_weights":[3.503638E-2,-5.4085696E-1,5.48734E-1,2.3882216E-2,-8.656392E-1,8.8259524E-1,1.3687596E-1,4.1279933E-1,-5.250029E-1,-4.2509624E-1,-5.792553E-2,9.5193017E-1,-3.1830736E-2,7.567379E-1,-1.8135016E-1,-4.8409585E-2,6.7313737E-1,-6.1195362E-3,-5.3501945E-2,-5.6678202E-2,-6.833936E-2,1.1127846E0,3.120602E-1,-3.3233503E-1,5.565542E-2,4.88136E-2,-3.5300887E-1,3.5047818E-3,6.282272E-2,-2.9651178E-2,3.824522E-2,-2.8560052E-2,1.5824063E-2,1.2033169E-2,5.8687504E-2,-2.0439835E-2,4.3021895E-2,-5.9396825E-3,-2.0345436E-2,-3.4025226E-2,2.4212226E-2],"categories":[],"categories_nodes":[],"categories_segments":[],"categories_sizes":[],"default_left":[0,0,0,0,0,0,0,0,0,0,0,0,0,0,0,0,0,0,0,0,0,0,0,0,0,0,0,0,0,0,0,0,0,0,0,0,0,0,0,0,0],"id":24,"left_children":[1,3,5,7,9,11,13,15,17,19,-1,21,-1,23,25,-1,27,29,-1,-1,31,33,35,37,-1,-1,39,-1,-1,-1,-1,-1,-1,-1,-1,-1,-1,-1,-1,-1,-1],"loss_changes":[3.6717148E1,1.075886E1,8.894642E0,4.987614E0,4.306635E0,4.400984E0,6.1609173E0,5.555833E0,2.7391493E0,4.0759673E0,0E0,3.2403488E0,0E0,4.465474E0,4.514665E0,0E0,4.1566124E0,3.1593826E0,0E0,0E0,2.5016534E0,1.1777763E0,3.6690533E0,5.355656E-3,0E0,0E0,5.5418515E0,0E0,0E0,0E0,0E0,0E0,0E0,0E0,0E0,0E0,0E0,0E0,0E0,0E0,0E0],"parents":[2147483647,0,0,1,1,2,2,3,3,4,4,5,5,6,6,7,7,8,8,9,9,11,11,13,13,14,14,16,16,17,17,20,20,21,21,22,22,23,23,26,26],"right_children":[2,4,6,8,10,12,14,16,18,20,-1,22,-1,24,26,-1,28,30,-1,-1,32,34,36,38,-1,-1,40,-1,-1,-1,-1,-1,-1,-1,-1,-1,-1,-1,-1,-1,-1],"split_conditions":[1E0,6.297077E-1,5.7E1,1E0,3E0,2.5E0,1E0,4.2E1,1.6E2,1.2E2,-5.792553E-2,3E0,-3.1830736E-2,5.9E1,1.2E2,-4.8409585E-2,1E0,1E0,-5.3501945E-2,-5.6678202E-2,2E0,2E0,5.1E1,1.32E2,5.565542E-2,4.88136E-2,1E0,3.5047818E-3,6.282272E-2,-2.9651178E-2,3.824522E-2,-2.8560052E-2,1.5824063E-2,1.2033169E-2,5.8687504E-2,-2.0439835E-2,4.3021895E-2,-5.9396825E-3,-2.0345436E-2,-3.4025226E-2,2.4212226E-2],"split_indices":[2,9,0,11,12,9,1,0,7,7,0,12,0,0,3,0,1,6,0,0,12,12,0,3,0,0,5,0,0,0,0,0,0,0,0,0,0,0,0,0,0],"split_type":[0,0,0,0,0,0,0,0,0,0,0,0,0,0,0,0,0,0,0,0,0,0,0,0,0,0,0,0,0,0,0,0,0,0,0,0,0,0,0,0,0],"sum_hessian":[1.22110374E2,5.7545124E1,6.456525E1,2.1349161E1,3.6195965E1,3.5027897E1,2.953735E1,1.2640535E1,8.708625E0,1.5432926E1,2.0763039E1,3.3856148E1,1.17175E0,9.552456E0,1.9984894E1,1.5736995E0,1.1066835E1,4.9793906E0,3.7292345E0,4.439435E0,1.0993491E1,2.6464308E1,7.3918395E0,2.3717628E0,7.1806927E0,1.9754801E0,1.8009413E1,5.9921894E0,5.0746465E0,2.9583526E0,2.021038E0,4.5558434E0,6.4376473E0,2.0523672E0,2.4411942E1,3.3036451E0,4.0881944E0,1.2850368E0,1.086726E0,1.30802355E1,4.929178E0],"tree_param":{"num_deleted":"0","num_feature":"13","num_nodes":"41","size_leaf_vector":"1"}},{"base_weights":[-2.3584427E-2,-5.205878E-1,4.4954604E-1,-1.7675862E-2,-9.549367E-1,8.113521E-1,3.5612382E-2,5.296397E-1,-5.282832E-1,3.7822423E-3,-1.0253729E0,2.7537805E-1,9.71273E-1,-4.801613E-1,4.1683254E-1,-2.8191814E-2,7.250181E-1,-8.2179207E-1,4.434937E-1,-5.716726E-2,-5.022457E-1,-1.9001609E-1,4.6912618E-2,5.482931E-2,-7.526376E-2,2.9117095E-1,-8.740242E-1,-2.1268753E-3,8.685277E-1,4.693674E-2,-1.9636655E-2,2.2636319E-2,-5.025038E-2,-1.1791094E-2,3.9640877E-2,2.8500665E-2,-5.1304378E-2,3.017584E-2,-7.445236E-2,6.789088E-3,-1.4598823E-2,-2.5081387E-2,4.7538266E-2,-1.486903E-4,-5.5579443E-2,2.4836412E-2,-3.0091688E-2,6.094108E-2,-2.6692137E-2],"categories":[],"categories_nodes":[],"categories_segments":[],"categories_sizes":[],"default_left":[0,0,0,0,0,0,0,0,0,0,0,0,0,0,0,0,0,0,0,0,0,0,0,0,0,0,0,0,0,0,0,0,0,0,0,0,0,0,0,0,0,0,0,0,0,0,0,0,0],"id":25,"left_children":[1,3,5,7,9,11,13,15,17,-1,19,21,23,25,27,-1,29,31,33,-1,35,37,-1,-1,39,41,43,45,47,-1,-1,-1,-1,-1,-1,-1,-1,-1,-1,-1,-1,-1,-1,-1,-1,-1,-1,-1,-1],"loss_changes":[2.7864056E1,1.2601938E1,9.06667E0,8.046076E0,2.3262749E0,2.5063095E0,5.975319E0,3.3810163E0,4.6079698E0,0E0,1.2194958E0,2.9030833E0,3.299324E0,4.1879673E0,3.2992244E0,0E0,3.2927594E0,3.2050767E0,1.1600624E0,0E0,4.5907965E0,7.1050463E0,0E0,0E0,2.0240946E-1,3.157816E0,1.8220134E0,3.301742E0,4.770676E0,0E0,0E0,0E0,0E0,0E0,0E0,0E0,0E0,0E0,0E0,0E0,0E0,0E0,0E0,0E0,0E0,0E0,0E0,0E0,0E0],"parents":[2147483647,0,0,1,1,2,2,3,3,4,4,5,5,6,6,7,7,8,8,10,10,11,11,12,12,13,13,14,14,16,16,17,17,18,18,20,20,21,21,24,24,25,25,26,26,27,27,28,28],"right_children":[2,4,6,8,10,12,14,16,18,-1,20,22,24,26,28,-1,30,32,34,-1,36,38,-1,-1,40,42,44,46,48,-1,-1,-1,-1,-1,-1,-1,-1,-1,-1,-1,-1,-1,-1,-1,-1,-1,-1,-1,-1],"split_conditions":[1E0,1E0,5.7E1,1E0,1.1E2,1.2E2,6E1,4.2E1,2E0,3.7822423E-3,6.4E1,5E1,1.49E2,2.22E2,2E0,-2.8191814E-2,3.04E2,1.12E2,5.2E1,-5.716726E-2,6.5E1,4.7E1,4.6912618E-2,5.482931E-2,1.62E2,1.35E2,1.22E2,2.44E2,3.19E2,4.693674E-2,-1.9636655E-2,2.2636319E-2,-5.025038E-2,-1.1791094E-2,3.9640877E-2,2.8500665E-2,-5.1304378E-2,3.017584E-2,-7.445236E-2,6.789088E-3,-1.4598823E-2,-2.5081387E-2,4.7538266E-2,-1.486903E-4,-5.5579443E-2,2.4836412E-2,-3.0091688E-2,6.094108E-2,-2.6692137E-2],"split_indices":[2,11,0,8,3,3,0,0,10,0,0,0,3,4,10,0,4,3,0,0,0,0,0,0,3,3,3,4,4,0,0,0,0,0,0,0,0,0,0,0,0,0,0,0,0,0,0,0,0],"split_type":[0,0,0,0,0,0,0,0,0,0,0,0,0,0,0,0,0,0,0,0,0,0,0,0,0,0,0,0,0,0,0,0,0,0,0,0,0,0,0,0,0,0,0,0,0,0,0,0,0],"sum_hessian":[1.1650087E2,5.6768097E1,5.9732773E1,2.678996E1,2.9978134E1,3.1361017E1,2.8371756E1,1.2912206E1,1.3877756E1,1.9130815E0,2.8065052E1,7.832478E0,2.3528538E1,1.1947622E1,1.6424133E1,1.6714904E0,1.1240716E1,1.0777065E1,3.1006908E0,2.1933212E1,6.1318407E0,5.020797E0,2.8116813E0,2.0969776E1,2.5587618E0,4.1267056E0,7.820917E0,9.0371895E0,7.3869443E0,9.570895E0,1.6698204E0,1.1696342E0,9.60743E0,1.1633301E0,1.9373605E0,1.9835482E0,4.1482925E0,3.4492066E0,1.5715902E0,1.4855287E0,1.0732331E0,1.9828782E0,2.1438277E0,1.8929129E0,5.9280043E0,5.027157E0,4.0100327E0,6.015288E0,1.3716562E0],"tree_param":{"num_deleted":"0","num_feature":"13","num_nodes":"49","size_leaf_vector":"1"}},{"base_weights":[2.1177623E-2,4.1846797E-1,-4.790935E-1,7.423329E-1,-2.1256332E-1,-8.2354534E-1,6.508724E-3,8.813638E-1,-1.6074027E-1,3.2000104E-1,-5.744457E-1,-1.0197015E-1,-5.0983913E-2,5.066018E-2,-3.9799923E-1,1.0866389E0,2.6012266E-1,-5.859365E-1,4.097747E-2,-4.294106E-2,5.756746E-1,-9.6905714E-1,2.5106755E-1,-3.458045E-2,3.3031407E-1,-9.489798E-1,1.22552454E-1,8.82649E-3,5.710345E-2,-1.2664492E-2,3.981745E-2,-5.159065E-3,-4.9800947E-2,4.989874E-2,4.6880005E-4,-5.6658387E-2,6.039478E-3,-1.655123E-2,4.6209674E-2,4.7802832E-2,-1.9607177E-2,-5.651595E-2,-1.1684038E-2,4.255516E-2,-1.2866377E-2],"categories":[],"categories_nodes":[],"categories_segments":[],"categories_sizes":[],"default_left":[0,0,0,0,0,0,0,0,0,0,0,0,0,0,0,0,0,0,0,0,0,0,0,0,0,0,0,0,0,0,0,0,0,0,0,0,0,0,0,0,0,0,0,0,0],"id":26,"left_children":[1,3,5,7,9,11,13,15,17,19,21,23,-1,-1,25,27,29,31,-1,-1,33,35,37,-1,39,41,43,-1,-1,-1,-1,-1,-1,-1,-1,-1,-1,-1,-1,-1,-1,-1,-1,-1,-1],"loss_changes":[2.3046991E1,1.33605795E1,8.593928E0,5.529806E0,4.556424E0,4.1483974E0,9.484057E0,4.4795666E0,3.2191558E0,3.454574E0,4.760439E0,2.148481E0,0E0,0E0,4.884777E0,1.1985054E0,3.1170225E0,9.1999984E-1,0E0,0E0,2.064002E0,1.8516788E0,2.374335E0,0E0,2.6457105E0,7.9835415E-1,2.830132E0,0E0,0E0,0E0,0E0,0E0,0E0,0E0,0E0,0E0,0E0,0E0,0E0,0E0,0E0,0E0,0E0,0E0,0E0],"parents":[2147483647,0,0,1,1,2,2,3,3,4,4,5,5,6,6,7,7,8,8,9,9,10,10,11,11,14,14,15,15,16,16,17,17,20,20,21,21,22,22,24,24,25,25,26,26],"right_children":[2,4,6,8,10,12,14,16,18,20,22,24,-1,-1,26,28,30,32,-1,-1,34,36,38,-1,40,42,44,-1,-1,-1,-1,-1,-1,-1,-1,-1,-1,-1,-1,-1,-1,-1,-1,-1,-1],"split_conditions":[1E0,3E0,2E0,1.8E0,6.297077E-1,6E-1,1E0,5.9E1,6.1E1,4.2E1,1.56E2,1E-1,-5.0983913E-2,5.066018E-2,1E0,2E0,1E-1,5.2E1,4.097747E-2,-4.294106E-2,5.7E1,3.2E0,5.2E1,-3.458045E-2,1.5E2,8.5824585E-1,1.55E2,8.82649E-3,5.710345E-2,-1.2664492E-2,3.981745E-2,-5.159065E-3,-4.9800947E-2,4.989874E-2,4.6880005E-4,-5.6658387E-2,6.039478E-3,-1.655123E-2,4.6209674E-2,4.7802832E-2,-1.9607177E-2,-5.651595E-2,-1.1684038E-2,4.255516E-2,-1.2866377E-2],"split_indices":[11,12,10,9,9,9,1,0,0,0,7,9,0,0,6,12,9,0,0,0,0,9,0,0,7,9,7,0,0,0,0,0,0,0,0,0,0,0,0,0,0,0,0,0,0],"split_type":[0,0,0,0,0,0,0,0,0,0,0,0,0,0,0,0,0,0,0,0,0,0,0,0,0,0,0,0,0,0,0,0,0,0,0,0,0,0,0,0,0,0,0,0,0],"sum_hessian":[1.1394931E2,6.3602722E1,5.034659E1,4.191451E1,2.1688211E1,2.904687E1,2.1299719E1,3.6343372E1,5.571138E0,8.821613E0,1.2866598E1,6.5327425E0,2.2514126E1,5.674032E0,1.5625688E1,2.675398E1,9.589393E0,4.1663046E0,1.4048334E0,1.1518373E0,7.6697764E0,8.58765E0,4.278948E0,2.5096571E0,4.023085E0,7.19115E0,8.434537E0,1.7761393E0,2.497784E1,5.168464E0,4.4209285E0,2.4884615E0,1.677843E0,3.9568205E0,3.712956E0,7.4292006E0,1.1584492E0,2.567181E0,1.7117667E0,1.9825761E0,2.0405092E0,5.2739253E0,1.917225E0,2.4655476E0,5.96899E0],"tree_param":{"num_deleted":"0","num_feature":"13","num_nodes":"45","size_leaf_vector":"1"}},{"base_weights":[-3.0515889E-2,-5.034669E-1,4.1298977E-1,-6.170689E-2,-9.397796E-1,9.400528E-1,1.977398E-1,3.0795607E-1,-5.883805E-1,-1.2540129E-3,-9.962588E-1,1.0437899E0,3.8488123E-3,5.421736E-1,-2.3786013E-1,-5.0345954E-2,4.9967873E-1,1.0123607E-1,-5.2206185E-2,-1.5168363E-1,-1.0686375E0,5.5884548E-2,1.0496067E-2,9.2176497E-1,2.6206035E-2,9.638341E-3,-5.7697363E-2,4.2037897E-2,-4.193114E-3,-4.761413E-2,3.5878323E-2,-3.3270556E-2,2.482405E-2,-5.799613E-2,-2.7032087E-2,3.4765482E-3,5.162722E-2,-2.1501085E-2,3.40613E-2,2.4503734E-2,-2.1113204E-2],"categories":[],"categories_nodes":[],"categories_segments":[],"categories_sizes":[],"default_left":[0,0,0,0,0,0,0,0,0,0,0,0,0,0,0,0,0,0,0,0,0,0,0,0,0,0,0,0,0,0,0,0,0,0,0,0,0,0,0,0,0],"id":27,"left_children":[1,3,5,7,9,11,13,15,17,-1,19,21,-1,23,25,-1,27,29,-1,31,33,-1,-1,35,37,39,-1,-1,-1,-1,-1,-1,-1,-1,-1,-1,-1,-1,-1,-1,-1],"loss_changes":[2.4303808E1,1.0744034E1,6.6021366E0,5.811274E0,1.4279976E0,1.4491806E0,6.6928873E0,4.9520817E0,3.9619427E0,0E0,1.4556046E0,7.0025253E-1,0E0,4.8205795E0,4.5486903E0,0E0,3.2691116E0,4.44533E0,0E0,1.4139783E0,5.397377E-1,0E0,0E0,1.2709246E0,3.7337375E0,3.682166E0,0E0,0E0,0E0,0E0,0E0,0E0,0E0,0E0,0E0,0E0,0E0,0E0,0E0,0E0,0E0],"parents":[2147483647,0,0,1,1,2,2,3,3,4,4,5,5,6,6,7,7,8,8,10,10,11,11,13,13,14,14,16,16,17,17,19,19,20,20,23,23,24,24,25,25],"right_children":[2,4,6,8,10,12,14,16,18,-1,20,22,-1,24,26,-1,28,30,-1,32,34,-1,-1,36,38,40,-1,-1,-1,-1,-1,-1,-1,-1,-1,-1,-1,-1,-1,-1,-1],"split_conditions":[1E0,1E0,1E0,3E0,1.1E2,2E0,5.7E1,1.18E2,6E-1,-1.2540129E-3,1.06E2,1.74E2,3.8488123E-3,6E-1,2.78E2,-5.0345954E-2,5.9E1,4.2E1,-5.2206185E-2,6E1,3.02E2,5.5884548E-2,1.0496067E-2,1.1E2,5.1E1,1E0,-5.7697363E-2,4.2037897E-2,-4.193114E-3,-4.761413E-2,3.5878323E-2,-3.3270556E-2,2.482405E-2,-5.799613E-2,-2.7032087E-2,3.4765482E-3,5.162722E-2,-2.1501085E-2,3.40613E-2,2.4503734E-2,-2.1113204E-2],"split_indices":[2,11,1,12,3,11,0,7,9,0,7,7,0,9,4,0,0,0,0,0,4,0,0,3,0,11,0,0,0,0,0,0,0,0,0,0,0,0,0,0,0],"split_type":[0,0,0,0,0,0,0,0,0,0,0,0,0,0,0,0,0,0,0,0,0,0,0,0,0,0,0,0,0,0,0,0,0,0,0,0,0,0,0,0,0],"sum_hessian":[1.1387552E2,5.5042946E1,5.8832573E1,2.7917912E1,2.7125036E1,1.6083385E1,4.2749187E1,1.664815E1,1.1269762E1,1.6614461E0,2.5463589E1,1.4170754E1,1.9126306E0,2.3736113E1,1.9013075E1,1.5774823E0,1.5070667E1,4.7937984E0,6.4759636E0,2.2542932E0,2.3209295E1,1.2704463E1,1.4662917E0,1.322221E1,1.0513904E1,1.5747945E1,3.26513E0,9.233128E0,5.8375406E0,1.5681726E0,3.2256262E0,1.24272E0,1.0115731E0,1.8767708E1,4.4415874E0,1.7082405E0,1.1513969E1,6.399847E0,4.1140566E0,7.391337E0,8.356607E0],"tree_param":{"num_deleted":"0","num_feature":"13","num_nodes":"41","size_leaf_vector":"1"}},{"base_weights":[1.589758E-2,3.0575672E-1,-5.777348E-1,5.9362924E-1,-1.7457291E-1,-8.282144E-1,8.4931456E-2,2.9784423E-1,8.8422793E-1,8.634945E-2,-5.4182023E-2,-4.326568E-1,-5.6296844E-2,5.469063E-1,-3.8894263E-1,5.615735E-2,-8.7634884E-2,9.731225E-1,-1.5967492E-2,-4.806393E-2,2.7640936E-1,-7.264821E-1,4.8858842E-1,5.4869354E-2,-2.2651915E-1,2.2082822E-2,-3.8345344E-2,2.355693E-2,-2.2444973E-2,1.5394086E-2,5.1724404E-2,5.8967907E-2,-1.2556086E-3,-1.9617971E-2,-4.5454036E-2,-3.9159512E-4,3.939043E-2,-2.701898E-2,1.1103651E-2],"categories":[],"categories_nodes":[],"categories_segments":[],"categories_sizes":[],"default_left":[0,0,0,0,0,0,0,0,0,0,0,0,0,0,0,0,0,0,0,0,0,0,0,0,0,0,0,0,0,0,0,0,0,0,0,0,0,0,0],"id":28,"left_children":[1,3,5,7,9,11,13,15,17,19,-1,21,-1,23,25,-1,27,29,-1,-1,31,33,35,-1,37,-1,-1,-1,-1,-1,-1,-1,-1,-1,-1,-1,-1,-1,-1],"loss_changes":[1.933681E1,1.0539505E1,6.1916027E0,3.8124008E0,6.9853015E0,2.6755466E0,2.6258311E0,8.054087E0,2.8154964E0,4.9451513E0,0E0,3.9163463E0,0E0,2.801898E0,2.2304235E0,0E0,3.8396363E0,5.8154297E-1,0E0,0E0,5.657015E0,2.7644777E-1,5.675699E-1,0E0,5.877985E-1,0E0,0E0,0E0,0E0,0E0,0E0,0E0,0E0,0E0,0E0,0E0,0E0,0E0,0E0],"parents":[2147483647,0,0,1,1,2,2,3,3,4,4,5,5,6,6,7,7,8,8,9,9,11,11,13,13,14,14,16,16,17,17,20,20,21,21,22,22,24,24],"right_children":[2,4,6,8,10,12,14,16,18,20,-1,22,-1,24,26,-1,28,30,-1,-1,32,34,36,-1,38,-1,-1,-1,-1,-1,-1,-1,-1,-1,-1,-1,-1,-1,-1],"split_conditions":[1E0,1E0,2E0,1.61E2,2E0,2.44E2,5.8E1,1E0,3.26E2,1.27E2,-5.4182023E-2,2.32E2,-5.6296844E-2,2.34E2,1E0,5.615735E-2,2.29E2,1E0,-1.5967492E-2,-4.806393E-2,1.5E2,1.9E0,1.43E2,5.4869354E-2,2.83E2,2.2082822E-2,-3.8345344E-2,2.355693E-2,-2.2444973E-2,1.5394086E-2,5.1724404E-2,5.8967907E-2,-1.2556086E-3,-1.9617971E-2,-4.5454036E-2,-3.9159512E-4,3.939043E-2,-2.701898E-2,1.1103651E-2],"split_indices":[8,11,10,7,9,4,0,1,4,7,0,4,0,4,11,0,4,10,0,0,7,9,7,0,4,0,0,0,0,0,0,0,0,0,0,0,0,0,0],"split_type":[0,0,0,0,0,0,0,0,0,0,0,0,0,0,0,0,0,0,0,0,0,0,0,0,0,0,0,0,0,0,0,0,0,0,0,0,0,0,0],"sum_hessian":[1.1035113E2,7.4472565E1,3.587856E1,4.6417572E1,2.8054993E1,2.5855635E1,1.0022926E1,2.4007027E1,2.2410547E1,2.2501562E1,5.55343E0,1.2156967E1,1.3698668E1,4.997145E0,5.025781E0,7.0339174E0,1.6973108E1,2.1047483E1,1.3630624E0,2.8322375E0,1.9669325E1,9.377489E0,2.7794776E0,2.6746287E0,2.3225164E0,1.5190543E0,3.506727E0,6.545283E0,1.0427826E1,2.2857475E0,1.8761736E1,4.1951127E0,1.5474213E1,4.4265146E0,4.9509745E0,1.411522E0,1.3679556E0,1.2460778E0,1.0764387E0],"tree_param":{"num_deleted":"0","num_feature":"13","num_nodes":"39","size_leaf_vector":"1"}},{"base_weights":[-2.7550347E-2,-5.162138E-1,3.9957726E-1,-1.5233203E-2,-8.44241E-1,5.189907E-2,1.5276471E-1,-1.9143033E-1,6.2171936E-1,2.9325768E-2,-9.1837406E-1,5.182204E-1,-2.8945476E-1,-4.8750434E-2,-1.7343188E-2,3.9832555E-2,3.9851465E-3,-1.0057576E0,1.9479183E-2,-2.6062715E-1,7.7607334E-1,2.4663956E-1,-1.0919763E0,1.0394315E-2,-2.6611924E-2,-5.4599147E-2,-2.4937458E-2,-4.390362E-2,2.9386355E-2,4.8098143E-2,4.1922787E-3,2.7385771E-2,-3.553539E-2,-5.8775123E-2,-1.5278353E-2],"categories":[],"categories_nodes":[],"categories_segments":[],"categories_sizes":[],"default_left":[0,0,0,0,0,0,0,0,0,0,0,0,0,0,0,0,0,0,0,0,0,0,0,0,0,0,0,0,0,0,0,0,0,0,0],"id":29,"left_children":[1,3,5,7,9,-1,11,13,15,-1,17,19,21,-1,23,-1,-1,25,-1,27,29,31,33,-1,-1,-1,-1,-1,-1,-1,-1,-1,-1,-1,-1],"loss_changes":[2.2741182E1,8.334081E0,9.007718E0,2.4888642E0,3.792328E0,0E0,7.1198072E0,2.3437057E0,3.926599E-1,0E0,3.7697372E0,5.0163717E0,8.940818E0,0E0,1.8707743E0,0E0,0E0,6.787033E-1,0E0,4.03129E0,2.2690573E0,4.1073027E0,1.8312263E-1,0E0,0E0,0E0,0E0,0E0,0E0,0E0,0E0,0E0,0E0,0E0,0E0],"parents":[2147483647,0,0,1,1,2,2,3,3,4,4,6,6,7,7,8,8,10,10,11,11,12,12,14,14,17,17,19,19,20,20,21,21,22,22],"right_children":[2,4,6,8,10,-1,12,14,16,-1,18,20,22,-1,24,-1,-1,26,-1,28,30,32,34,-1,-1,-1,-1,-1,-1,-1,-1,-1,-1,-1,-1],"split_conditions":[1E0,6.297077E-1,1E0,3E-1,1.05E2,5.189907E-2,5.7E1,2.04E2,2.66E2,2.9325768E-2,1.71E2,1.53E2,2.46E2,-4.8750434E-2,2.73E2,3.9832555E-2,3.9851465E-3,6.4E1,1.9479183E-2,5E1,8.5824585E-1,1.9E0,1.9E0,1.0394315E-2,-2.6611924E-2,-5.4599147E-2,-2.4937458E-2,-4.390362E-2,2.9386355E-2,4.8098143E-2,4.1922787E-3,2.7385771E-2,-3.553539E-2,-5.8775123E-2,-1.5278353E-2],"split_indices":[2,9,1,9,3,0,0,4,4,0,7,7,4,0,4,0,0,0,0,0,9,9,9,0,0,0,0,0,0,0,0,0,0,0,0],"split_type":[0,0,0,0,0,0,0,0,0,0,0,0,0,0,0,0,0,0,0,0,0,0,0,0,0,0,0,0,0,0,0,0,0,0,0],"sum_hessian":[1.06966354E2,4.979214E1,5.7174213E1,2.0116142E1,2.9675999E1,1.5047328E1,4.212689E1,1.6305178E1,3.810964E0,1.1214037E0,2.8554594E1,2.2971275E1,1.9155611E1,2.1276746E0,1.4177504E1,2.5259438E0,1.2850202E0,2.6982935E1,1.5716588E0,5.710846E0,1.726043E1,1.1899361E1,7.2562513E0,1.0277914E1,3.8995895E0,2.207494E1,4.907995E0,3.2849665E0,2.4258795E0,1.3299378E1,3.9610503E0,9.377968E0,2.5213923E0,6.1122813E0,1.1439697E0],"tree_param":{"num_deleted":"0","num_feature":"13","num_nodes":"35","size_leaf_vector":"1"}},{"base_weights":[9.558061E-3,-5.130141E-1,4.8721367E-1,-5.1953465E-2,-7.991158E-1,2.6885552E-2,6.8214E-1,9.016382E-2,-4.16988E-2,-3.7700647E-1,-1.0300846E0,1.934528E-1,-4.295334E-2,8.316932E-1,2.1998906E-1,2.5293538E-1,-4.4851787E-2,-6.143745E-1,4.8167822E-1,5.3476063E-3,-5.4827657E-2,-5.797018E-1,4.0639862E-1,8.9072347E-1,-1.284896E-2,-7.7740914E-1,6.577469E-1,-1.1159684E-2,3.6845706E-2,4.89095E-3,-5.241349E-2,-5.3499057E-3,4.040894E-2,-2.5436096E-3,-4.5657746E-2,4.1214466E-2,-6.1916243E-3,1.1245112E-2,5.014534E-2,-4.5941E-2,-1.2342411E-2,6.7948895E-3,4.941363E-2],"categories":[],"categories_nodes":[],"categories_segments":[],"categories_sizes":[],"default_left":[0,0,0,0,0,0,0,0,0,0,0,0,0,0,0,0,0,0,0,0,0,0,0,0,0,0,0,0,0,0,0,0,0,0,0,0,0,0,0,0,0,0,0],"id":30,"left_children":[1,3,5,7,9,11,13,15,-1,17,19,21,-1,23,25,27,-1,29,31,-1,-1,33,35,37,-1,39,41,-1,-1,-1,-1,-1,-1,-1,-1,-1,-1,-1,-1,-1,-1,-1,-1],"loss_changes":[2.7093962E1,6.797291E0,5.0693216E0,2.400407E0,2.7239285E0,2.8089044E0,2.5672722E0,3.2167668E0,0E0,2.9185653E0,1.6330223E0,2.8517652E0,0E0,2.1377735E0,5.3526125E0,4.0249953E0,0E0,3.353407E0,7.2980076E-1,0E0,0E0,6.313243E-1,2.9929402E0,1.8957195E0,0E0,6.1328888E-2,1.2882867E0,0E0,0E0,0E0,0E0,0E0,0E0,0E0,0E0,0E0,0E0,0E0,0E0,0E0,0E0,0E0,0E0],"parents":[2147483647,0,0,1,1,2,2,3,3,4,4,5,5,6,6,7,7,9,9,10,10,11,11,13,13,14,14,15,15,17,17,18,18,21,21,22,22,23,23,25,25,26,26],"right_children":[2,4,6,8,10,12,14,16,-1,18,20,22,-1,24,26,28,-1,30,32,-1,-1,34,36,38,-1,40,42,-1,-1,-1,-1,-1,-1,-1,-1,-1,-1,-1,-1,-1,-1,-1,-1],"split_conditions":[1E0,6.297077E-1,1.51E2,1.44E2,1E0,1.5E2,2.81E2,3.04E2,-4.16988E-2,2E0,1.05E2,5E1,-4.295334E-2,2.5E0,2.89E2,1.28E2,-4.4851787E-2,1E0,5.3E1,5.3476063E-3,-5.4827657E-2,8.5824585E-1,2.46E2,1.12E2,-1.284896E-2,2E0,1.59E2,-1.1159684E-2,3.6845706E-2,4.89095E-3,-5.241349E-2,-5.3499057E-3,4.040894E-2,-2.5436096E-3,-4.5657746E-2,4.1214466E-2,-6.1916243E-3,1.1245112E-2,5.014534E-2,-4.5941E-2,-1.2342411E-2,6.7948895E-3,4.941363E-2],"split_indices":[2,9,7,3,8,7,4,4,0,10,3,0,0,9,4,3,0,1,0,0,0,9,4,3,0,10,7,0,0,0,0,0,0,0,0,0,0,0,0,0,0,0,0],"split_type":[0,0,0,0,0,0,0,0,0,0,0,0,0,0,0,0,0,0,0,0,0,0,0,0,0,0,0,0,0,0,0,0,0,0,0,0,0,0,0,0,0,0,0],"sum_hessian":[1.0654403E2,5.0844414E1,5.5699615E1,1.9921679E1,3.0922735E1,1.6908138E1,3.8791477E1,1.7606709E1,2.3149703E0,1.1867132E1,1.9055605E1,1.4890273E1,2.0178652E0,2.8703377E1,1.0088099E1,1.5753091E1,1.8536179E0,9.520011E0,2.3471205E0,1.0187843E0,1.803682E1,2.8435905E0,1.2046683E1,2.7399538E1,1.3038386E0,2.840453E0,7.247646E0,8.2125635E0,7.540528E0,3.8973973E0,5.622614E0,1.0772109E0,1.2699095E0,1.5453508E0,1.2982396E0,6.4268827E0,5.6198E0,4.3841105E0,2.3015429E1,1.6649128E0,1.1755402E0,3.3576264E0,3.8900194E0],"tree_param":{"num_deleted":"0","num_feature":"13","num_nodes":"43","size_leaf_vector":"1"}},{"base_weights":[1.2201753E-2,3.420564E-1,-4.5118034E-1,5.907533E-1,-3.2810488E-1,-7.715855E-1,-3.0678032E-2,7.646909E-1,1.2964478E-1,-6.8570304E-1,2.2501154E-1,-9.2539436E-1,-2.5476864E-1,4.8239674E-2,-4.2288446E-1,8.770136E-1,-1.03495546E-1,-4.6173807E-2,3.562086E-1,-5.4112136E-2,-3.5124776E-1,7.118176E-1,-4.3860126E-2,-1.0112319E0,-3.885403E-1,3.1419646E-2,-6.941524E-1,1.5029275E-1,-8.3760864E-1,-2.5627708E-2,4.7370493E-2,-5.6590255E-2,4.415243E-2,-2.509932E-2,2.9330153E-2,-4.329322E-2,2.6508702E-3,5.1867824E-2,3.695586E-3,-9.578395E-3,-5.4791182E-2,1.473009E-2,-3.886875E-2,1.8609501E-3,-4.629153E-2,-8.1587145E-3,3.8723994E-2,-5.0636727E-2,5.0180657E-3],"categories":[],"categories_nodes":[],"categories_segments":[],"categories_sizes":[],"default_left":[0,0,0,0,0,0,0,0,0,0,0,0,0,0,0,0,0,0,0,0,0,0,0,0,0,0,0,0,0,0,0,0,0,0,0,0,0,0,0,0,0,0,0,0,0,0,0,0,0],"id":31,"left_children":[1,3,5,7,9,11,13,15,17,19,21,23,25,-1,27,29,31,-1,33,-1,35,37,-1,39,41,-1,43,45,47,-1,-1,-1,-1,-1,-1,-1,-1,-1,-1,-1,-1,-1,-1,-1,-1,-1,-1,-1,-1],"loss_changes":[1.6154795E1,1.0480568E1,5.8992996E0,3.5399017E0,3.5856214E0,1.7442703E0,8.237101E0,3.2835503E0,3.5814123E0,1.0499973E0,4.6833878E0,4.7418594E-1,3.1885335E0,0E0,3.7106125E0,3.331747E0,5.7117476E0,0E0,2.65523E0,0E0,1.5708659E0,1.1276257E0,0E0,8.716154E-1,1.3493764E0,0E0,9.1751266E-1,1.5309532E0,1.5638452E0,0E0,0E0,0E0,0E0,0E0,0E0,0E0,0E0,0E0,0E0,0E0,0E0,0E0,0E0,0E0,0E0,0E0,0E0,0E0,0E0],"parents":[2147483647,0,0,1,1,2,2,3,3,4,4,5,5,6,6,7,7,8,8,9,9,10,10,11,11,12,12,14,14,15,15,16,16,18,18,20,20,21,21,23,23,24,24,26,26,27,27,28,28],"right_children":[2,4,6,8,10,12,14,16,18,20,22,24,26,-1,28,30,32,-1,34,-1,36,38,-1,40,42,-1,44,46,48,-1,-1,-1,-1,-1,-1,-1,-1,-1,-1,-1,-1,-1,-1,-1,-1,-1,-1,-1,-1],"split_conditions":[1E0,1E0,2E0,3E0,1.47E2,6.4E1,1E0,3.26E2,4.2E1,1E0,1E0,3E0,6.5E1,4.8239674E-2,5.4E1,1.15E2,3.4E2,-4.6173807E-2,1.45E2,-5.4112136E-2,5.1E1,2.44E2,-4.3860126E-2,1E0,2.32E2,3.1419646E-2,2E0,1.69E2,1E0,-2.5627708E-2,4.7370493E-2,-5.6590255E-2,4.415243E-2,-2.509932E-2,2.9330153E-2,-4.329322E-2,2.6508702E-3,5.1867824E-2,3.695586E-3,-9.578395E-3,-5.4791182E-2,1.473009E-2,-3.886875E-2,1.8609501E-3,-4.629153E-2,-8.1587145E-3,3.8723994E-2,-5.0636727E-2,5.0180657E-3],"split_indices":[11,8,10,12,7,0,1,4,0,1,5,11,0,0,0,7,4,0,7,0,0,4,0,10,4,0,11,7,5,0,0,0,0,0,0,0,0,0,0,0,0,0,0,0,0,0,0,0,0],"split_type":[0,0,0,0,0,0,0,0,0,0,0,0,0,0,0,0,0,0,0,0,0,0,0,0,0,0,0,0,0,0,0,0,0,0,0,0,0,0,0,0,0,0,0,0,0,0,0,0,0],"sum_hessian":[1.036817E2,6.0720295E1,4.2961407E1,4.4372242E1,1.6348053E1,2.3908905E1,1.9052502E1,3.1740747E1,1.2631494E1,9.783296E0,6.564757E0,1.781612E1,6.0927854E0,4.9722824E0,1.4080218E1,2.8095665E1,3.6450818E0,1.691766E0,1.0939728E1,3.4532208E0,6.3300743E0,4.7992873E0,1.7654698E0,1.4598362E1,3.2177575E0,1.8812679E0,4.2115173E0,6.178591E0,7.901628E0,1.051855E0,2.704381E1,1.7126669E0,1.9324149E0,2.0658484E0,8.873879E0,2.282589E0,4.047486E0,2.763047E0,2.03624E0,1.6710539E0,1.2927308E1,1.2550726E0,1.9626848E0,1.2150733E0,2.996444E0,4.604693E0,1.5738976E0,6.591279E0,1.310349E0],"tree_param":{"num_deleted":"0","num_feature":"13","num_nodes":"49","size_leaf_vector":"1"}},{"base_weights":[-8.132917E-3,-4.9813285E-1,4.2306367E-1,-1.4223123E-1,-8.300064E-1,4.7777865E-2,7.2009116E-1,-5.219536E-2,6.0589314E-2,-3.2981238E-1,-5.399722E-2,6.7076737E-1,-1.5403984E-1,8.307849E-1,-7.4175447E-3,3.8867608E-1,-4.0550905E-1,4.6356123E-2,-6.034561E-1,4.5273826E-2,-1.290376E-2,-2.7847385E-1,4.3241277E-2,5.140389E-1,1.0600857E0,5.227502E-1,-4.3950487E-2,-4.1353326E-2,2.9222665E-2,-4.5483794E-2,7.672594E-3,1.3045566E-2,-4.596248E-2,3.2207735E-2,-1.8201238E-2,1.1296247E-2,5.5954684E-2,5.569176E-2,1.1856157E-2,4.0038723E-2,-1.3879433E-3],"categories":[],"categories_nodes":[],"categories_segments":[],"categories_sizes":[],"default_left":[0,0,0,0,0,0,0,0,0,0,0,0,0,0,0,0,0,0,0,0,0,0,0,0,0,0,0,0,0,0,0,0,0,0,0,0,0,0,0,0,0],"id":32,"left_children":[1,3,5,7,9,11,13,-1,15,17,-1,19,21,23,25,27,29,-1,31,-1,-1,33,-1,35,37,39,-1,-1,-1,-1,-1,-1,-1,-1,-1,-1,-1,-1,-1,-1,-1],"loss_changes":[2.293372E1,5.882119E0,6.4025793E0,4.7667494E0,2.9043274E0,3.445652E0,2.596264E0,0E0,3.512928E0,4.043527E0,0E0,1.6924336E0,2.8895526E0,1.483221E0,2.8802152E0,3.669886E0,2.8319154E0,0E0,2.675805E0,0E0,0E0,1.7637591E0,0E0,2.1297696E0,4.1074562E-1,6.167495E-1,0E0,0E0,0E0,0E0,0E0,0E0,0E0,0E0,0E0,0E0,0E0,0E0,0E0,0E0,0E0],"parents":[2147483647,0,0,1,1,2,2,3,3,4,4,5,5,6,6,8,8,9,9,11,11,12,12,13,13,14,14,15,15,16,16,18,18,21,21,23,23,24,24,25,25],"right_children":[2,4,6,8,10,12,14,-1,16,18,-1,20,22,24,26,28,30,-1,32,-1,-1,34,-1,36,38,40,-1,-1,-1,-1,-1,-1,-1,-1,-1,-1,-1,-1,-1,-1,-1],"split_conditions":[1E0,3E0,2E0,1.2E2,6E-1,1E0,1.54E2,-5.219536E-2,1E0,1.12E2,-5.399722E-2,1.74E2,1.84E2,1.63E2,1.64E2,1E0,1.47E2,4.6356123E-2,1.22E2,4.5273826E-2,-1.290376E-2,1.06E2,4.3241277E-2,8.5824585E-1,1.5E0,2.7E2,-4.3950487E-2,-4.1353326E-2,2.9222665E-2,-4.5483794E-2,7.672594E-3,1.3045566E-2,-4.596248E-2,3.2207735E-2,-1.8201238E-2,1.1296247E-2,5.5954684E-2,5.569176E-2,1.1856157E-2,4.0038723E-2,-1.3879433E-3],"split_indices":[2,12,10,7,9,1,3,0,8,7,0,7,7,7,7,10,7,0,3,0,0,3,0,9,9,4,0,0,0,0,0,0,0,0,0,0,0,0,0,0,0],"split_type":[0,0,0,0,0,0,0,0,0,0,0,0,0,0,0,0,0,0,0,0,0,0,0,0,0,0,0,0,0,0,0,0,0,0,0,0,0,0,0,0,0],"sum_hessian":[1.0654591E2,4.9799686E1,5.6746227E1,2.4719275E1,2.508041E1,2.5583302E1,3.1162926E1,3.7777305E0,2.0941544E1,9.129454E0,1.5950957E1,5.6912856E0,1.9892015E1,2.6924309E1,4.238616E0,1.2387844E1,8.5537E0,1.205256E0,7.924198E0,4.5633335E0,1.127952E0,1.8374607E1,1.5174079E0,1.2667602E1,1.4256707E1,2.8843644E0,1.3542515E0,1.2709482E0,1.1116896E1,4.167391E0,4.386309E0,2.1669009E0,5.757297E0,1.0051391E0,1.7369469E1,9.511723E0,3.1558795E0,1.30508795E1,1.2058284E0,1.6144232E0,1.2699412E0],"tree_param":{"num_deleted":"0","num_feature":"13","num_nodes":"41","size_leaf_vector":"1"}},{"base_weights":[2.4173783E-2,-4.4774032E-1,4.2578372E-1,9.38578E-3,-8.842504E-1,5.4645684E-2,2.6414153E-1,3.900045E-1,-5.221611E-1,-9.916969E-1,-2.753019E-1,-4.5190212E-1,3.7296054E-1,7.604867E-1,3.4998838E-2,-1.2449031E-1,-4.8225943E-2,-3.597325E-1,-1.0514407E0,3.0458346E-2,-4.116669E-2,-1.1093829E0,3.8855648E-1,8.798154E-1,1.2234897E-1,4.5547556E-2,-1.3246083E-4,-2.4066316E-2,4.6837524E-2,-4.337815E-2,1.6026456E-2,-3.0444546E-2,3.5768102E-3,-1.4659919E-2,-5.5478163E-2,-1.6684238E-2,-6.722007E-2,-6.101453E-3,3.350271E-2,4.7856394E-2,1.6487141E-3,-1.4743119E-2,2.4288334E-2],"categories":[],"categories_nodes":[],"categories_segments":[],"categories_sizes":[],"default_left":[0,0,0,0,0,0,0,0,0,0,0,0,0,0,0,0,0,0,0,0,0,0,0,0,0,0,0,0,0,0,0,0,0,0,0,0,0,0,0,0,0,0,0],"id":33,"left_children":[1,3,5,7,9,-1,11,13,15,17,19,21,23,25,27,29,-1,31,33,-1,-1,35,37,39,41,-1,-1,-1,-1,-1,-1,-1,-1,-1,-1,-1,-1,-1,-1,-1,-1,-1,-1],"loss_changes":[1.9147497E1,9.281676E0,5.593687E0,4.9965878E0,1.2831192E0,0E0,3.6927178E0,1.8643603E0,1.6940784E0,3.7054062E-1,2.9015667E0,3.9780369E0,4.9491353E0,8.047118E-1,4.3574047E0,2.4536006E0,0E0,3.909559E-1,4.5028877E-1,0E0,0E0,2.5524473E-1,5.93153E-1,8.202038E-1,4.3583264E0,0E0,0E0,0E0,0E0,0E0,0E0,0E0,0E0,0E0,0E0,0E0,0E0,0E0,0E0,0E0,0E0,0E0,0E0],"parents":[2147483647,0,0,1,1,2,2,3,3,4,4,6,6,7,7,8,8,9,9,10,10,11,11,12,12,13,13,14,14,15,15,17,17,18,18,21,21,22,22,23,23,24,24],"right_children":[2,4,6,8,10,-1,12,14,16,18,20,22,24,26,28,30,-1,32,34,-1,-1,36,38,40,