{"learner":{"attributes":{"scikit_learn":"{\"_estimator_type\": \"classifier\"}"},"feature_names":["MDVP:Fo(Hz)","MDVP:Fhi(Hz)","MDVP:Flo(Hz)","MDVP:Jitter(%)","MDVP:Jitter(Abs)","MDVP:RAP","MDVP:PPQ","Jitter:DDP","MDVP:Shimmer","MDVP:Shimmer(dB)","Shimmer:APQ3","Shimmer:APQ5","MDVP:APQ","Shimmer:DDA","NHR","HNR","RPDE","DFA","spread1","spread2","D2","PPE"],"feature_types":["float","float","float","float","float","float","float","float","float","float","float","float","float","float","float","float","float","float","float","float","float","float"],"gradient_booster":{"model":{"cats":{"enc":[],"feature_segments":[],"sorted_idx":[]},"gbtree_model_param":{"num_parallel_tree":"1","num_trees":"100"},"iteration_indptr":[0,1,2,3,4,5,6,7,8,9,10,11,12,13,14,15,16,17,18,19,20,21,22,23,24,25,26,27,28,29,30,31,32,33,34,35,36,37,38,39,40,41,42,43,44,45,46,47,48,49,50,51,52,53,54,55,56,57,58,59,60,61,62,63,64,65,66,67,68,69,70,71,72,73,74,75,76,77,78,79,80,81,82,83,84,85,86,87,88,89,90,91,92,93,94,95,96,97,98,99,100],"tree_info":[0,0,0,0,0,0,0,0,0,0,0,0,0,0,0,0,0,0,0,0,0,0,0,0,0,0,0,0,0,0,0,0,0,0,0,0,0,0,0,0,0,0,0,0,0,0,0,0,0,0,0,0,0,0,0,0,0,0,0,0,0,0,0,0,0,0,0,0,0,0,0,0,0,0,0,0,0,0,0,0,0,0,0,0,0,0,0,0,0,0,0,0,0,0,0,0,0,0,0,0],"trees":[{"base_weights":[8.015797E-8,-2.3459034E0,7.5014293E-1,-6.468058E-1,-8.818966E-1,-3.2911214E-1,9.7775793E-1,-5.041686E-1,2.082436E-1,2.3025838E-1,1.1811109E0,-3.6168617E-1,8.264104E-1,3.7080905E-1,6.576114E-2,2.858114E-1,6.576114E-2],"categories":[],"categories_nodes":[],"categories_segments":[],"categories_sizes":[],"default_left":[0,0,0,0,0,0,0,0,0,0,0,0,0,0,0,0,0],"id":0,"left_children":[1,3,5,7,-1,-1,9,-1,-1,11,13,-1,15,-1,-1,-1,-1],"loss_changes":[5.4101425E1,5.613365E0,1.086682E1,5.617758E0,0E0,0E0,2.9608955E0,0E0,0E0,5.953102E0,5.995083E-1,0E0,1.5044665E-1,0E0,0E0,0E0,0E0],"parents":[2147483647,0,0,1,1,2,2,3,3,6,6,9,9,10,10,12,12],"right_children":[2,4,6,8,-1,-1,10,-1,-1,12,14,-1,16,-1,-1,-1,-1],"split_conditions":[1.3412E-1,1.97173E2,4.95E-3,1.28451E2,-8.818966E-1,-3.2911214E-1,1.92E-1,-5.041686E-1,2.082436E-1,1.19031E2,1.98764E2,-3.6168617E-1,1.76858E2,3.7080905E-1,6.576114E-2,2.858114E-1,6.576114E-2],"split_indices":[21,1,14,0,0,0,9,0,0,0,0,0,0,0,0,0,0],"split_type":[0,0,0,0,0,0,0,0,0,0,0,0,0,0,0,0,0],"sum_hessian":[2.874359E1,6.4488826E0,2.2294708E1,2.2110453E0,4.237837E0,2.0267916E0,2.0267916E1,1.1055226E0,1.1055226E0,4.7905984E0,1.5477318E1,1.1055226E0,3.6850758E0,1.4371795E1,1.1055226E0,2.579553E0,1.1055226E0],"tree_param":{"num_deleted":"0","num_feature":"22","num_nodes":"17","size_leaf_vector":"1"}},{"base_weights":[1.3393463E-2,-9.394655E-1,9.663342E-1,-1.6987108E0,-2.5599882E-1,1.3317476E-1,3.41845E-1,-9.281288E-2,-6.0411334E-1,6.3084793E-1,-4.6502176E-1,-2.2212799E-1,2.2760259E-1,-1.1555905E-1,3.0877447E-1],"categories":[],"categories_nodes":[],"categories_segments":[],"categories_sizes":[],"default_left":[0,0,0,0,0,0,0,0,0,0,0,0,0,0,0],"id":1,"left_children":[1,3,5,7,9,11,-1,-1,-1,13,-1,-1,-1,-1,-1],"loss_changes":[2.6868612E1,7.246666E0,1.9815245E0,2.3683968E0,1.1269578E1,2.570861E0,0E0,0E0,0E0,2.8380978E0,0E0,0E0,0E0,0E0,0E0],"parents":[2147483647,0,0,1,1,2,2,3,3,4,4,5,5,9,9],"right_children":[2,4,6,8,10,12,-1,-1,-1,14,-1,-1,-1,-1,-1],"split_conditions":[-5.898673E0,4.95E-3,2.07156E-1,3.44252E-1,2.30978E2,1.341E-2,3.41845E-1,-9.281288E-2,-6.0411334E-1,1.22336E2,-4.6502176E-1,-2.2212799E-1,2.2760259E-1,-1.1555905E-1,3.0877447E-1],"split_indices":[18,14,19,16,1,11,0,0,0,0,0,0,0,0,0],"split_type":[0,0,0,0,0,0,0,0,0,0,0,0,0,0,0],"sum_hessian":[2.759059E1,1.3802958E1,1.3787632E1,5.835273E0,7.9676847E0,2.6767528E0,1.111088E1,1.4448385E0,4.3904343E0,5.031819E0,2.9358659E0,1.0402123E0,1.6365405E0,1.4266242E0,3.6051946E0],"tree_param":{"num_deleted":"0","num_feature":"22","num_nodes":"15","size_leaf_vector":"1"}},{"base_weights":[1.306461E-2,-7.0777804E-1,8.695523E-1,-1.2061814E0,2.0653484E-2,8.9822724E-2,3.1770417E-1,8.166304E-2,-1.4584347E0,-3.4730387E-1,6.252512E-1,2.1610583E-1,-2.2004499E-1,-1.2734939E-1,-4.925939E-1,3.1591588E-1,-1.7277355E-1],"categories":[],"categories_nodes":[],"categories_segments":[],"categories_sizes":[],"default_left":[0,0,0,0,0,0,0,0,0,0,0,0,0,0,0,0,0],"id":2,"left_children":[1,3,5,7,9,11,-1,-1,13,-1,15,-1,-1,-1,-1,-1,-1],"loss_changes":[1.6751266E1,5.3773146E0,1.7356262E0,3.6677103E0,5.691124E0,2.3531976E0,0E0,0E0,7.546158E-1,0E0,3.3080163E0,0E0,0E0,0E0,0E0,0E0,0E0],"parents":[2147483647,0,0,1,1,2,2,3,3,4,4,5,5,8,8,10,10],"right_children":[2,4,6,8,10,12,-1,-1,14,-1,16,-1,-1,-1,-1,-1,-1],"split_conditions":[-5.898673E0,2.241742E0,1.92E-1,8.0055E1,1.06802E-1,4E-5,3.1770417E-1,8.166304E-2,7.21E-3,-3.4730387E-1,1.728E-2,2.1610583E-1,-2.2004499E-1,-1.2734939E-1,-4.925939E-1,3.1591588E-1,-1.7277355E-1],"split_indices":[18,20,9,2,21,4,0,0,11,0,14,0,0,0,0,0,0],"split_type":[0,0,0,0,0,0,0,0,0,0,0,0,0,0,0,0,0],"sum_hessian":[2.513541E1,1.3742765E1,1.1392646E1,7.770331E0,5.972434E0,2.515244E0,8.877402E0,1.1210471E0,6.649284E0,1.7150627E0,4.2573714E0,1.4951953E0,1.0200489E0,1.5018586E0,5.147425E0,3.2302153E0,1.0271561E0],"tree_param":{"num_deleted":"0","num_feature":"22","num_nodes":"17","size_leaf_vector":"1"}},{"base_weights":[8.983342E-3,-9.288459E-1,5.134614E-1,-2.3393463E-2,-1.102872E0,-2.9907194E-1,8.565966E-1,-4.9929968E-1,-3.7982684E-1,-8.1609124E-1,2.18804E-1,1.0082487E-1,3.0987227E-1,-2.3281579E-1,4.5734616E-3,-3.472317E-1,-1.4751034E-2,-1.62559E-1,1.9865315E-1],"categories":[],"categories_nodes":[],"categories_segments":[],"categories_sizes":[],"default_left":[0,0,0,0,0,0,0,0,0,0,0,0,0,0,0,0,0,0,0],"id":3,"left_children":[1,3,5,-1,7,9,11,13,-1,15,-1,17,-1,-1,-1,-1,-1,-1,-1],"loss_changes":[1.15702715E1,1.1811018E0,4.6865196E0,0E0,6.0212135E-2,3.497968E0,1.4190426E0,4.5999146E-1,0E0,1.0176773E0,0E0,1.5386976E0,0E0,0E0,0E0,0E0,0E0,0E0,0E0],"parents":[2147483647,0,0,1,1,2,2,4,4,5,5,6,6,7,7,9,9,11,11],"right_children":[2,4,6,-1,8,10,12,14,-1,16,-1,18,-1,-1,-1,-1,-1,-1,-1],"split_conditions":[1.3412E-1,3.38097E-1,4.32439E-1,-2.3393463E-2,1.56239E2,1.2208E2,8.74E-3,2.4886E1,-3.7982684E-1,1.491E-2,2.18804E-1,1.191E2,3.0987227E-1,-2.3281579E-1,4.5734616E-3,-3.472317E-1,-1.4751034E-2,-1.62559E-1,1.9865315E-1],"split_indices":[21,16,16,0,0,2,10,15,0,12,0,0,0,0,0,0,0,0,0],"split_type":[0,0,0,0,0,0,0,0,0,0,0,0,0,0,0,0,0,0,0],"sum_hessian":[2.2447498E1,7.5572677E0,1.489023E1,1.5291009E0,6.028167E0,4.459259E0,1.0430971E1,2.1471584E0,3.8810084E0,3.1048236E0,1.3544353E0,2.2704313E0,8.160541E0,1.0657189E0,1.0814395E0,1.7961681E0,1.3086554E0,1.0747153E0,1.1957159E0],"tree_param":{"num_deleted":"0","num_feature":"22","num_nodes":"19","size_leaf_vector":"1"}},{"base_weights":[-3.0051419E-3,-4.448592E-1,8.612751E-1,-3.4408674E-1,-1.1621378E-1,2.855808E-1,4.7294326E-2,-3.2138422E-1,2.8553677E-1,2.646937E-1,-3.5208306E-1,7.341859E-2,-7.347819E-1,-3.1996456E-1,-8.052432E-3],"categories":[],"categories_nodes":[],"categories_segments":[],"categories_sizes":[],"default_left":[0,0,0,0,0,0,0,0,0,0,0,0,0,0,0],"id":4,"left_children":[1,3,5,-1,7,-1,-1,-1,9,-1,11,-1,13,-1,-1],"loss_changes":[8.36299E0,3.209312E0,3.2259226E-1,0E0,4.5189986E0,0E0,0E0,0E0,3.5521023E0,0E0,1.2837048E0,0E0,7.2170365E-1,0E0,0E0],"parents":[2147483647,0,0,1,1,2,2,4,4,8,8,10,10,12,12],"right_children":[2,4,6,-1,8,-1,-1,-1,10,-1,12,-1,14,-1,-1],"split_conditions":[-5.617124E0,1.06802E-1,6.49554E-1,-3.4408674E-1,1.17274E2,2.855808E-1,4.7294326E-2,-3.2138422E-1,4.28E-3,2.646937E-1,2.126E-2,7.341859E-2,4.51221E-1,-3.1996456E-1,-8.052432E-3],"split_indices":[18,21,16,0,0,0,0,0,3,0,8,0,16,0,0],"split_type":[0,0,0,0,0,0,0,0,0,0,0,0,0,0,0],"sum_hessian":[1.9895895E1,1.3486401E1,6.409495E0,3.5061474E0,9.980253E0,5.36529E0,1.0442047E0,2.4616737E0,7.5185795E0,3.6854503E0,3.8331292E0,1.6384759E0,2.194653E0,1.1494352E0,1.045218E0],"tree_param":{"num_deleted":"0","num_feature":"22","num_nodes":"15","size_leaf_vector":"1"}},{"base_weights":[-1.3254477E-2,-3.9415997E-1,7.907106E-1,-4.358773E-2,-9.177257E-1,2.672149E-1,4.0804766E-2,-6.4010364E-1,6.932069E-1,-3.3649594E-1,-1.9027954E-2,-2.78652E-1,9.543589E-2,2.5060192E-1,3.472574E-2],"categories":[],"categories_nodes":[],"categories_segments":[],"categories_sizes":[],"default_left":[0,0,0,0,0,0,0,0,0,0,0,0,0,0,0],"id":5,"left_children":[1,3,5,7,9,-1,-1,11,13,-1,-1,-1,-1,-1,-1],"loss_changes":[5.973318E0,2.385009E0,2.897625E-1,4.383109E0,8.432689E-1,0E0,0E0,1.8097162E0,2.7183652E-1,0E0,0E0,0E0,0E0,0E0,0E0],"parents":[2147483647,0,0,1,1,2,2,3,3,4,4,7,7,8,8],"right_children":[2,4,6,8,10,-1,-1,12,14,-1,-1,-1,-1,-1,-1],"split_conditions":[-5.617124E0,1.97076E2,6.49554E-1,1.36358E2,1.7854E-1,2.672149E-1,4.0804766E-2,2.225815E0,1.222E-2,-3.3649594E-1,-1.9027954E-2,-2.78652E-1,9.543589E-2,2.5060192E-1,3.472574E-2],"split_indices":[18,0,16,0,19,0,0,20,14,0,0,0,0,0,0],"split_type":[0,0,0,0,0,0,0,0,0,0,0,0,0,0,0],"sum_hessian":[1.748795E1,1.2211887E1,5.276062E0,7.9631352E0,4.2487516E0,4.264193E0,1.011869E0,4.4729915E0,3.490144E0,3.1773455E0,1.0714064E0,3.4608238E0,1.0121675E0,2.4423919E0,1.0477521E0],"tree_param":{"num_deleted":"0","num_feature":"22","num_nodes":"15","size_leaf_vector":"1"}},{"base_weights":[-3.129221E-3,-6.6814965E-1,4.0359336E-1,-2.7114275E-1,-1.04206055E-1,-2.1163651E-1,7.0396966E-1,-1.910591E-1,1.457482E-1,-5.7526284E-1,1.1655442E-1,-1.1804296E-3,2.7903652E-1,-2.3557411E-1,-2.8186077E-2],"categories":[],"categories_nodes":[],"categories_segments":[],"categories_sizes":[],"default_left":[0,0,0,0,0,0,0,0,0,0,0,0,0,0,0],"id":6,"left_children":[1,3,5,-1,7,9,11,-1,-1,13,-1,-1,-1,-1,-1],"loss_changes":[4.716195E0,7.849827E-1,2.1493006E0,0E0,1.2774024E0,1.1662266E0,1.2050564E0,0E0,0E0,2.388376E-1,0E0,0E0,0E0,0E0,0E0],"parents":[2147483647,0,0,1,1,2,2,4,4,5,5,6,6,9,9],"right_children":[2,4,6,-1,8,10,12,-1,-1,14,-1,-1,-1,-1,-1],"split_conditions":[1.3412E-1,2.597E1,4.32439E-1,-2.7114275E-1,-7.24562E0,1.09216E2,6.73086E-1,-1.910591E-1,1.457482E-1,1.94627E-1,1.1655442E-1,-1.1804296E-3,2.7903652E-1,-2.3557411E-1,-2.8186077E-2],"split_indices":[21,15,16,0,18,2,17,0,0,19,0,0,0,0,0],"split_type":[0,0,0,0,0,0,0,0,0,0,0,0,0,0,0],"sum_hessian":[1.5439491E1,5.615304E0,9.824187E0,3.5353155E0,2.0799887E0,3.319869E0,6.504318E0,1.0514314E0,1.0285573E0,2.0931299E0,1.226739E0,1.8127193E0,4.691599E0,1.017665E0,1.075465E0],"tree_param":{"num_deleted":"0","num_feature":"22","num_nodes":"15","size_leaf_vector":"1"}},{"base_weights":[-9.95603E-3,-3.0088514E-1,2.2023268E-1,-6.4814407E-1,1.2404167E-1,-7.762784E-3,-7.7282923E-1,-4.9743235E-1,5.786848E-1,-2.7161878E-1,-3.625593E-2,-2.0153034E-2,-2.0282555E-1,8.702444E-3,2.3087569E-1],"categories":[],"categories_nodes":[],"categories_segments":[],"categories_sizes":[],"default_left":[0,0,0,0,0,0,0,0,0,0,0,0,0,0,0],"id":7,"left_children":[1,3,-1,5,7,-1,9,11,13,-1,-1,-1,-1,-1,-1],"loss_changes":[3.4147792E0,1.7502354E0,0E0,4.756267E-1,1.9629294E0,0E0,3.4753585E-1,1.88443E-1,3.8544917E-1,0E0,0E0,0E0,0E0,0E0,0E0],"parents":[2147483647,0,0,1,1,3,3,4,4,6,6,7,7,8,8],"right_children":[2,4,-1,6,8,-1,10,12,14,-1,-1,-1,-1,-1,-1],"split_conditions":[2.006E-2,2.205024E0,2.2023268E-1,7.21E-3,1.73319E-1,-7.762784E-3,9.5E-3,2.02266E2,1.61469E2,-2.7161878E-1,-3.625593E-2,-2.0153034E-2,-2.0282555E-1,8.702444E-3,2.3087569E-1],"split_indices":[12,20,0,11,19,0,10,0,1,0,0,0,0,0,0],"split_type":[0,0,0,0,0,0,0,0,0,0,0,0,0,0,0],"sum_hessian":[1.3754441E1,1.0316366E1,3.4380755E0,5.387931E0,4.9284353E0,1.1009473E0,4.2869835E0,2.0424263E0,2.886009E0,3.2395825E0,1.047401E0,1.0029665E0,1.0394598E0,1.0408776E0,1.8451315E0],"tree_param":{"num_deleted":"0","num_feature":"22","num_nodes":"15","size_leaf_vector":"1"}},{"base_weights":[-1.02088535E-2,-5.358571E-1,3.35337E-1,3.1033011E-2,-6.972523E-1,-2.3812586E-1,6.2405574E-1,-7.862287E-2,-2.5594223E-1,-2.519759E-1,1.7256668E-1,2.3329856E-1,-2.0371197E-2],"categories":[],"categories_nodes":[],"categories_segments":[],"categories_sizes":[],"default_left":[0,0,0,0,0,0,0,0,0,0,0,0,0],"id":8,"left_children":[1,3,5,-1,7,9,11,-1,-1,-1,-1,-1,-1],"loss_changes":[2.6275246E0,6.6336906E-1,1.5967408E0,0E0,9.555125E-2,2.271028E0,7.0049906E-1,0E0,0E0,0E0,0E0,0E0,0E0],"parents":[2147483647,0,0,1,1,2,2,4,4,5,5,6,6],"right_children":[2,4,6,-1,8,10,12,-1,-1,-1,-1,-1,-1],"split_conditions":[1.3412E-1,3.38097E-1,1.17274E2,3.1033011E-2,7.72E-3,8.82E-3,1.97076E2,-7.862287E-2,-2.5594223E-1,-2.519759E-1,1.7256668E-1,2.3329856E-1,-2.0371197E-2],"split_indices":[21,16,0,0,10,10,0,0,0,0,0,0,0],"split_type":[0,0,0,0,0,0,0,0,0,0,0,0,0],"sum_hessian":[1.2476609E1,4.7302084E0,7.7464013E0,1.0258386E0,3.7043695E0,2.652717E0,5.0936837E0,1.6841363E0,2.0202334E0,1.5058639E0,1.1468532E0,4.067007E0,1.0266769E0],"tree_param":{"num_deleted":"0","num_feature":"22","num_nodes":"13","size_leaf_vector":"1"}},{"base_weights":[-1.9307204E-2,-2.3414887E-1,2.0130727E-1,-2.0506023E-1,5.6231743E-1,-4.4167063E-1,9.513573E-2,-6.324135E-2,2.517702E-1,-1.9518682E-1,2.878142E-2],"categories":[],"categories_nodes":[],"categories_segments":[],"categories_sizes":[],"default_left":[0,0,0,0,0,0,0,0,0,0,0],"id":9,"left_children":[1,-1,3,5,7,9,-1,-1,-1,-1,-1],"loss_changes":[2.1957428E0,0E0,1.6126878E0,8.238755E-1,1.391301E0,5.3722084E-1,0E0,0E0,0E0,0E0,0E0],"parents":[2147483647,0,0,2,2,3,3,4,4,5,5],"right_children":[2,-1,4,6,8,10,-1,-1,-1,-1,-1],"split_conditions":[1.06802E-1,-2.3414887E-1,2.241742E0,1.36358E2,1.70183E-1,9.38E-3,9.513573E-2,-6.324135E-2,2.517702E-1,-1.9518682E-1,2.878142E-2],"split_indices":[21,0,20,0,19,10,0,0,0,0,0],"split_type":[0,0,0,0,0,0,0,0,0,0,0],"sum_hessian":[1.11397705E1,1.9328845E0,9.206886E0,4.534572E0,4.6723137E0,3.226676E0,1.3078961E0,1.2951458E0,3.377168E0,2.1721942E0,1.0544817E0],"tree_param":{"num_deleted":"0","num_feature":"22","num_nodes":"11","size_leaf_vector":"1"}},{"base_weights":[-2.2465732E-2,2.993586E-1,-4.5196158E-1,-1.7109488E-1,2.3280905E-1,-2.3457684E-1,1.05939984E-1,1.2290148E-1,-1.965796E-1],"categories":[],"categories_nodes":[],"categories_segments":[],"categories_sizes":[],"default_left":[0,0,0,0,0,0,0,0,0],"id":10,"left_children":[1,3,5,7,-1,-1,-1,-1,-1],"loss_changes":[1.6464432E0,1.6691906E0,1.6260024E0,1.4684197E0,0E0,0E0,0E0,0E0,0E0],"parents":[2147483647,0,0,1,1,2,2,3,3],"right_children":[2,4,6,8,-1,-1,-1,-1,-1],"split_conditions":[2.09512E2,1.89E-3,2.07156E-1,3.46E-3,2.3280905E-1,-2.3457684E-1,1.05939984E-1,1.2290148E-1,-1.965796E-1],"split_indices":[1,5,19,3,0,0,0,0,0],"split_type":[0,0,0,0,0,0,0,0,0],"sum_hessian":[9.93272E0,5.8512993E0,4.081421E0,3.2674928E0,2.5838063E0,2.9153652E0,1.1660556E0,1.5555123E0,1.7119806E0],"tree_param":{"num_deleted":"0","num_feature":"22","num_nodes":"9","size_leaf_vector":"1"}},{"base_weights":[-1.3324895E-2,-1.9587347E-1,1.6990596E-1,-1.718724E-1,4.9655947E-1,-1.6471761E-1,9.1599815E-2,-4.6931718E-2,2.2866486E-1,-9.971526E-2,1.3035506E-1],"categories":[],"categories_nodes":[],"categories_segments":[],"categories_sizes":[],"default_left":[0,0,0,0,0,0,0,0,0,0,0],"id":11,"left_children":[1,-1,3,5,7,-1,9,-1,-1,-1,-1],"loss_changes":[1.2612793E0,0E0,1.0257748E0,5.3320575E-1,9.1100764E-1,0E0,6.84984E-1,0E0,0E0,0E0,0E0],"parents":[2147483647,0,0,2,2,3,3,4,4,6,6],"right_children":[2,-1,4,6,8,-1,10,-1,-1,-1,-1],"split_conditions":[1.06802E-1,-1.9587347E-1,2.241742E0,6.73086E-1,1.70183E-1,-1.6471761E-1,4.95E-3,-4.6931718E-2,2.2866486E-1,-9.971526E-2,1.3035506E-1],"split_indices":[21,0,20,17,19,0,14,0,0,0,0],"split_type":[0,0,0,0,0,0,0,0,0,0,0],"sum_hessian":[8.8159075E0,1.392369E0,7.4235387E0,3.8593404E0,3.5641985E0,1.1413921E0,2.7179482E0,1.1495835E0,2.414615E0,1.229055E0,1.4888932E0],"tree_param":{"num_deleted":"0","num_feature":"22","num_nodes":"11","size_leaf_vector":"1"}},{"base_weights":[-2.3343297E-2,2.6439282E-1,-3.8264152E-1,-1.1070143E-1,2.0468327E-1,-2.3031195E-1,6.4656414E-2,1.23785526E-1,-1.6496298E-1],"categories":[],"categories_nodes":[],"categories_segments":[],"categories_sizes":[],"default_left":[0,0,0,0,0,0,0,0,0],"id":12,"left_children":[1,3,5,7,-1,-1,-1,-1,-1],"loss_changes":[1.0291522E0,9.4952184E-1,1.1789912E0,1.0999552E0,0E0,0E0,0E0,0E0,0E0],"parents":[2147483647,0,0,1,1,2,2,3,3],"right_children":[2,4,6,8,-1,-1,-1,-1,-1],"split_conditions":[2.06896E2,1.89E-3,1.78713E-1,3.46E-3,2.0468327E-1,-2.3031195E-1,6.4656414E-2,1.23785526E-1,-1.6496298E-1],"split_indices":[1,5,19,3,0,0,0,0,0],"split_type":[0,0,0,0,0,0,0,0,0],"sum_hessian":[7.976175E0,4.575848E0,3.4003267E0,2.798763E0,1.777085E0,1.8962092E0,1.5041175E0,1.3046342E0,1.4941287E0],"tree_param":{"num_deleted":"0","num_feature":"22","num_nodes":"9","size_leaf_vector":"1"}},{"base_weights":[-1.9165505E-2,2.3993888E-1,-3.3947116E-1,-9.4237395E-2,1.8900721E-1,-2.1047471E-1,5.4062296E-2,1.06740996E-1,-1.429446E-1],"categories":[],"categories_nodes":[],"categories_segments":[],"categories_sizes":[],"default_left":[0,0,0,0,0,0,0,0,0],"id":13,"left_children":[1,3,5,7,-1,-1,-1,-1,-1],"loss_changes":[7.5798714E-1,7.2318816E-1,8.9034617E-1,7.909896E-1,0E0,0E0,0E0,0E0,0E0],"parents":[2147483647,0,0,1,1,2,2,3,3],"right_children":[2,4,6,8,-1,-1,-1,-1,-1],"split_conditions":[2.06896E2,1.89E-3,1.78713E-1,3.46E-3,1.8900721E-1,-2.1047471E-1,5.4062296E-2,1.06740996E-1,-1.429446E-1],"split_indices":[1,5,19,3,0,0,0,0,0],"split_type":[0,0,0,0,0,0,0,0,0],"sum_hessian":[7.1517487E0,4.092287E0,3.0594616E0,2.6125762E0,1.479711E0,1.5967903E0,1.4626712E0,1.2316502E0,1.3809259E0],"tree_param":{"num_deleted":"0","num_feature":"22","num_nodes":"9","size_leaf_vector":"1"}},{"base_weights":[-1.5858779E-2,-3.212845E-1,2.7078155E-1,-2.822821E-2,-1.8046865E-1,-6.0598508E-2,1.560956E-1,7.95462E-2,-9.420939E-2],"categories":[],"categories_nodes":[],"categories_segments":[],"categories_sizes":[],"default_left":[0,0,0,0,0,0,0,0,0],"id":14,"left_children":[1,3,5,7,-1,-1,-1,-1,-1],"loss_changes":[7.43242E-1,3.186619E-1,6.253146E-1,3.3874634E-1,0E0,0E0,0E0,0E0,0E0],"parents":[2147483647,0,0,1,1,2,2,3,3],"right_children":[2,4,6,8,-1,-1,-1,-1,-1],"split_conditions":[2.205024E0,2.0556E2,1.73319E-1,7.32479E-1,-1.8046865E-1,-6.0598508E-2,1.560956E-1,7.95462E-2,-9.420939E-2],"split_indices":[20,1,19,17,0,0,0,0,0],"split_type":[0,0,0,0,0,0,0,0,0],"sum_hessian":[6.4958787E0,3.0863729E0,3.4095058E0,2.0468822E0,1.0394905E0,1.2436982E0,2.1658075E0,1.0457006E0,1.0011817E0],"tree_param":{"num_deleted":"0","num_feature":"22","num_nodes":"9","size_leaf_vector":"1"}},{"base_weights":[-2.5032742E-2,-2.6597872E-1,2.728164E-1,-2.6896734E-2,-1.6188714E-1,-5.191911E-2,1.6128987E-1,7.040491E-2,-7.1484216E-2],"categories":[],"categories_nodes":[],"categories_segments":[],"categories_sizes":[],"default_left":[0,0,0,0,0,0,0,0,0],"id":15,"left_children":[1,3,5,7,-1,-1,-1,-1,-1],"loss_changes":[5.8080924E-1,2.747455E-1,5.2528656E-1,2.4459086E-1,0E0,0E0,0E0,0E0,0E0],"parents":[2147483647,0,0,1,1,2,2,3,3],"right_children":[2,4,6,8,-1,-1,-1,-1,-1],"split_conditions":[2.241742E0,2.0556E2,1.71088E-1,7.33165E-1,-1.6188714E-1,-5.191911E-2,1.6128987E-1,7.040491E-2,-7.1484216E-2],"split_indices":[20,1,19,17,0,0,0,0,0],"split_type":[0,0,0,0,0,0,0,0,0],"sum_hessian":[6.0820303E0,3.4213336E0,2.6606967E0,2.4121466E0,1.009187E0,1.1205192E0,1.5401776E0,1.0288106E0,1.383336E0],"tree_param":{"num_deleted":"0","num_feature":"22","num_nodes":"9","size_leaf_vector":"1"}},{"base_weights":[-2.5339352E-2,-1.131726E-1,1.506798E-1,-8.214052E-2,4.3680304E-1,2.619978E-2,1.6402625E-1],"categories":[],"categories_nodes":[],"categories_segments":[],"categories_sizes":[],"default_left":[0,0,0,0,0,0,0],"id":16,"left_children":[1,-1,3,-1,5,-1,-1],"loss_changes":[4.7471747E-1,0E0,7.5255686E-1,0E0,8.6676E-2,0E0,0E0],"parents":[2147483647,0,0,2,2,4,4],"right_children":[2,-1,4,-1,6,-1,-1],"split_conditions":[6.73086E-1,-1.131726E-1,4.95E-3,-8.214052E-2,4.32439E-1,2.619978E-2,1.6402625E-1],"split_indices":[17,0,14,0,16,0,0],"split_type":[0,0,0,0,0,0,0],"sum_hessian":[5.74627E0,1.5347553E0,4.2115145E0,1.7130955E0,2.498419E0,1.0273519E0,1.4710673E0],"tree_param":{"num_deleted":"0","num_feature":"22","num_nodes":"7","size_leaf_vector":"1"}},{"base_weights":[-1.770641E-2,-2.593327E-1,2.1031451E-1,-1.2411584E-1,-7.3918E-3,-4.187618E-2,1.2302767E-1],"categories":[],"categories_nodes":[],"categories_segments":[],"categories_sizes":[],"default_left":[0,0,0,0,0,0,0],"id":17,"left_children":[1,3,5,-1,-1,-1,-1],"loss_changes":[4.1209257E-1,1.2019715E-1,3.2923433E-1,0E0,0E0,0E0,0E0],"parents":[2147483647,0,0,1,1,2,2],"right_children":[2,4,6,-1,-1,-1,-1],"split_conditions":[2.205024E0,1.17274E2,1.73319E-1,-1.2411584E-1,-7.3918E-3,-4.187618E-2,1.2302767E-1],"split_indices":[20,0,19,0,0,0,0],"split_type":[0,0,0,0,0,0,0],"sum_hessian":[5.4896207E0,2.5986242E0,2.8909962E0,1.1073651E0,1.4912591E0,1.1602162E0,1.7307801E0],"tree_param":{"num_deleted":"0","num_feature":"22","num_nodes":"7","size_leaf_vector":"1"}},{"base_weights":[-2.0102939E-2,1.783018E-1,-9.056709E-2,-3.8744997E-2,1.4951277E-1],"categories":[],"categories_nodes":[],"categories_segments":[],"categories_sizes":[],"default_left":[0,0,0,0,0],"id":18,"left_children":[1,3,-1,-1,-1],"loss_changes":[4.0601683E-1,4.9001074E-1,0E0,0E0,0E0],"parents":[2147483647,0,0,1,1],"right_children":[2,4,-1,-1,-1],"split_conditions":[2.09512E2,1.78E-3,-9.056709E-2,-3.8744997E-2,1.4951277E-1],"split_indices":[1,5,0,0,0],"split_type":[0,0,0,0,0],"sum_hessian":[5.2994494E0,3.325343E0,1.9741066E0,2.0003638E0,1.3249788E0],"tree_param":{"num_deleted":"0","num_feature":"22","num_nodes":"5","size_leaf_vector":"1"}},{"base_weights":[-9.776803E-3,-1.4311664E-1,1.0043783E-1,-3.6208943E-1,6.257404E-2,-1.4757715E-1,-7.393732E-3],"categories":[],"categories_nodes":[],"categories_segments":[],"categories_sizes":[],"default_left":[0,0,0,0,0,0,0],"id":19,"left_children":[1,3,-1,5,-1,-1,-1],"loss_changes":[3.288592E-1,4.6900105E-1,0E0,1.4184362E-1,0E0,0E0,0E0],"parents":[2147483647,0,0,1,1,3,3],"right_children":[2,4,-1,6,-1,-1,-1],"split_conditions":[-5.617124E0,2.5619E1,1.0043783E-1,-6.323531E0,6.257404E-2,-1.4757715E-1,-7.393732E-3],"split_indices":[18,15,0,18,0,0,0],"split_type":[0,0,0,0,0,0,0],"sum_hessian":[5.1148267E0,4.1092863E0,1.0055407E0,2.514292E0,1.5949941E0,1.4850937E0,1.0291984E0],"tree_param":{"num_deleted":"0","num_feature":"22","num_nodes":"7","size_leaf_vector":"1"}},{"base_weights":[-6.384505E-3,-2.0481203E-1,2.287835E-1,-9.762604E-2,1.5488927E-2,-3.8192682E-2,1.3533603E-1],"categories":[],"categories_nodes":[],"categories_segments":[],"categories_sizes":[],"default_left":[0,0,0,0,0,0,0],"id":20,"left_children":[1,3,5,-1,-1,-1,-1],"loss_changes":[3.2336006E-1,1.3251874E-1,3.0951813E-1,0E0,0E0,0E0,0E0],"parents":[2147483647,0,0,1,1,2,2],"right_children":[2,4,6,-1,-1,-1,-1],"split_conditions":[2.225815E0,2.5619E1,1.81701E-1,-9.762604E-2,1.5488927E-2,-3.8192682E-2,1.3533603E-1],"split_indices":[20,15,19,0,0,0,0],"split_type":[0,0,0,0,0,0,0],"sum_hessian":[4.925415E0,2.7413938E0,2.1840215E0,1.6815537E0,1.05984E0,1.00378E0,1.1802415E0],"tree_param":{"num_deleted":"0","num_feature":"22","num_nodes":"7","size_leaf_vector":"1"}},{"base_weights":[-9.665861E-4,1.7997743E-1,-7.467317E-2,-2.3793267E-2,1.3666569E-1],"categories":[],"categories_nodes":[],"categories_segments":[],"categories_sizes":[],"default_left":[0,0,0,0,0],"id":21,"left_children":[1,3,-1,-1,-1],"loss_changes":[3.0389437E-1,3.161578E-1,0E0,0E0,0E0],"parents":[2147483647,0,0,1,1],"right_children":[2,4,-1,-1,-1],"split_conditions":[2.06896E2,1.40557E2,-7.467317E-2,-2.3793267E-2,1.3666569E-1],"split_indices":[1,1,0,0,0],"split_type":[0,0,0,0,0],"sum_hessian":[4.7751474E0,2.9190269E0,1.8561205E0,1.8708978E0,1.048129E0],"tree_param":{"num_deleted":"0","num_feature":"22","num_nodes":"5","size_leaf_vector":"1"}},{"base_weights":[7.1361233E-3,-7.61233E-2,1.6537221E-1,-6.1756223E-2,1.2770143E-1],"categories":[],"categories_nodes":[],"categories_segments":[],"categories_sizes":[],"default_left":[0,0,0,0,0],"id":22,"left_children":[1,-1,3,-1,-1],"loss_changes":[2.748996E-1,0E0,4.855273E-1,0E0,0E0],"parents":[2147483647,0,0,2,2],"right_children":[2,-1,4,-1,-1],"split_conditions":[4.95E-3,-7.61233E-2,6.83296E-1,-6.1756223E-2,1.2770143E-1],"split_indices":[14,0,17,0,0],"split_type":[0,0,0,0,0],"sum_hessian":[4.642766E0,1.5249813E0,3.1177845E0,1.3712859E0,1.7464986E0],"tree_param":{"num_deleted":"0","num_feature":"22","num_nodes":"5","size_leaf_vector":"1"}},{"base_weights":[4.37636E-3,-1.9546744E-1,1.9323365E-1,-8.0930196E-2,-1.0742089E-2,1.2844628E-1,-3.6061637E-2],"categories":[],"categories_nodes":[],"categories_segments":[],"categories_sizes":[],"default_left":[0,0,0,0,0,0,0],"id":23,"left_children":[1,3,5,-1,-1,-1,-1],"loss_changes":[2.4464838E-1,2.7830847E-2,2.9600424E-1,0E0,0E0,0E0,0E0],"parents":[2147483647,0,0,1,1,2,2],"right_children":[2,4,6,-1,-1,-1,-1],"split_conditions":[2.205024E0,1.41422E-1,1.143E-2,-8.0930196E-2,-1.0742089E-2,1.2844628E-1,-3.6061637E-2],"split_indices":[20,21,10,0,0,0,0],"split_type":[0,0,0,0,0,0,0],"sum_hessian":[4.481366E0,2.160345E0,2.3210208E0,1.0036523E0,1.1566927E0,1.1174847E0,1.2035363E0],"tree_param":{"num_deleted":"0","num_feature":"22","num_nodes":"7","size_leaf_vector":"1"}},{"base_weights":[4.005537E-3,-1.8622279E-1,1.8872115E-1,2.534599E-2,-1.0710984E-1,-2.072193E-2,1.080994E-1],"categories":[],"categories_nodes":[],"categories_segments":[],"categories_sizes":[],"default_left":[0,0,0,0,0,0,0],"id":24,"left_children":[1,3,5,-1,-1,-1,-1],"loss_changes":[2.2387703E-1,1.7579372E-1,1.6741928E-1,0E0,0E0,0E0,0E0],"parents":[2147483647,0,0,1,1,2,2],"right_children":[2,4,6,-1,-1,-1,-1],"split_conditions":[4.54444E-1,3.80253E-1,2.125618E0,2.534599E-2,-1.0710984E-1,-2.072193E-2,1.080994E-1],"split_indices":[16,16,20,0,0,0,0],"split_type":[0,0,0,0,0,0,0],"sum_hessian":[4.371167E0,2.1494298E0,2.2217376E0,1.0270611E0,1.1223687E0,1.1266998E0,1.0950378E0],"tree_param":{"num_deleted":"0","num_feature":"22","num_nodes":"7","size_leaf_vector":"1"}},{"base_weights":[4.1722623E-3,1.631833E-1,-6.433747E-2,1.0858979E-1,-2.3331944E-2],"categories":[],"categories_nodes":[],"categories_segments":[],"categories_sizes":[],"default_left":[0,0,0,0,0],"id":25,"left_children":[1,3,-1,-1,-1],"loss_changes":[2.1751244E-1,2.009354E-1,0E0,0E0,0E0],"parents":[2147483647,0,0,1,1],"right_children":[2,4,-1,-1,-1],"split_conditions":[2.06896E2,7.33659E-1,-6.433747E-2,1.0858979E-1,-2.3331944E-2],"split_indices":[1,17,0,0,0],"split_type":[0,0,0,0,0],"sum_hessian":[4.250057E0,2.6073382E0,1.6427189E0,1.1535146E0,1.4538237E0],"tree_param":{"num_deleted":"0","num_feature":"22","num_nodes":"5","size_leaf_vector":"1"}},{"base_weights":[7.5965296E-3,-1.3494651E-1,6.974071E-2,5.039917E-2,-1.0233123E-1],"categories":[],"categories_nodes":[],"categories_segments":[],"categories_sizes":[],"default_left":[0,0,0,0,0],"id":26,"left_children":[1,3,-1,-1,-1],"loss_changes":[1.968655E-1,2.941722E-1,0E0,0E0,0E0],"parents":[2147483647,0,0,1,1],"right_children":[2,4,-1,-1,-1],"split_conditions":[1.84985E-1,3E-5,6.974071E-2,5.039917E-2,-1.0233123E-1],"split_indices":[21,4,0,0,0],"split_type":[0,0,0,0,0],"sum_hessian":[4.162993E0,2.7926652E0,1.3703277E0,1.2058296E0,1.5868356E0],"tree_param":{"num_deleted":"0","num_feature":"22","num_nodes":"5","size_leaf_vector":"1"}},{"base_weights":[8.719032E-3,1.575871E-1,-5.716112E-2,9.545921E-2,-1.5372357E-2],"categories":[],"categories_nodes":[],"categories_segments":[],"categories_sizes":[],"default_left":[0,0,0,0,0],"id":27,"left_children":[1,3,-1,-1,-1],"loss_changes":[1.7986463E-1,1.3163489E-1,0E0,0E0,0E0],"parents":[2147483647,0,0,1,1],"right_children":[2,4,-1,-1,-1],"split_conditions":[2.06896E2,7.33659E-1,-5.716112E-2,9.545921E-2,-1.5372357E-2],"split_indices":[1,17,0,0,0],"split_type":[0,0,0,0,0],"sum_hessian":[4.051381E0,2.438588E0,1.6127932E0,1.0823914E0,1.3561965E0],"tree_param":{"num_deleted":"0","num_feature":"22","num_nodes":"5","size_leaf_vector":"1"}},{"base_weights":[1.119138E-2,-5.264377E-2,1.855341E-1,-3.256257E-3,8.851352E-2],"categories":[],"categories_nodes":[],"categories_segments":[],"categories_sizes":[],"default_left":[0,0,0,0,0],"id":28,"left_children":[1,-1,3,-1,-1],"loss_changes":[1.9475971E-1,0E0,6.908099E-2,0E0,0E0],"parents":[2147483647,0,0,2,2],"right_children":[2,-1,4,-1,-1],"split_conditions":[2.205024E0,-5.264377E-2,4.32439E-1,-3.256257E-3,8.851352E-2],"split_indices":[20,0,16,0,0],"split_type":[0,0,0,0,0],"sum_hessian":[3.9839919E0,1.9208251E0,2.0631666E0,1.0611211E0,1.0020455E0],"tree_param":{"num_deleted":"0","num_feature":"22","num_nodes":"5","size_leaf_vector":"1"}},{"base_weights":[1.488534E-2,-1.10422984E-1,7.161345E-2,6.299579E-2,-1.0875554E-1],"categories":[],"categories_nodes":[],"categories_segments":[],"categories_sizes":[],"default_left":[0,0,0,0,0],"id":29,"left_children":[1,3,-1,-1,-1],"loss_changes":[1.6442615E-1,3.8626048E-1,0E0,0E0,0E0],"parents":[2147483647,0,0,1,1],"right_children":[2,4,-1,-1,-1],"split_conditions":[1.284E-2,8.1E-3,7.161345E-2,6.299579E-2,-1.0875554E-1],"split_indices":[11,10,0,0,0],"split_type":[0,0,0,0,0],"sum_hessian":[3.9226491E0,2.839578E0,1.083071E0,1.3239272E0,1.5156507E0],"tree_param":{"num_deleted":"0","num_feature":"22","num_nodes":"5","size_leaf_vector":"1"}},{"base_weights":[1.5754418E-2,-6.083573E-2,1.5532061E-1,9.952456E-2,-3.618633E-2],"categories":[],"categories_nodes":[],"categories_segments":[],"categories_sizes":[],"default_left":[0,0,0,0,0],"id":30,"left_children":[1,-1,3,-1,-1],"loss_changes":[1.7833646E-1,0E0,2.1061698E-1,0E0,0E0],"parents":[2147483647,0,0,2,2],"right_children":[2,-1,4,-1,-1],"split_conditions":[1.78713E-1,-6.083573E-2,4E-5,9.952456E-2,-3.618633E-2],"split_indices":[19,0,4,0,0],"split_type":[0,0,0,0,0],"sum_hessian":[3.8142848E0,1.3100176E0,2.5042672E0,1.4042166E0,1.1000504E0],"tree_param":{"num_deleted":"0","num_feature":"22","num_nodes":"5","size_leaf_vector":"1"}},{"base_weights":[1.22184595E-2,-1.3555135E-1,5.7732742E-2,-9.07173E-2,3.391522E-2],"categories":[],"categories_nodes":[],"categories_segments":[],"categories_sizes":[],"default_left":[0,0,0,0,0],"id":31,"left_children":[1,3,-1,-1,-1],"loss_changes":[1.5225439E-1,1.6649114E-1,0E0,0E0,0E0],"parents":[2147483647,0,0,1,1],"right_children":[2,4,-1,-1,-1],"split_conditions":[1.89E-3,1.50449E2,5.7732742E-2,-9.07173E-2,3.391522E-2],"split_indices":[5,1,0,0,0],"split_type":[0,0,0,0,0],"sum_hessian":[3.7375388E0,2.1898792E0,1.5476596E0,1.180959E0,1.0089202E0],"tree_param":{"num_deleted":"0","num_feature":"22","num_nodes":"5","size_leaf_vector":"1"}},{"base_weights":[8.684343E-3,1.6705309E-1,-5.9372097E-2,-1.3474354E-2,9.139667E-2],"categories":[],"categories_nodes":[],"categories_segments":[],"categories_sizes":[],"default_left":[0,0,0,0,0],"id":32,"left_children":[1,3,-1,-1,-1],"loss_changes":[1.8554363E-1,1.06448695E-1,0E0,0E0,0E0],"parents":[2147483647,0,0,1,1],"right_children":[2,4,-1,-1,-1],"split_conditions":[2.06896E2,1.34656E2,-5.9372097E-2,-1.3474354E-2,9.139667E-2],"split_indices":[1,1,0,0,0],"split_type":[0,0,0,0,0],"sum_hessian":[3.6605687E0,2.1804576E0,1.480111E0,1.1234494E0,1.0570081E0],"tree_param":{"num_deleted":"0","num_feature":"22","num_nodes":"5","size_leaf_vector":"1"}},{"base_weights":[1.05885565E-2,-1.2099206E-1,6.330673E-2,2.8004447E-2,-9.5288984E-2],"categories":[],"categories_nodes":[],"categories_segments":[],"categories_sizes":[],"default_left":[0,0,0,0,0],"id":33,"left_children":[1,3,-1,-1,-1],"loss_changes":[1.4665884E-1,1.7329729E-1,0E0,0E0,0E0],"parents":[2147483647,0,0,1,1],"right_children":[2,4,-1,-1,-1],"split_conditions":[1.84985E-1,7.27313E-1,6.330673E-2,2.8004447E-2,-9.5288984E-2],"split_indices":[21,17,0,0,0],"split_type":[0,0,0,0,0],"sum_hessian":[3.5927978E0,2.4082084E0,1.1845891E0,1.4035656E0,1.0046428E0],"tree_param":{"num_deleted":"0","num_feature":"22","num_nodes":"5","size_leaf_vector":"1"}},{"base_weights":[6.4326082E-3,1.5237369E-1,-5.6075793E-2,-1.3993123E-2,8.4159516E-2],"categories":[],"categories_nodes":[],"categories_segments":[],"categories_sizes":[],"default_left":[0,0,0,0,0],"id":34,"left_children":[1,3,-1,-1,-1],"loss_changes":[1.55846E-1,9.2740685E-2,0E0,0E0,0E0],"parents":[2147483647,0,0,1,1],"right_children":[2,4,-1,-1,-1],"split_conditions":[2.09512E2,2.080121E0,-5.6075793E-2,-1.3993123E-2,8.4159516E-2],"split_indices":[1,20,0,0,0],"split_type":[0,0,0,0,0],"sum_hessian":[3.5135899E0,2.1230545E0,1.3905352E0,1.080768E0,1.0422865E0],"tree_param":{"num_deleted":"0","num_feature":"22","num_nodes":"5","size_leaf_vector":"1"}},{"base_weights":[8.044198E-3,-5.5927508E-2,1.3454156E-1,8.892924E-2,-3.381236E-2],"categories":[],"categories_nodes":[],"categories_segments":[],"categories_sizes":[],"default_left":[0,0,0,0,0],"id":35,"left_children":[1,-1,3,-1,-1],"loss_changes":[1.3465023E-1,0E0,1.6467693E-1,0E0,0E0],"parents":[2147483647,0,0,2,2],"right_children":[2,-1,4,-1,-1],"split_conditions":[1.78713E-1,-5.5927508E-2,4E-5,8.892924E-2,-3.381236E-2],"split_indices":[19,0,4,0,0],"split_type":[0,0,0,0,0],"sum_hessian":[3.4540255E0,1.1745692E0,2.2794561E0,1.2573068E0,1.0221494E0],"tree_param":{"num_deleted":"0","num_feature":"22","num_nodes":"5","size_leaf_vector":"1"}},{"base_weights":[5.8673993E-3,-5.7068627E-2,1.2932168E-1,-4.983619E-2,1.0160253E-1],"categories":[],"categories_nodes":[],"categories_segments":[],"categories_sizes":[],"default_left":[0,0,0,0,0],"id":36,"left_children":[1,-1,3,-1,-1],"loss_changes":[1.3097854E-1,0E0,2.598669E-1,0E0,0E0],"parents":[2147483647,0,0,2,2],"right_children":[2,-1,4,-1,-1],"split_conditions":[4.95E-3,-5.7068627E-2,6.83296E-1,-4.983619E-2,1.0160253E-1],"split_indices":[14,0,17,0,0],"split_type":[0,0,0,0,0],"sum_hessian":[3.394161E0,1.1023276E0,2.2918332E0,1.0361336E0,1.2556995E0],"tree_param":{"num_deleted":"0","num_feature":"22","num_nodes":"5","size_leaf_vector":"1"}},{"base_weights":[3.5858117E-3,-4.461488E-2,4.502235E-2],"categories":[],"categories_nodes":[],"categories_segments":[],"categories_sizes":[],"default_left":[0,0,0],"id":37,"left_children":[1,-1,-1],"loss_changes":[1.1830897E-1,0E0,0E0],"parents":[2147483647,0,0],"right_children":[2,-1,-1],"split_conditions":[2.205024E0,-4.461488E-2,4.502235E-2],"split_indices":[20,0,0],"split_type":[0,0,0],"sum_hessian":[3.3024724E0,1.6116538E0,1.6908187E0],"tree_param":{"num_deleted":"0","num_feature":"22","num_nodes":"3","size_leaf_vector":"1"}},{"base_weights":[2.6639071E-3,-4.6287987E-2,4.5900203E-2],"categories":[],"categories_nodes":[],"categories_segments":[],"categories_sizes":[],"default_left":[0,0,0],"id":38,"left_children":[1,-1,-1],"loss_changes":[1.2441444E-1,0E0,0E0],"parents":[2147483647,0,0],"right_children":[2,-1,-1],"split_conditions":[4.54444E-1,-4.6287987E-2,4.5900203E-2],"split_indices":[16,0,0],"split_type":[0,0,0],"sum_hessian":[3.2721477E0,1.5879505E0,1.6841972E0],"tree_param":{"num_deleted":"0","num_feature":"22","num_nodes":"3","size_leaf_vector":"1"}},{"base_weights":[1.8256359E-3,3.7302285E-2,-4.8661817E-2],"categories":[],"categories_nodes":[],"categories_segments":[],"categories_sizes":[],"default_left":[0,0,0],"id":39,"left_children":[1,-1,-1],"loss_changes":[1.05432466E-1,0E0,0E0],"parents":[2147483647,0,0],"right_children":[2,-1,-1],"split_conditions":[2.09512E2,3.7302285E-2,-4.8661817E-2],"split_indices":[1,0,0],"split_type":[0,0,0],"sum_hessian":[3.2427318E0,1.9947914E0,1.2479404E0],"tree_param":{"num_deleted":"0","num_feature":"22","num_nodes":"3","size_leaf_vector":"1"}},{"base_weights":[-1.4080283E-3,-3.9636288E-2,4.8630174E-2],"categories":[],"categories_nodes":[],"categories_segments":[],"categories_sizes":[],"default_left":[0,0,0],"id":40,"left_children":[1,-1,-1],"loss_changes":[1.1156133E-1,0E0,0E0],"parents":[2147483647,0,0],"right_children":[2,-1,-1],"split_conditions":[1.89E-3,-3.9636288E-2,4.8630174E-2],"split_indices":[5,0,0],"split_type":[0,0,0],"sum_hessian":[3.2177403E0,1.8948847E0,1.3228556E0],"tree_param":{"num_deleted":"0","num_feature":"22","num_nodes":"3","size_leaf_vector":"1"}},{"base_weights":[1.2229276E-3,5.4961022E-2,-1.19166985E-1,-9.4991714E-2,3.889897E-2],"categories":[],"categories_nodes":[],"categories_segments":[],"categories_sizes":[],"default_left":[0,0,0,0,0],"id":41,"left_children":[1,-1,3,-1,-1],"loss_changes":[1.1358879E-1,0E0,1.946845E-1,0E0,0E0],"parents":[2147483647,0,0,2,2],"right_children":[2,-1,4,-1,-1],"split_conditions":[8.1E-3,5.4961022E-2,1.92E-1,-9.4991714E-2,3.889897E-2],"split_indices":[10,0,9,0,0],"split_type":[0,0,0,0,0],"sum_hessian":[3.18817E0,1.061645E0,2.126525E0,1.0336825E0,1.0928423E0],"tree_param":{"num_deleted":"0","num_feature":"22","num_nodes":"5","size_leaf_vector":"1"}},{"base_weights":[2.8982473E-4,-1.1251525E-1,5.220357E-2,2.1986356E-2,-7.109192E-2],"categories":[],"categories_nodes":[],"categories_segments":[],"categories_sizes":[],"default_left":[0,0,0,0,0],"id":42,"left_children":[1,3,-1,-1,-1],"loss_changes":[1.0036772E-1,8.921166E-2,0E0,0E0,0E0],"parents":[2147483647,0,0,1,1],"right_children":[2,4,-1,-1,-1],"split_conditions":[1.84985E-1,8.55E-3,5.220357E-2,2.1986356E-2,-7.109192E-2],"split_indices":[21,10,0,0,0],"split_type":[0,0,0,0,0],"sum_hessian":[3.1225615E0,2.1068323E0,1.0157291E0,1.0100586E0,1.0967737E0],"tree_param":{"num_deleted":"0","num_feature":"22","num_nodes":"5","size_leaf_vector":"1"}},{"base_weights":[8.8488014E-4,-4.231724E-2,4.1662473E-2],"categories":[],"categories_nodes":[],"categories_segments":[],"categories_sizes":[],"default_left":[0,0,0],"id":43,"left_children":[1,-1,-1],"loss_changes":[9.940903E-2,0E0,0E0],"parents":[2147483647,0,0],"right_children":[2,-1,-1],"split_conditions":[2.205024E0,-4.231724E-2,4.1662473E-2],"split_indices":[20,0,0],"split_type":[0,0,0],"sum_hessian":[3.0752134E0,1.5049396E0,1.5702738E0],"tree_param":{"num_deleted":"0","num_feature":"22","num_nodes":"3","size_leaf_vector":"1"}},{"base_weights":[4.8966566E-4,-5.1061854E-2,3.4928042E-2],"categories":[],"categories_nodes":[],"categories_segments":[],"categories_sizes":[],"default_left":[0,0,0],"id":44,"left_children":[1,-1,-1],"loss_changes":[9.995927E-2,0E0,0E0],"parents":[2147483647,0,0],"right_children":[2,-1,-1],"split_conditions":[1.78713E-1,-5.1061854E-2,3.4928042E-2],"split_indices":[19,0,0],"split_type":[0,0,0],"sum_hessian":[3.0496593E0,1.0441915E0,2.0054677E0],"tree_param":{"num_deleted":"0","num_feature":"22","num_nodes":"3","size_leaf_vector":"1"}},{"base_weights":[-3.6836478E-3,3.325091E-2,-4.616106E-2],"categories":[],"categories_nodes":[],"categories_segments":[],"categories_sizes":[],"default_left":[0,0,0],"id":45,"left_children":[1,-1,-1],"loss_changes":[8.6285986E-2,0E0,0E0],"parents":[2147483647,0,0],"right_children":[2,-1,-1],"split_conditions":[2.09512E2,3.325091E-2,-4.616106E-2],"split_indices":[1,0,0],"split_type":[0,0,0],"sum_hessian":[3.02524E0,1.8650861E0,1.1601539E0],"tree_param":{"num_deleted":"0","num_feature":"22","num_nodes":"3","size_leaf_vector":"1"}},{"base_weights":[-5.8249747E-3,-4.4003993E-2,4.0419225E-2],"categories":[],"categories_nodes":[],"categories_segments":[],"categories_sizes":[],"default_left":[0,0,0],"id":46,"left_children":[1,-1,-1],"loss_changes":[9.904698E-2,0E0,0E0],"parents":[2147483647,0,0],"right_children":[2,-1,-1],"split_conditions":[1.36358E2,-4.4003993E-2,4.0419225E-2],"split_indices":[0,0,0],"split_type":[0,0,0],"sum_hessian":[3.0046864E0,1.4789827E0,1.5257037E0],"tree_param":{"num_deleted":"0","num_feature":"22","num_nodes":"3","size_leaf_vector":"1"}},{"base_weights":[-4.982247E-3,-4.6669777E-2,3.2234192E-2],"categories":[],"categories_nodes":[],"categories_segments":[],"categories_sizes":[],"default_left":[0,0,0],"id":47,"left_children":[1,-1,-1],"loss_changes":[8.415199E-2,0E0,0E0],"parents":[2147483647,0,0],"right_children":[2,-1,-1],"split_conditions":[-6.635729E0,-4.6669777E-2,3.2234192E-2],"split_indices":[18,0,0],"split_type":[0,0,0],"sum_hessian":[2.9832633E0,1.1112391E0,1.8720242E0],"tree_param":{"num_deleted":"0","num_feature":"22","num_nodes":"3","size_leaf_vector":"1"}},{"base_weights":[-7.1743666E-3,-3.9473042E-2,3.529039E-2],"categories":[],"categories_nodes":[],"categories_segments":[],"categories_sizes":[],"default_left":[0,0,0],"id":48,"left_children":[1,-1,-1],"loss_changes":[7.6965995E-2,0E0,0E0],"parents":[2147483647,0,0],"right_children":[2,-1,-1],"split_conditions":[4.54444E-1,-3.9473042E-2,3.529039E-2],"split_indices":[16,0,0],"split_type":[0,0,0],"sum_hessian":[2.9601867E0,1.455351E0,1.5048358E0],"tree_param":{"num_deleted":"0","num_feature":"22","num_nodes":"3","size_leaf_vector":"1"}},{"base_weights":[-6.098019E-3,-4.141195E-2,3.77903E-2],"categories":[],"categories_nodes":[],"categories_segments":[],"categories_sizes":[],"default_left":[0,0,0],"id":49,"left_children":[1,-1,-1],"loss_changes":[8.6067885E-2,0E0,0E0],"parents":[2147483647,0,0],"right_children":[2,-1,-1],"split_conditions":[1.36358E2,-4.141195E-2,3.77903E-2],"split_indices":[0,0,0],"split_type":[0,0,0],"sum_hessian":[2.9414284E0,1.4487755E0,1.492653E0],"tree_param":{"num_deleted":"0","num_feature":"22","num_nodes":"3","size_leaf_vector":"1"}},{"base_weights":[-5.1992927E-3,3.4067854E-2,-4.5810204E-2],"categories":[],"categories_nodes":[],"categories_segments":[],"categories_sizes":[],"default_left":[0,0,0],"id":50,"left_children":[1,-1,-1],"loss_changes":[8.605367E-2,0E0,0E0],"parents":[2147483647,0,0],"right_children":[2,-1,-1],"split_conditions":[2.06896E2,3.4067854E-2,-4.5810204E-2],"split_indices":[1,0,0],"split_type":[0,0,0],"sum_hessian":[2.9226303E0,1.7465395E0,1.1760908E0],"tree_param":{"num_deleted":"0","num_feature":"22","num_nodes":"3","size_leaf_vector":"1"}},{"base_weights":[-6.677592E-3,-4.0309194E-2,3.627733E-2],"categories":[],"categories_nodes":[],"categories_segments":[],"categories_sizes":[],"default_left":[0,0,0],"id":51,"left_children":[1,-1,-1],"loss_changes":[7.9828925E-2,0E0,0E0],"parents":[2147483647,0,0],"right_children":[2,-1,-1],"split_conditions":[2.205024E0,-4.0309194E-2,3.627733E-2],"split_indices":[20,0,0],"split_type":[0,0,0],"sum_hessian":[2.9023438E0,1.4242047E0,1.4781389E0],"tree_param":{"num_deleted":"0","num_feature":"22","num_nodes":"3","size_leaf_vector":"1"}},{"base_weights":[-5.7289386E-3,-3.4012698E-2,3.885182E-2],"categories":[],"categories_nodes":[],"categories_segments":[],"categories_sizes":[],"default_left":[0,0,0],"id":52,"left_children":[1,-1,-1],"loss_changes":[7.1190335E-2,0E0,0E0],"parents":[2147483647,0,0],"right_children":[2,-1,-1],"split_conditions":[1.89E-3,-3.4012698E-2,3.885182E-2],"split_indices":[5,0,0],"split_type":[0,0,0],"sum_hessian":[2.8816478E0,1.6944833E0,1.1871645E0],"tree_param":{"num_deleted":"0","num_feature":"22","num_nodes":"3","size_leaf_vector":"1"}},{"base_weights":[-2.7462766E-3,3.3247598E-2,-4.3342035E-2],"categories":[],"categories_nodes":[],"categories_segments":[],"categories_sizes":[],"default_left":[0,0,0],"id":53,"left_children":[1,-1,-1],"loss_changes":[7.817696E-2,0E0,0E0],"parents":[2147483647,0,0],"right_children":[2,-1,-1],"split_conditions":[2.06896E2,3.3247598E-2,-4.3342035E-2],"split_indices":[1,0,0],"split_type":[0,0,0],"sum_hessian":[2.862137E0,1.7099355E0,1.1522014E0],"tree_param":{"num_deleted":"0","num_feature":"22","num_nodes":"3","size_leaf_vector":"1"}},{"base_weights":[-4.5612142E-3,-3.8496193E-2,3.5898916E-2],"categories":[],"categories_nodes":[],"categories_segments":[],"categories_sizes":[],"default_left":[0,0,0],"id":54,"left_children":[1,-1,-1],"loss_changes":[7.4450135E-2,0E0,0E0],"parents":[2147483647,0,0],"right_children":[2,-1,-1],"split_conditions":[1.36358E2,-3.8496193E-2,3.5898916E-2],"split_indices":[0,0,0],"split_type":[0,0,0],"sum_hessian":[2.8438401E0,1.4080667E0,1.4357734E0],"tree_param":{"num_deleted":"0","num_feature":"22","num_nodes":"3","size_leaf_vector":"1"}},{"base_weights":[-3.8716912E-3,-3.8769618E-2,3.5976592E-2],"categories":[],"categories_nodes":[],"categories_segments":[],"categories_sizes":[],"default_left":[0,0,0],"id":55,"left_children":[1,-1,-1],"loss_changes":[7.488908E-2,0E0,0E0],"parents":[2147483647,0,0],"right_children":[2,-1,-1],"split_conditions":[4.54444E-1,-3.8769618E-2,3.5976592E-2],"split_indices":[16,0,0],"split_type":[0,0,0],"sum_hessian":[2.8270514E0,1.3828099E0,1.4442415E0],"tree_param":{"num_deleted":"0","num_feature":"22","num_nodes":"3","size_leaf_vector":"1"}},{"base_weights":[-3.4432448E-3,2.9452853E-2,-4.005695E-2],"categories":[],"categories_nodes":[],"categories_segments":[],"categories_sizes":[],"default_left":[0,0,0],"id":56,"left_children":[1,-1,-1],"loss_changes":[6.3460864E-2,0E0,0E0],"parents":[2147483647,0,0],"right_children":[2,-1,-1],"split_conditions":[2.09512E2,2.9452853E-2,-4.005695E-2],"split_indices":[1,0,0],"split_type":[0,0,0],"sum_hessian":[2.8091695E0,1.7148098E0,1.0943598E0],"tree_param":{"num_deleted":"0","num_feature":"22","num_nodes":"3","size_leaf_vector":"1"}},{"base_weights":[-5.220214E-3,-3.862566E-2,3.603496E-2],"categories":[],"categories_nodes":[],"categories_segments":[],"categories_sizes":[],"default_left":[0,0,0],"id":57,"left_children":[1,-1,-1],"loss_changes":[7.4206114E-2,0E0,0E0],"parents":[2147483647,0,0],"right_children":[2,-1,-1],"split_conditions":[1.36358E2,-3.862566E-2,3.603496E-2],"split_indices":[0,0,0],"split_type":[0,0,0],"sum_hessian":[2.7938702E0,1.3933415E0,1.4005287E0],"tree_param":{"num_deleted":"0","num_feature":"22","num_nodes":"3","size_leaf_vector":"1"}},{"base_weights":[-4.343266E-3,-3.178188E-2,3.6682084E-2],"categories":[],"categories_nodes":[],"categories_segments":[],"categories_sizes":[],"default_left":[0,0,0],"id":58,"left_children":[1,-1,-1],"loss_changes":[6.1545383E-2,0E0,0E0],"parents":[2147483647,0,0],"right_children":[2,-1,-1],"split_conditions":[1.89E-3,-3.178188E-2,3.6682084E-2],"split_indices":[5,0,0],"split_type":[0,0,0],"sum_hessian":[2.777401E0,1.6315583E0,1.1458428E0],"tree_param":{"num_deleted":"0","num_feature":"22","num_nodes":"3","size_leaf_vector":"1"}},{"base_weights":[-1.7237626E-3,3.1210335E-2,-3.94965E-2],"categories":[],"categories_nodes":[],"categories_segments":[],"categories_sizes":[],"default_left":[0,0,0],"id":59,"left_children":[1,-1,-1],"loss_changes":[6.536922E-2,0E0,0E0],"parents":[2147483647,0,0],"right_children":[2,-1,-1],"split_conditions":[2.06896E2,3.1210335E-2,-3.94965E-2],"split_indices":[1,0,0],"split_type":[0,0,0],"sum_hessian":[2.7603865E0,1.6316266E0,1.1287597E0],"tree_param":{"num_deleted":"0","num_feature":"22","num_nodes":"3","size_leaf_vector":"1"}},{"base_weights":[-3.4245015E-3,3.0564182E-2,-4.076648E-2],"categories":[],"categories_nodes":[],"categories_segments":[],"categories_sizes":[],"default_left":[0,0,0],"id":60,"left_children":[1,-1,-1],"loss_changes":[6.6084094E-2,0E0,0E0],"parents":[2147483647,0,0],"right_children":[2,-1,-1],"split_conditions":[4E-5,3.0564182E-2,-4.076648E-2],"split_indices":[4,0,0],"split_type":[0,0,0],"sum_hessian":[2.7450216E0,1.6579086E0,1.087113E0],"tree_param":{"num_deleted":"0","num_feature":"22","num_nodes":"3","size_leaf_vector":"1"}},{"base_weights":[-5.131153E-3,-3.600273E-2,3.244865E-2],"categories":[],"categories_nodes":[],"categories_segments":[],"categories_sizes":[],"default_left":[0,0,0],"id":61,"left_children":[1,-1,-1],"loss_changes":[6.1597552E-2,0E0,0E0],"parents":[2147483647,0,0],"right_children":[2,-1,-1],"split_conditions":[4.54444E-1,-3.600273E-2,3.244865E-2],"split_indices":[16,0,0],"split_type":[0,0,0],"sum_hessian":[2.735496E0,1.328816E0,1.4066799E0],"tree_param":{"num_deleted":"0","num_feature":"22","num_nodes":"3","size_leaf_vector":"1"}},{"base_weights":[-4.5546787E-3,-3.6030952E-2,3.2884385E-2],"categories":[],"categories_nodes":[],"categories_segments":[],"categories_sizes":[],"default_left":[0,0,0],"id":62,"left_children":[1,-1,-1],"loss_changes":[6.2244326E-2,0E0,0E0],"parents":[2147483647,0,0],"right_children":[2,-1,-1],"split_conditions":[2.205024E0,-3.6030952E-2,3.2884385E-2],"split_indices":[20,0,0],"split_type":[0,0,0],"sum_hessian":[2.7203555E0,1.3261802E0,1.3941752E0],"tree_param":{"num_deleted":"0","num_feature":"22","num_nodes":"3","size_leaf_vector":"1"}},{"base_weights":[-4.043932E-3,-3.0916542E-2,3.5859197E-2],"categories":[],"categories_nodes":[],"categories_segments":[],"categories_sizes":[],"default_left":[0,0,0],"id":63,"left_children":[1,-1,-1],"loss_changes":[5.7634875E-2,0E0,0E0],"parents":[2147483647,0,0],"right_children":[2,-1,-1],"split_conditions":[1.89E-3,-3.0916542E-2,3.5859197E-2],"split_indices":[5,0,0],"split_type":[0,0,0],"sum_hessian":[2.7037706E0,1.5932589E0,1.1105119E0],"tree_param":{"num_deleted":"0","num_feature":"22","num_nodes":"3","size_leaf_vector":"1"}},{"base_weights":[-1.4771151E-3,3.681987E-2,-3.3131737E-2],"categories":[],"categories_nodes":[],"categories_segments":[],"categories_sizes":[],"default_left":[0,0,0],"id":64,"left_children":[1,-1,-1],"loss_changes":[6.346745E-2,0E0,0E0],"parents":[2147483647,0,0],"right_children":[2,-1,-1],"split_conditions":[1.367E-2,3.681987E-2,-3.3131737E-2],"split_indices":[12,0,0],"split_type":[0,0,0],"sum_hessian":[2.6879196E0,1.1970142E0,1.4909055E0],"tree_param":{"num_deleted":"0","num_feature":"22","num_nodes":"3","size_leaf_vector":"1"}},{"base_weights":[-1.22865395E-5,-3.6786996E-2,2.8400699E-2],"categories":[],"categories_nodes":[],"categories_segments":[],"categories_sizes":[],"default_left":[0,0,0],"id":65,"left_children":[1,-1,-1],"loss_changes":[5.430969E-2,0E0,0E0],"parents":[2147483647,0,0],"right_children":[2,-1,-1],"split_conditions":[1.3412E-1,-3.6786996E-2,2.8400699E-2],"split_indices":[21,0,0],"split_type":[0,0,0],"sum_hessian":[2.6782823E0,1.0384221E0,1.63986E0],"tree_param":{"num_deleted":"0","num_feature":"22","num_nodes":"3","size_leaf_vector":"1"}},{"base_weights":[-2.3041207E-3,-3.3782117E-2,3.2236017E-2],"categories":[],"categories_nodes":[],"categories_segments":[],"categories_sizes":[],"default_left":[0,0,0],"id":66,"left_children":[1,-1,-1],"loss_changes":[5.6427594E-2,0E0,0E0],"parents":[2147483647,0,0],"right_children":[2,-1,-1],"split_conditions":[1.36358E2,-3.3782117E-2,3.2236017E-2],"split_indices":[0,0,0],"split_type":[0,0,0],"sum_hessian":[2.661447E0,1.3144765E0,1.3469706E0],"tree_param":{"num_deleted":"0","num_feature":"22","num_nodes":"3","size_leaf_vector":"1"}},{"base_weights":[-2.0308027E-3,3.0837463E-2,-3.8784802E-2],"categories":[],"categories_nodes":[],"categories_segments":[],"categories_sizes":[],"default_left":[0,0,0],"id":67,"left_children":[1,-1,-1],"loss_changes":[6.1953817E-2,0E0,0E0],"parents":[2147483647,0,0],"right_children":[2,-1,-1],"split_conditions":[2.06896E2,3.0837463E-2,-3.8784802E-2],"split_indices":[1,0,0],"split_type":[0,0,0],"sum_hessian":[2.6483421E0,1.5575484E0,1.0907938E0],"tree_param":{"num_deleted":"0","num_feature":"22","num_nodes":"3","size_leaf_vector":"1"}},{"base_weights":[-3.6154734E-3,-3.3473145E-2,3.1220183E-2],"categories":[],"categories_nodes":[],"categories_segments":[],"categories_sizes":[],"default_left":[0,0,0],"id":68,"left_children":[1,-1,-1],"loss_changes":[5.3855605E-2,0E0,0E0],"parents":[2147483647,0,0],"right_children":[2,-1,-1],"split_conditions":[4.54444E-1,-3.3473145E-2,3.1220183E-2],"split_indices":[16,0,0],"split_type":[0,0,0],"sum_hessian":[2.633708E0,1.2970914E0,1.3366166E0],"tree_param":{"num_deleted":"0","num_feature":"22","num_nodes":"3","size_leaf_vector":"1"}},{"base_weights":[-3.153341E-3,-3.4482464E-2,3.280796E-2],"categories":[],"categories_nodes":[],"categories_segments":[],"categories_sizes":[],"default_left":[0,0,0],"id":69,"left_children":[1,-1,-1],"loss_changes":[5.8106415E-2,0E0,0E0],"parents":[2147483647,0,0],"right_children":[2,-1,-1],"split_conditions":[1.36358E2,-3.4482464E-2,3.280796E-2],"split_indices":[0,0,0],"split_type":[0,0,0],"sum_hessian":[2.6204243E0,1.3036209E0,1.3168035E0],"tree_param":{"num_deleted":"0","num_feature":"22","num_nodes":"3","size_leaf_vector":"1"}},{"base_weights":[-2.6689772E-3,2.7405936E-2,-3.5872698E-2],"categories":[],"categories_nodes":[],"categories_segments":[],"categories_sizes":[],"default_left":[0,0,0],"id":70,"left_children":[1,-1,-1],"loss_changes":[5.057306E-2,0E0,0E0],"parents":[2147483647,0,0],"right_children":[2,-1,-1],"split_conditions":[2.09512E2,2.7405936E-2,-3.5872698E-2],"split_indices":[1,0,0],"split_type":[0,0,0],"sum_hessian":[2.6071815E0,1.5661708E0,1.0410107E0],"tree_param":{"num_deleted":"0","num_feature":"22","num_nodes":"3","size_leaf_vector":"1"}},{"base_weights":[-4.2325063E-3,-3.1173637E-2,3.578861E-2],"categories":[],"categories_nodes":[],"categories_segments":[],"categories_sizes":[],"default_left":[0,0,0],"id":71,"left_children":[1,-1,-1],"loss_changes":[5.6661006E-2,0E0,0E0],"parents":[2147483647,0,0],"right_children":[2,-1,-1],"split_conditions":[1.89E-3,-3.1173637E-2,3.578861E-2],"split_indices":[5,0,0],"split_type":[0,0,0],"sum_hessian":[2.5949008E0,1.5239557E0,1.070945E0],"tree_param":{"num_deleted":"0","num_feature":"22","num_nodes":"3","size_leaf_vector":"1"}},{"base_weights":[-1.6626818E-3,2.8467933E-2,-3.7224546E-2],"categories":[],"categories_nodes":[],"categories_segments":[],"categories_sizes":[],"default_left":[0,0,0],"id":72,"left_children":[1,-1,-1],"loss_changes":[5.408548E-2,0E0,0E0],"parents":[2147483647,0,0],"right_children":[2,-1,-1],"split_conditions":[4E-5,2.8467933E-2,-3.7224546E-2],"split_indices":[4,0,0],"split_type":[0,0,0],"sum_hessian":[2.5795248E0,1.5678015E0,1.0117233E0],"tree_param":{"num_deleted":"0","num_feature":"22","num_nodes":"3","size_leaf_vector":"1"}},{"base_weights":[-3.6153928E-3,-3.0400842E-2,3.244858E-2],"categories":[],"categories_nodes":[],"categories_segments":[],"categories_sizes":[],"default_left":[0,0,0],"id":73,"left_children":[1,-1,-1],"loss_changes":[4.9971562E-2,0E0,0E0],"parents":[2147483647,0,0],"right_children":[2,-1,-1],"split_conditions":[1.09216E2,-3.0400842E-2,3.244858E-2],"split_indices":[2,0,0],"split_type":[0,0,0],"sum_hessian":[2.5714538E0,1.4218335E0,1.1496203E0],"tree_param":{"num_deleted":"0","num_feature":"22","num_nodes":"3","size_leaf_vector":"1"}},{"base_weights":[-1.9480742E-3,-3.0370606E-2,3.57368E-2],"categories":[],"categories_nodes":[],"categories_segments":[],"categories_sizes":[],"default_left":[0,0,0],"id":74,"left_children":[1,-1,-1],"loss_changes":[5.4880526E-2,0E0,0E0],"parents":[2147483647,0,0],"right_children":[2,-1,-1],"split_conditions":[1.89E-3,-3.0370606E-2,3.57368E-2],"split_indices":[5,0,0],"split_type":[0,0,0],"sum_hessian":[2.5622556E0,1.4977878E0,1.0644678E0],"tree_param":{"num_deleted":"0","num_feature":"22","num_nodes":"3","size_leaf_vector":"1"}},{"base_weights":[1.6808271E-4,-3.175476E-2,3.1170115E-2],"categories":[],"categories_nodes":[],"categories_segments":[],"categories_sizes":[],"default_left":[0,0,0],"id":75,"left_children":[1,-1,-1],"loss_changes":[5.000752E-2,0E0,0E0],"parents":[2147483647,0,0],"right_children":[2,-1,-1],"split_conditions":[4.54444E-1,-3.175476E-2,3.1170115E-2],"split_indices":[16,0,0],"split_type":[0,0,0],"sum_hessian":[2.5471745E0,1.2496207E0,1.2975539E0],"tree_param":{"num_deleted":"0","num_feature":"22","num_nodes":"3","size_leaf_vector":"1"}},{"base_weights":[-3.5559406E-5,-2.7077697E-2,3.3602744E-2],"categories":[],"categories_nodes":[],"categories_segments":[],"categories_sizes":[],"default_left":[0,0,0],"id":76,"left_children":[1,-1,-1],"loss_changes":[4.5843218E-2,0E0,0E0],"parents":[2147483647,0,0],"right_children":[2,-1,-1],"split_conditions":[2.5119E1,-2.7077697E-2,3.3602744E-2],"split_indices":[15,0,0],"split_type":[0,0,0],"sum_hessian":[2.5347898E0,1.5118322E0,1.0229576E0],"tree_param":{"num_deleted":"0","num_feature":"22","num_nodes":"3","size_leaf_vector":"1"}},{"base_weights":[1.8443019E-3,-3.327263E-2,2.8037518E-2],"categories":[],"categories_nodes":[],"categories_segments":[],"categories_sizes":[],"default_left":[0,0,0],"id":77,"left_children":[1,-1,-1],"loss_changes":[4.679921E-2,0E0,0E0],"parents":[2147483647,0,0],"right_children":[2,-1,-1],"split_conditions":[2.125618E0,-3.327263E-2,2.8037518E-2],"split_indices":[20,0,0],"split_type":[0,0,0],"sum_hessian":[2.5270734E0,1.0384294E0,1.4886441E0],"tree_param":{"num_deleted":"0","num_feature":"22","num_nodes":"3","size_leaf_vector":"1"}},{"base_weights":[-1.918103E-4,-3.3468593E-2,2.8028196E-2],"categories":[],"categories_nodes":[],"categories_segments":[],"categories_sizes":[],"default_left":[0,0,0],"id":78,"left_children":[1,-1,-1],"loss_changes":[4.7063563E-2,0E0,0E0],"parents":[2147483647,0,0],"right_children":[2,-1,-1],"split_conditions":[-6.471427E0,-3.3468593E-2,2.8028196E-2],"split_indices":[18,0,0],"split_type":[0,0,0],"sum_hessian":[2.5142248E0,1.0607222E0,1.4535025E0],"tree_param":{"num_deleted":"0","num_feature":"22","num_nodes":"3","size_leaf_vector":"1"}},{"base_weights":[-1.6881652E-3,2.6639478E-2,-3.2907143E-2],"categories":[],"categories_nodes":[],"categories_segments":[],"categories_sizes":[],"default_left":[0,0,0],"id":79,"left_children":[1,-1,-1],"loss_changes":[4.3948572E-2,0E0,0E0],"parents":[2147483647,0,0],"right_children":[2,-1,-1],"split_conditions":[2.06896E2,2.6639478E-2,-3.2907143E-2],"split_indices":[1,0,0],"split_type":[0,0,0],"sum_hessian":[2.5003736E0,1.4572624E0,1.0431112E0],"tree_param":{"num_deleted":"0","num_feature":"22","num_nodes":"3","size_leaf_vector":"1"}},{"base_weights":[-2.981142E-3,-3.3254642E-2,3.1535298E-2],"categories":[],"categories_nodes":[],"categories_segments":[],"categories_sizes":[],"default_left":[0,0,0],"id":80,"left_children":[1,-1,-1],"loss_changes":[5.2342214E-2,0E0,0E0],"parents":[2147483647,0,0],"right_children":[2,-1,-1],"split_conditions":[1.36358E2,-3.3254642E-2,3.1535298E-2],"split_indices":[0,0,0],"split_type":[0,0,0],"sum_hessian":[2.489604E0,1.2334007E0,1.2562033E0],"tree_param":{"num_deleted":"0","num_feature":"22","num_nodes":"3","size_leaf_vector":"1"}},{"base_weights":[-2.5792394E-3,-3.0962724E-2,2.9448133E-2],"categories":[],"categories_nodes":[],"categories_segments":[],"categories_sizes":[],"default_left":[0,0,0],"id":81,"left_children":[1,-1,-1],"loss_changes":[4.5383833E-2,0E0,0E0],"parents":[2147483647,0,0],"right_children":[2,-1,-1],"split_conditions":[4.54444E-1,-3.0962724E-2,2.9448133E-2],"split_indices":[16,0,0],"split_type":[0,0,0],"sum_hessian":[2.4774914E0,1.2271583E0,1.250333E0],"tree_param":{"num_deleted":"0","num_feature":"22","num_nodes":"3","size_leaf_vector":"1"}},{"base_weights":[-2.2408841E-3,-2.7797759E-2,3.237042E-2],"categories":[],"categories_nodes":[],"categories_segments":[],"categories_sizes":[],"default_left":[0,0,0],"id":82,"left_children":[1,-1,-1],"loss_changes":[4.4517606E-2,0E0,0E0],"parents":[2147483647,0,0],"right_children":[2,-1,-1],"split_conditions":[1.89E-3,-2.7797759E-2,3.237042E-2],"split_indices":[5,0,0],"split_type":[0,0,0],"sum_hessian":[2.466209E0,1.4415442E0,1.0246648E0],"tree_param":{"num_deleted":"0","num_feature":"22","num_nodes":"3","size_leaf_vector":"1"}},{"base_weights":[-2.3129045E-4,3.2934975E-2,-2.8824076E-2],"categories":[],"categories_nodes":[],"categories_segments":[],"categories_sizes":[],"default_left":[0,0,0],"id":83,"left_children":[1,-1,-1],"loss_changes":[4.696834E-2,0E0,0E0],"parents":[2147483647,0,0],"right_children":[2,-1,-1],"split_conditions":[1.367E-2,3.2934975E-2,-2.8824076E-2],"split_indices":[12,0,0],"split_type":[0,0,0],"sum_hessian":[2.4538746E0,1.0748241E0,1.3790504E0],"tree_param":{"num_deleted":"0","num_feature":"22","num_nodes":"3","size_leaf_vector":"1"}},{"base_weights":[1.046741E-3,-2.9058509E-2,2.8926346E-2],"categories":[],"categories_nodes":[],"categories_segments":[],"categories_sizes":[],"default_left":[0,0,0],"id":84,"left_children":[1,-1,-1],"loss_changes":[4.151985E-2,0E0,0E0],"parents":[2147483647,0,0],"right_children":[2,-1,-1],"split_conditions":[1.36358E2,-2.9058509E-2,2.8926346E-2],"split_indices":[0,0,0],"split_type":[0,0,0],"sum_hessian":[2.4461849E0,1.1993624E0,1.2468225E0],"tree_param":{"num_deleted":"0","num_feature":"22","num_nodes":"3","size_leaf_vector":"1"}},{"base_weights":[7.059421E-4,2.860545E-2,-3.334047E-2],"categories":[],"categories_nodes":[],"categories_segments":[],"categories_sizes":[],"default_left":[0,0,0],"id":85,"left_children":[1,-1,-1],"loss_changes":[4.6971355E-2,0E0,0E0],"parents":[2147483647,0,0],"right_children":[2,-1,-1],"split_conditions":[2.06896E2,2.860545E-2,-3.334047E-2],"split_indices":[1,0,0],"split_type":[0,0,0],"sum_hessian":[2.4363406E0,1.3994709E0,1.0368696E0],"tree_param":{"num_deleted":"0","num_feature":"22","num_nodes":"3","size_leaf_vector":"1"}},{"base_weights":[-8.8370015E-4,-2.6974201E-2,3.189378E-2],"categories":[],"categories_nodes":[],"categories_segments":[],"categories_sizes":[],"default_left":[0,0,0],"id":86,"left_children":[1,-1,-1],"loss_changes":[4.2245228E-2,0E0,0E0],"parents":[2147483647,0,0],"right_children":[2,-1,-1],"split_conditions":[1.89E-3,-2.6974201E-2,3.189378E-2],"split_indices":[5,0,0],"split_type":[0,0,0],"sum_hessian":[2.4248958E0,1.4127653E0,1.0121305E0],"tree_param":{"num_deleted":"0","num_feature":"22","num_nodes":"3","size_leaf_vector":"1"}},{"base_weights":[8.394798E-4,-2.7551375E-2,3.164183E-2],"categories":[],"categories_nodes":[],"categories_segments":[],"categories_sizes":[],"default_left":[0,0,0],"id":87,"left_children":[1,-1,-1],"loss_changes":[4.2783402E-2,0E0,0E0],"parents":[2147483647,0,0],"right_children":[2,-1,-1],"split_conditions":[1.09216E2,-2.7551375E-2,3.164183E-2],"split_indices":[2,0,0],"split_type":[0,0,0],"sum_hessian":[2.4130688E0,1.3444922E0,1.0685766E0],"tree_param":{"num_deleted":"0","num_feature":"22","num_nodes":"3","size_leaf_vector":"1"}},{"base_weights":[1.805704E-3,2.7462598E-2,-2.9977193E-2],"categories":[],"categories_nodes":[],"categories_segments":[],"categories_sizes":[],"default_left":[0,0,0],"id":88,"left_children":[1,-1,-1],"loss_changes":[4.0230054E-2,0E0,0E0],"parents":[2147483647,0,0],"right_children":[2,-1,-1],"split_conditions":[7.25216E-1,2.7462598E-2,-2.9977193E-2],"split_indices":[17,0,0],"split_type":[0,0,0],"sum_hessian":[2.4049015E0,1.330981E0,1.0739206E0],"tree_param":{"num_deleted":"0","num_feature":"22","num_nodes":"3","size_leaf_vector":"1"}},{"base_weights":[5.333397E-4,2.6363429E-2,-3.0442197E-2],"categories":[],"categories_nodes":[],"categories_segments":[],"categories_sizes":[],"default_left":[0,0,0],"id":89,"left_children":[1,-1,-1],"loss_changes":[3.9181177E-2,0E0,0E0],"parents":[2147483647,0,0],"right_children":[2,-1,-1],"split_conditions":[2.06896E2,2.6363429E-2,-3.0442197E-2],"split_indices":[1,0,0],"split_type":[0,0,0],"sum_hessian":[2.3966885E0,1.3657575E0,1.0309311E0],"tree_param":{"num_deleted":"0","num_feature":"22","num_nodes":"3","size_leaf_vector":"1"}},{"base_weights":[-8.264384E-4,-2.9376779E-2,2.7672298E-2],"categories":[],"categories_nodes":[],"categories_segments":[],"categories_sizes":[],"default_left":[0,0,0],"id":90,"left_children":[1,-1,-1],"loss_changes":[3.96384E-2,0E0,0E0],"parents":[2147483647,0,0],"right_children":[2,-1,-1],"split_conditions":[2.205024E0,-2.9376779E-2,2.7672298E-2],"split_indices":[20,0,0],"split_type":[0,0,0],"sum_hessian":[2.3869262E0,1.1426473E0,1.2442788E0],"tree_param":{"num_deleted":"0","num_feature":"22","num_nodes":"3","size_leaf_vector":"1"}},{"base_weights":[-1.0789414E-3,-2.8687693E-2,2.7759759E-2],"categories":[],"categories_nodes":[],"categories_segments":[],"categories_sizes":[],"default_left":[0,0,0],"id":91,"left_children":[1,-1,-1],"loss_changes":[3.8727924E-2,0E0,0E0],"parents":[2147483647,0,0],"right_children":[2,-1,-1],"split_conditions":[4.54444E-1,-2.8687693E-2,2.7759759E-2],"split_indices":[16,0,0],"split_type":[0,0,0],"sum_hessian":[2.3759584E0,1.1713697E0,1.2045888E0],"tree_param":{"num_deleted":"0","num_feature":"22","num_nodes":"3","size_leaf_vector":"1"}},{"base_weights":[-1.0253693E-3,-2.9050978E-2,2.8067386E-2],"categories":[],"categories_nodes":[],"categories_segments":[],"categories_sizes":[],"default_left":[0,0,0],"id":92,"left_children":[1,-1,-1],"loss_changes":[3.9564017E-2,0E0,0E0],"parents":[2147483647,0,0],"right_children":[2,-1,-1],"split_conditions":[1.36358E2,-2.9050978E-2,2.8067386E-2],"split_indices":[0,0,0],"split_type":[0,0,0],"sum_hessian":[2.3661118E0,1.1635913E0,1.2025205E0],"tree_param":{"num_deleted":"0","num_feature":"22","num_nodes":"3","size_leaf_vector":"1"}},{"base_weights":[-1.0050252E-3,-2.5820829E-2,2.974808E-2],"categories":[],"categories_nodes":[],"categories_segments":[],"categories_sizes":[],"default_left":[0,0,0],"id":93,"left_children":[1,-1,-1],"loss_changes":[3.713716E-2,0E0,0E0],"parents":[2147483647,0,0],"right_children":[2,-1,-1],"split_conditions":[-6.186128E0,-2.5820829E-2,2.974808E-2],"split_indices":[18,0,0],"split_type":[0,0,0],"sum_hessian":[2.3569028E0,1.3506242E0,1.0062786E0],"tree_param":{"num_deleted":"0","num_feature":"22","num_nodes":"3","size_leaf_vector":"1"}},{"base_weights":[4.836104E-4,2.5675455E-2,-2.9721284E-2],"categories":[],"categories_nodes":[],"categories_segments":[],"categories_sizes":[],"default_left":[0,0,0],"id":94,"left_children":[1,-1,-1],"loss_changes":[3.6820672E-2,0E0,0E0],"parents":[2147483647,0,0],"right_children":[2,-1,-1],"split_conditions":[2.06896E2,2.5675455E-2,-2.9721284E-2],"split_indices":[1,0,0],"split_type":[0,0,0],"sum_hessian":[2.3452523E0,1.3400623E0,1.0051901E0],"tree_param":{"num_deleted":"0","num_feature":"22","num_nodes":"3","size_leaf_vector":"1"}},{"base_weights":[-8.7023864E-4,-2.8291227E-2,2.7525384E-2],"categories":[],"categories_nodes":[],"categories_segments":[],"categories_sizes":[],"default_left":[0,0,0],"id":95,"left_children":[1,-1,-1],"loss_changes":[3.7522603E-2,0E0,0E0],"parents":[2147483647,0,0],"right_children":[2,-1,-1],"split_conditions":[1.36358E2,-2.8291227E-2,2.7525384E-2],"split_indices":[0,0,0],"split_type":[0,0,0],"sum_hessian":[2.336045E0,1.1538794E0,1.1821656E0],"tree_param":{"num_deleted":"0","num_feature":"22","num_nodes":"3","size_leaf_vector":"1"}},{"base_weights":[-8.3380734E-4,-2.6789397E-2,2.6076699E-2],"categories":[],"categories_nodes":[],"categories_segments":[],"categories_sizes":[],"default_left":[0,0,0],"id":96,"left_children":[1,-1,-1],"loss_changes":[3.3592205E-2,0E0,0E0],"parents":[2147483647,0,0],"right_children":[2,-1,-1],"split_conditions":[4.54444E-1,-2.6789397E-2,2.6076699E-2],"split_indices":[16,0,0],"split_type":[0,0,0],"sum_hessian":[2.3272326E0,1.1501914E0,1.1770412E0],"tree_param":{"num_deleted":"0","num_feature":"22","num_nodes":"3","size_leaf_vector":"1"}},{"base_weights":[-7.936497E-4,-2.5999384E-2,2.5295079E-2],"categories":[],"categories_nodes":[],"categories_segments":[],"categories_sizes":[],"default_left":[0,0,0],"id":97,"left_children":[1,-1,-1],"loss_changes":[3.1561863E-2,0E0,0E0],"parents":[2147483647,0,0],"right_children":[2,-1,-1],"split_conditions":[1.36358E2,-2.5999384E-2,2.5295079E-2],"split_indices":[0,0,0],"split_type":[0,0,0],"sum_hessian":[2.318667E0,1.1450888E0,1.1735781E0],"tree_param":{"num_deleted":"0","num_feature":"22","num_nodes":"3","size_leaf_vector":"1"}},{"base_weights":[-7.634796E-4,2.5392579E-2,-2.9718423E-2],"categories":[],"categories_nodes":[],"categories_segments":[],"categories_sizes":[],"default_left":[0,0,0],"id":98,"left_children":[1,-1,-1],"loss_changes":[3.6183093E-2,0E0,0E0],"parents":[2147483647,0,0],"right_children":[2,-1,-1],"split_conditions":[2.06002E2,2.5392579E-2,-2.9718423E-2],"split_indices":[1,0,0],"split_type":[0,0,0],"sum_hessian":[2.3112285E0,1.311054E0,1.0001746E0],"tree_param":{"num_deleted":"0","num_feature":"22","num_nodes":"3","size_leaf_vector":"1"}},{"base_weights":[-1.8443327E-3,-2.566543E-2,2.5641209E-2],"categories":[],"categories_nodes":[],"categories_segments":[],"categories_sizes":[],"default_left":[0,0,0],"id":99,"left_children":[1,-1,-1],"loss_changes":[3.1447295E-2,0E0,0E0],"parents":[2147483647,0,0],"right_children":[2,-1,-1],"split_conditions":[1.78E-3,-2.566543E-2,2.5641209E-2],"split_indices":[5,0,0],"split_type":[0,0,0],"sum_hessian":[2.3021655E0,1.1856784E0,1.1164871E0],"tree_param":{"num_deleted":"0","num_feature":"22","num_nodes":"3","size_leaf_vector":"1"}}]},"name":"gbtree"},"learner_model_param":{"base_score":"[7.5641024E-1]","boost_from_average":"1","num_class":"0","num_feature":"22","num_target":"1"},"objective":{"name":"binary:logistic","reg_loss_param":{"scale_pos_weight":"1"}}},"version":[3,1,2]}